


    // !!! This file is generated using emlearn !!!

    #include <eml_trees.h>
    

static const EmlTreesNode daegu_blossom_model_nodes[2016] = {
  { 1, -1, 1, 70 },
  { 0, 0, 1, 45 },
  { 0, 0, 1, 43 },
  { 1, -1, 1, 18 },
  { 0, -1, 1, 6 },
  { 1, -1, 1, -1 },
  { 1, -2, -2, 1 },
  { 0, -1, -3, 1 },
  { 1, -1, -3, 1 },
  { 1, -1, -4, -3 },
  { 1, -1, 1, 7 },
  { 0, 0, 1, 2 },
  { 0, 0, -1, -5 },
  { 0, 0, -2, 1 },
  { 2, 0, 1, 2 },
  { 1, -1, -3, -6 },
  { 1, -1, -2, -7 },
  { 0, 0, -2, 1 },
  { 0, 0, 1, -2 },
  { 2, 1, -8, 1 },
  { 1, -1, -8, -2 },
  { 1, -1, 1, 8 },
  { 0, 0, 1, 2 },
  { 2, 0, -3, -9 },
  { 2, 0, 1, 2 },
  { 0, 0, -6, -3 },
  { 2, 0, -1, 1 },
  { 1, -1, 1, -5 },
  { 1, -1, -6, -3 },
  { 1, -1, 1, 10 },
  { 1, -1, 1, 8 },
  { 0, -1, 1, 4 },
  { 0, -1, 1, 2 },
  { 0, -1, -8, -3 },
  { 0, -1, -8, -2 },
  { 0, 0, 1, 2 },
  { 0, 0, -10, -1 },
  { 0, 0, -11, -6 },
  { 2, 0, -3, -1 },
  { 0, -1, 1, 3 },
  { 2, 0, -8, 1 },
  { 0, -1, -3, -1 },
  { 0, 0, -2, 1 },
  { 0, 0, -1, 1 },
  { 0, 0, -4, -12 },
  { 2, 1, -8, -2 },
  { 2, 1, 1, 5 },
  { 0, 0, 1, 3 },
  { 2, 0, -5, 1 },
  { 1, -1, -5, -1 },
  { 0, 1, -9, -5 },
  { 2, 2, 1, -2 },
  { 1, -1, 1, 14 },
  { 1, -1, 1, 6 },
  { 0, 0, -5, 1 },
  { 0, 1, 1, 2 },
  { 0, 0, -2, -8 },
  { 1, -1, -8, 1 },
  { 0, 1, -6, -3 },
  { 0, 1, -1, 1 },
  { 1, -1, 1, 3 },
  { 0, 1, -3, 1 },
  { 1, -1, -1, -5 },
  { 0, 1, 1, 2 },
  { 2, 1, -3, -6 },
  { 1, -1, -3, -13 },
  { 0, 1, 1, -3 },
  { 1, -1, -2, 1 },
  { 2, 1, -8, 1 },
  { 0, 1, -14, -9 },
  { 1, 2, 1, 110 },
  { 2, 0, 1, 52 },
  { 1, 0, 1, 13 },
  { 0, -1, 1, 2 },
  { 1, 0, -1, -5 },
  { 1, 0, 1, -2 },
  { 1, 0, 1, 8 },
  { 0, 0, 1, 4 },
  { 0, 0, 1, 2 },
  { 0, 0, -15, -4 },
  { 0, 0, -16, -17 },
  { 0, 0, 1, 2 },
  { 1, 0, -8, -2 },
  { 1, 0, -2, -1 },
  { 1, 0, -18, -3 },
  { 0, 0, 1, 11 },
  { 1, 0, 1, 2 },
  { 1, 0, -18, -1 },
  { 1, 1, 1, -9 },
  { 0, 0, 1, 4 },
  { 0, 0, 1, 2 },
  { 1, 1, -19, -3 },
  { 1, 0, -20, -3 },
  { 1, 1, 1, 2 },
  { 0, 0, -1, -3 },
  { 1, 1, -1, -18 },
  { 2, -1, 1, 13 },
  { 1, 1, 1, 7 },
  { 1, 1, 1, 4 },
  { 1, 1, 1, 2 },
  { 1, 1, -9, -2 },
  { 0, 0, -8, -21 },
  { 1, 1, -2, 1 },
  { 0, 0, -22, -23 },
  { 0, 0, 1, 2 },
  { 0, 0, -6, -1 },
  { 1, 2, 1, 2 },
  { 1, 1, -24, -9 },
  { 0, 0, -2, -3 },
  { 1, 1, 1, 7 },
  { 1, 1, 1, 4 },
  { 1, 1, 1, 2 },
  { 1, 0, -25, -26 },
  { 2, -1, -27, -13 },
  { 2, -1, -2, 1 },
  { 0, 0, -3, -9 },
  { 1, 1, 1, 4 },
  { 0, 0, 1, 2 },
  { 1, 1, -9, -6 },
  { 0, 0, -28, -20 },
  { 1, 1, 1, 2 },
  { 1, 1, -29, -2 },
  { 0, 0, -30, -31 },
  { 0, -1, 1, 24 },
  { 1, 0, 1, 17 },
  { 1, 0, 1, 9 },
  { 0, -2, -2, 1 },
  { 1, 0, 1, 4 },
  { 1, 0, 1, 2 },
  { 2, 0, -32, -33 },
  { 0, -1, -8, -3 },
  { 2, 0, 1, 2 },
  { 0, -1, -34, -3 },
  { 0, -1, -13, -9 },
  { 0, -2, -5, 1 },
  { 2, 0, 1, 4 },
  { 0, -1, 1, 2 },
  { 0, -1, -35, -36 },
  { 0, -1, -4, -6 },
  { 0, -1, -2, 1 },
  { 1, 0, -6, -37 },
  { 1, 0, 1, 3 },
  { 2, 0, 1, -1 },
  { 1, 0, -18, -5 },
  { 0, -1, -5, 1 },
  { 1, 0, 1, -13 },
  { 0, -1, -3, -9 },
  { 1, 1, 1, 21 },
  { 1, -1, 1, 6 },
  { 2, 1, 1, 3 },
  { 1, -1, 1, -1 },
  { 2, 0, -5, -1 },
  { 0, 1, 1, -2 },
  { 0, 0, -9, -5 },
  { 0, 0, 1, 7 },
  { 1, 0, 1, 3 },
  { 1, -1, -2, 1 },
  { 1, 0, -38, -39 },
  { 0, 0, 1, 2 },
  { 2, 0, -40, -41 },
  { 1, 0, -42, -1 },
  { 1, -1, 1, 4 },
  { 0, 0, 1, 2 },
  { 1, -1, -9, -43 },
  { 1, -1, -44, -45 },
  { 0, 0, 1, 2 },
  { 2, 0, -46, -31 },
  { 2, 2, -47, -2 },
  { 0, 0, 1, 10 },
  { 0, 0, 1, 6 },
  { 0, 0, 1, 4 },
  { 1, 1, 1, 2 },
  { 1, 1, -5, -48 },
  { 1, 1, -49, -50 },
  { 1, 1, -9, -6 },
  { 0, 0, 1, 2 },
  { 1, 1, -5, -18 },
  { 1, 1, -5, -9 },
  { 2, 0, 1, -2 },
  { 2, 0, -13, -9 },
  { 1, 2, 1, 2 },
  { 0, 0, -1, -18 },
  { 1, 2, 1, 6 },
  { 2, -1, 1, -5 },
  { 0, 0, -9, 1 },
  { 0, 0, -5, 1 },
  { 1, 2, 1, -3 },
  { 0, 1, -9, -3 },
  { 0, 0, -3, 1 },
  { 0, 0, -18, 1 },
  { 0, 0, 1, 2 },
  { 1, 2, -9, -3 },
  { 0, 0, 1, 4 },
  { 2, -1, 1, 2 },
  { 0, 0, -13, -5 },
  { 0, 0, -51, -1 },
  { 0, 1, -9, -5 },
  { 1, 0, 1, 109 },
  { 0, 0, 1, 31 },
  { 0, -2, 1, 4 },
  { 1, 0, 1, 2 },
  { 1, 0, -3, -2 },
  { 0, -2, -5, -3 },
  { 2, 0, 1, 16 },
  { 2, 0, 1, 7 },
  { 1, -1, -1, 1 },
  { 0, 0, 1, -2 },
  { 0, -1, -8, 1 },
  { 0, -1, 1, 2 },
  { 1, 0, -52, -6 },
  { 1, 0, -53, -2 },
  { 0, -1, 1, 6 },
  { 1, 0, 1, -2 },
  { 1, 0, 1, 3 },
  { 0, -1, -2, 1 },
  { 1, -1, -2, -54 },
  { 0, -1, -5, -9 },
  { 0, 0, -2, 1 },
  { 1, -1, -2, -3 },
  { 1, -2, -2, 1 },
  { 1, -1, 1, 3 },
  { 0, -1, -3, 1 },
  { 1, -1, -5, -1 },
  { 1, -1, -2, 1 },
  { 0, 0, 1, 4 },
  { 0, -1, 1, 2 },
  { 1, -1, -3, -2 },
  { 1, 0, -55, -56 },
  { 1, -1, -2, -9 },
  { 1, -1, 1, 43 },
  { 0, 0, 1, 23 },
  { 2, 1, 1, 14 },
  { 2, 0, 1, 7 },
  { 0, 0, 1, -3 },
  { 0, 0, 1, 4 },
  { 0, 0, 1, 2 },
  { 1, -1, -57, -53 },
  { 1, -1, -31, -58 },
  { 2, 0, -2, -8 },
  { 0, 0, 1, -8 },
  { 0, 0, 1, 3 },
  { 0, 0, -6, 1 },
  { 0, 0, -1, -59 },
  { 1, -1, -8, 1 },
  { 1, -1, -1, -60 },
  { 1, -1, 1, 5 },
  { 0, 0, 1, -2 },
  { 1, -1, -3, 1 },
  { 0, 0, 1, -9 },
  { 2, 1, -61, -2 },
  { 1, -1, -5, 1 },
  { 1, -1, -2, 1 },
  { 1, -1, -9, -3 },
  { 2, 1, 1, 10 },
  { 1, -1, 1, 2 },
  { 1, -1, -8, -6 },
  { 1, -1, 1, 6 },
  { 0, 1, 1, 4 },
  { 2, 1, 1, 2 },
  { 2, 0, -5, -1 },
  { 1, -1, -8, -62 },
  { 0, 1, -1, -5 },
  { 0, 1, -8, -13 },
  { 1, -1, 1, 4 },
  { 1, -1, -8, 1 },
  { 0, 0, -3, 1 },
  { 0, 1, -1, -3 },
  { 0, 0, 1, 2 },
  { 0, 0, -1, -5 },
  { 2, 2, 1, -2 },
  { 1, -1, -2, 1 },
  { 1, -1, -63, -2 },
  { 1, 0, 1, 19 },
  { 1, -1, 1, 3 },
  { 1, -1, 1, -1 },
  { 1, -1, -5, -9 },
  { 0, 0, 1, 6 },
  { 1, 0, 1, 4 },
  { 1, 0, 1, -2 },
  { 0, 0, 1, -18 },
  { 2, 0, -13, -6 },
  { 0, 0, -13, -1 },
  { 1, 0, 1, 6 },
  { 1, 0, 1, 4 },
  { 0, 0, 1, 2 },
  { 2, 0, -64, -65 },
  { 0, 1, -66, -6 },
  { 2, 0, -2, -6 },
  { 2, 0, -3, 1 },
  { 0, 1, 1, -9 },
  { 2, 0, -1, -5 },
  { 2, 0, -2, 1 },
  { 1, 0, 1, 5 },
  { 0, 0, -13, 1 },
  { 0, 0, -2, 1 },
  { 2, 2, 1, -2 },
  { 2, 0, -8, -9 },
  { 2, 1, 1, 8 },
  { 0, 0, 1, 4 },
  { 2, 0, 1, 2 },
  { 1, 0, -1, -18 },
  { 1, 0, -3, -13 },
  { 0, 0, 1, 2 },
  { 1, 0, -22, -2 },
  { 0, 0, -67, -68 },
  { 1, 0, -18, -5 },
  { 2, 0, 1, 78 },
  { 1, 0, 1, 27 },
  { 0, 0, 1, 20 },
  { 0, 0, 1, 9 },
  { 1, 0, -2, 1 },
  { 0, 0, 1, 5 },
  { 0, -1, 1, 2 },
  { 0, -1, -5, -1 },
  { 0, -1, -8, 1 },
  { 0, -1, -5, -9 },
  { 1, 0, 1, -2 },
  { 2, -1, -8, -3 },
  { 1, 0, -18, 1 },
  { 1, 0, 1, 5 },
  { 1, 0, 1, 3 },
  { 1, 0, -9, 1 },
  { 0, 0, -6, -69 },
  { 1, 0, -3, -9 },
  { 0, 0, 1, 3 },
  { 0, 0, -3, 1 },
  { 1, 0, -13, -1 },
  { 0, 0, -6, -3 },
  { 2, -1, -2, 1 },
  { 0, 0, -2, 1 },
  { 1, 0, -2, 1 },
  { 0, 0, -1, 1 },
  { 0, 0, -3, 1 },
  { 1, 0, -13, -3 },
  { 1, 1, 1, 30 },
  { 1, 1, 1, 15 },
  { 1, 0, 1, 7 },
  { 2, -1, -18, 1 },
  { 1, 0, 1, 3 },
  { 0, 0, -5, 1 },
  { 2, -1, -2, -70 },
  { 0, 0, -18, 1 },
  { 2, -1, -13, -6 },
  { 1, 0, -2, 1 },
  { 1, 1, 1, 3 },
  { 0, 0, 1, -18 },
  { 1, 1, -9, -3 },
  { 0, 0, 1, 2 },
  { 1, 1, -6, -9 },
  { 1, 1, -2, -29 },
  { 0, 0, 1, 8 },
  { 0, 0, 1, -2 },
  { 2, -1, 1, 3 },
  { 0, -1, -8, 1 },
  { 0, 0, -13, -3 },
  { 1, 1, 1, 2 },
  { 2, -1, -1, -20 },
  { 1, 1, -62, -18 },
  { 1, 1, 1, 4 },
  { 1, 1, 1, -2 },
  { 0, 1, 1, -1 },
  { 0, 0, -71, -72 },
  { 0, 0, 1, -1 },
  { 0, 0, -18, -5 },
  { 1, 2, 1, 8 },
  { 1, 2, 1, -2 },
  { 1, 1, 1, 3 },
  { 0, 0, -2, 1 },
  { 1, 1, -9, -1 },
  { 1, 1, -1, 1 },
  { 1, 1, -2, 1 },
  { 0, 0, -73, -74 },
  { 1, 2, -18, 1 },
  { 0, 0, 1, 5 },
  { 1, 2, 1, 2 },
  { 1, 2, -3, -9 },
  { 0, 0, -13, 1 },
  { 0, 0, -72, -13 },
  { 0, 0, 1, 4 },
  { 2, -1, 1, 2 },
  { 0, 0, -5, -9 },
  { 0, 0, -5, -75 },
  { 1, 2, 1, -9 },
  { 1, 2, -3, -76 },
  { 0, 1, 1, 40 },
  { 1, 1, 1, 32 },
  { 0, 0, 1, 17 },
  { 1, 0, 1, 8 },
  { 0, -2, -1, 1 },
  { 0, -1, 1, 4 },
  { 0, -1, 1, 2 },
  { 0, -1, -13, -18 },
  { 1, 0, -9, -77 },
  { 0, -1, -5, 1 },
  { 0, -1, -78, -79 },
  { 0, 0, 1, 6 },
  { 1, 0, 1, 3 },
  { 2, 0, 1, -3 },
  { 0, 0, -80, -81 },
  { 0, -1, -2, 1 },
  { 0, 0, -45, -82 },
  { 2, 0, 1, -2 },
  { 2, 0, -6, -9 },
  { 1, 0, 1, 6 },
  { 2, 1, 1, -2 },
  { 2, 0, -1, 1 },
  { 2, 1, 1, 2 },
  { 1, 0, -6, -83 },
  { 0, 1, -84, -85 },
  { 1, 0, -2, 1 },
  { 0, 1, 1, 4 },
  { 2, 0, 1, 2 },
  { 0, 0, -9, -3 },
  { 1, 1, -86, -87 },
  { 0, 1, 1, 2 },
  { 2, 0, -88, -89 },
  { 1, 0, -69, -90 },
  { 1, 1, 1, 3 },
  { 2, 0, 1, -5 },
  { 0, 0, -1, -18 },
  { 1, 1, 1, 2 },
  { 0, 0, -3, -6 },
  { 1, 1, -18, 1 },
  { 0, 0, -18, -5 },
  { 2, 0, 1, 2 },
  { 1, 0, -9, -2 },
  { 0, 2, 1, -1 },
  { 0, 2, 1, 7 },
  { 0, 1, 1, 5 },
  { 0, 1, 1, 3 },
  { 1, 1, 1, -5 },
  { 1, 0, -91, -92 },
  { 2, 1, -2, -5 },
  { 1, 0, -1, -13 },
  { 1, 0, 1, 3 },
  { 1, 0, 1, -2 },
  { 1, 0, -8, -9 },
  { 1, 0, -6, -13 },
  { 0, 0, 1, 57 },
  { 1, -1, 1, 16 },
  { 1, -1, 1, 6 },
  { 2, 0, 1, 3 },
  { 1, -1, -8, 1 },
  { 2, 0, -3, -6 },
  { 1, -1, -3, 1 },
  { 1, -1, -1, -5 },
  { 1, -1, -2, 1 },
  { 2, 0, 1, 7 },
  { 0, -1, 1, 4 },
  { 0, -1, -3, 1 },
  { 1, -1, -3, 1 },
  { 2, 0, -8, -2 },
  { 1, -1, 1, -2 },
  { 0, -1, -18, -3 },
  { 0, -1, -2, -9 },
  { 2, 0, 1, 10 },
  { 0, -1, 1, 3 },
  { 1, 0, -13, 1 },
  { 2, -1, -8, -2 },
  { 2, -2, -2, 1 },
  { 1, 0, 1, 3 },
  { 0, -1, 1, -2 },
  { 1, 0, -6, -5 },
  { 0, -1, -8, 1 },
  { 1, 0, -3, -13 },
  { 1, 0, 1, 19 },
  { 1, 0, 1, -2 },
  { 0, -1, 1, 7 },
  { 1, 0, 1, 2 },
  { 2, 0, -5, -2 },
  { 0, -2, 1, 2 },
  { 1, 0, -5, -1 },
  { 0, -2, 1, -9 },
  { 0, -2, -3, -13 },
  { 0, -1, 1, 4 },
  { 1, 0, 1, -13 },
  { 2, 0, -2, 1 },
  { 1, 0, -4, -9 },
  { 1, 0, 1, 3 },
  { 0, -1, 1, -2 },
  { 1, -1, -93, -94 },
  { 0, -1, 1, 2 },
  { 1, 0, -95, -18 },
  { 2, 0, -18, -5 },
  { 1, 1, 1, -2 },
  { 2, 0, 1, 3 },
  { 1, 0, -2, 1 },
  { 1, 0, -3, -13 },
  { 1, 0, 1, -1 },
  { 1, 0, 1, 3 },
  { 0, -1, 1, -13 },
  { 0, -1, -5, -18 },
  { 1, 0, 1, 2 },
  { 1, 0, -9, -6 },
  { 1, 0, -51, -13 },
  { 0, 2, 1, 58 },
  { 1, -1, 1, 16 },
  { 2, 1, 1, 6 },
  { 2, 0, 1, 3 },
  { 1, -1, 1, -2 },
  { 2, 0, -3, -6 },
  { 0, 0, 1, -5 },
  { 0, 0, -5, -1 },
  { 1, -2, -1, 1 },
  { 0, 0, -3, 1 },
  { 0, 1, 1, 5 },
  { 0, 0, 1, 3 },
  { 1, -1, -3, 1 },
  { 1, -1, -96, -9 },
  { 0, 0, -2, -8 },
  { 1, -1, -8, 1 },
  { 1, -1, -6, -3 },
  { 0, 1, 1, 28 },
  { 1, -1, 1, 5 },
  { 2, 1, 1, -2 },
  { 0, 0, 1, 2 },
  { 1, -1, -5, -8 },
  { 2, 0, -5, -1 },
  { 1, -1, 1, 9 },
  { 0, 0, -1, 1 },
  { 1, -1, 1, 4 },
  { 1, -1, 1, 2 },
  { 0, 0, -2, -97 },
  { 2, 0, -98, -49 },
  { 0, 0, 1, 2 },
  { 2, 0, -1, -8 },
  { 0, 0, -99, -100 },
  { 1, -1, 1, 6 },
  { 2, 1, 1, 4 },
  { 0, 0, 1, 2 },
  { 0, 0, -1, -13 },
  { 1, -1, -101, -102 },
  { 0, 1, -5, -6 },
  { 1, 0, 1, 4 },
  { 1, 0, 1, 2 },
  { 2, 1, -103, -5 },
  { 0, 0, -104, -105 },
  { 2, -1, 1, 2 },
  { 1, 0, -106, -107 },
  { 1, 1, -108, -109 },
  { 2, 0, -2, 1 },
  { 1, -1, 1, 2 },
  { 2, 2, -2, -9 },
  { 0, 1, 1, 4 },
  { 2, 1, 1, -13 },
  { 2, 1, -13, 1 },
  { 1, 0, -3, -9 },
  { 0, 2, 1, 4 },
  { 1, 0, 1, 2 },
  { 0, 1, -110, -111 },
  { 0, 1, -112, -2 },
  { 0, 2, -1, 1 },
  { 1, 0, -113, -3 },
  { 1, 0, 1, 2 },
  { 2, 1, -3, -9 },
  { 1, 0, -2, 1 },
  { 1, 0, -1, -2 },
  { 1, 0, 1, 126 },
  { 1, -1, 1, 63 },
  { 0, 0, 1, 35 },
  { 2, 1, 1, -5 },
  { 2, 1, 1, 24 },
  { 1, -1, 1, 11 },
  { 0, -1, 1, 3 },
  { 0, -1, -3, 1 },
  { 0, -1, -8, -2 },
  { 1, -1, 1, 4 },
  { 2, 0, 1, 2 },
  { 2, 0, -114, -115 },
  { 0, 0, -116, -8 },
  { 0, 0, 1, 2 },
  { 0, -1, -18, -1 },
  { 0, 0, -2, -3 },
  { 0, -1, 1, 5 },
  { 0, -1, 1, -2 },
  { 2, 0, 1, 2 },
  { 0, -1, -117, -3 },
  { 1, -1, -2, -13 },
  { 0, 0, 1, 4 },
  { 0, 0, 1, 2 },
  { 1, -1, -69, -8 },
  { 1, -1, -1, -13 },
  { 0, 0, 1, 2 },
  { 0, 0, -2, -118 },
  { 1, -1, -58, -18 },
  { 1, -1, 1, 5 },
  { 0, 0, 1, -2 },
  { 0, 0, 1, -9 },
  { 1, -1, -3, 1 },
  { 0, 0, -96, -22 },
  { 1, -1, 1, 2 },
  { 0, 0, -9, -1 },
  { 1, -1, 1, -3 },
  { 1, -1, -2, -8 },
  { 1, -1, 1, 11 },
  { 1, -1, 1, 7 },
  { 0, 0, 1, 2 },
  { 2, 1, -1, -5 },
  { 1, -1, -1, 1 },
  { 1, -1, -8, 1 },
  { 0, 0, -8, 1 },
  { 1, -1, -1, -3 },
  { 1, -1, -1, 1 },
  { 1, -1, -3, 1 },
  { 2, 1, -5, -1 },
  { 1, -1, 1, 6 },
  { 0, 0, -1, 1 },
  { 1, -1, 1, -2 },
  { 0, 2, 1, -2 },
  { 0, 1, -8, 1 },
  { 1, -1, -6, -3 },
  { 2, 1, 1, 4 },
  { 0, 0, -1, 1 },
  { 2, 1, -5, 1 },
  { 1, -1, -3, -13 },
  { 0, 1, -22, 1 },
  { 0, 1, 1, 2 },
  { 2, 1, -6, -9 },
  { 0, 1, 1, 2 },
  { 1, -1, -13, -3 },
  { 1, -1, -3, -53 },
  { 1, -1, 1, 8 },
  { 0, 0, 1, -1 },
  { 0, 0, 1, -9 },
  { 0, -1, -3, 1 },
  { 2, 0, 1, 2 },
  { 1, -1, -1, -13 },
  { 0, 0, 1, -5 },
  { 2, 1, -1, -5 },
  { 1, 0, 1, 33 },
  { 1, 0, 1, 20 },
  { 0, -1, 1, 10 },
  { 0, -2, 1, 3 },
  { 0, -2, -2, 1 },
  { 0, -2, -5, -3 },
  { 0, -1, 1, 3 },
  { 1, 0, 1, -2 },
  { 0, -1, -5, -8 },
  { 0, -1, 1, 2 },
  { 2, 0, -119, -5 },
  { 0, -1, -2, -120 },
  { 2, 0, 1, 2 },
  { 1, 0, -8, -2 },
  { 1, 0, 1, 4 },
  { 1, 0, 1, 2 },
  { 1, 0, -121, -122 },
  { 0, -1, -3, -123 },
  { 1, 0, 1, 2 },
  { 0, 0, -6, -124 },
  { 0, -1, -2, -125 },
  { 0, 0, 1, 7 },
  { 0, -1, 1, 3 },
  { 2, 0, 1, -1 },
  { 0, -2, -5, -3 },
  { 0, -1, -8, 1 },
  { 0, -1, -13, 1 },
  { 1, 0, -126, -9 },
  { 0, 0, 1, 3 },
  { 2, 0, -3, 1 },
  { 1, 0, -18, -1 },
  { 1, 0, 1, -8 },
  { 1, 0, -9, -6 },
  { 1, 0, 1, 6 },
  { 0, 0, 1, -2 },
  { 0, 0, 1, -1 },
  { 2, 0, 1, -13 },
  { 0, -1, 1, -2 },
  { 0, -1, -8, -69 },
  { 0, 0, 1, 7 },
  { 1, 0, -1, 1 },
  { 2, 0, 1, 3 },
  { 1, 0, 1, -2 },
  { 1, 0, -127, -3 },
  { 1, 0, 1, -1 },
  { 1, 0, -128, -129 },
  { 1, 0, 1, 6 },
  { 0, 1, 1, 4 },
  { 0, 1, 1, 2 },
  { 1, 0, -3, -8 },
  { 2, 1, -13, -29 },
  { 0, 2, -2, -6 },
  { 0, 1, 1, -8 },
  { 0, 0, -8, -2 },
  { 2, 0, 1, 63 },
  { 1, 2, 1, 49 },
  { 0, 0, 1, 23 },
  { 1, 0, 1, 3 },
  { 0, 0, -2, 1 },
  { 0, 0, -18, -5 },
  { 1, 1, 1, 13 },
  { 0, 0, 1, 7 },
  { 0, 0, 1, 4 },
  { 0, -1, 1, 2 },
  { 0, -1, -1, -5 },
  { 0, -1, -57, -130 },
  { 0, 0, 1, -2 },
  { 0, 0, -4, -72 },
  { 0, 0, 1, 2 },
  { 2, -1, -1, -18 },
  { 2, -1, 1, 2 },
  { 2, -1, -3, -13 },
  { 1, 0, -9, -1 },
  { 2, -1, 1, 2 },
  { 1, 1, -18, -1 },
  { 2, -1, 1, 3 },
  { 1, 2, 1, -9 },
  { 0, 0, -9, -3 },
  { 0, 0, -18, -5 },
  { 0, 0, 1, 9 },
  { 0, 0, 1, -2 },
  { 1, 2, 1, 6 },
  { 2, -2, 1, 2 },
  { 1, 1, -9, -8 },
  { 0, 0, 1, 2 },
  { 1, 1, -131, -29 },
  { 0, 0, -132, -69 },
  { 0, 0, -2, -9 },
  { 1, 0, 1, 4 },
  { 2, -1, -2, 1 },
  { 1, 0, -2, 1 },
  { 0, 0, -3, -13 },
  { 1, 1, 1, 6 },
  { 0, 0, 1, 4 },
  { 2, -1, 1, 2 },
  { 1, 0, -2, -3 },
  { 0, 0, -5, -10 },
  { 0, 1, -1, -3 },
  { 0, 0, 1, 3 },
  { 2, -1, 1, -9 },
  { 0, 0, -1, -5 },
  { 0, 0, 1, 2 },
  { 0, 0, -30, -2 },
  { 1, 1, -133, -134 },
  { 1, 2, 1, 12 },
  { 0, 1, 1, -1 },
  { 1, 2, 1, 6 },
  { 2, -1, 1, -9 },
  { 1, 2, 1, 2 },
  { 2, -1, -5, -9 },
  { 1, 2, 1, -1 },
  { 1, 2, -18, -5 },
  { 1, 2, 1, 3 },
  { 0, 0, -13, 1 },
  { 0, 0, -3, -13 },
  { 1, 2, -9, -13 },
  { 0, 0, -18, -1 },
  { 0, 1, 1, 45 },
  { 0, -1, 1, 16 },
  { 2, 0, 1, 11 },
  { 0, -1, 1, 6 },
  { 1, 0, 1, 3 },
  { 1, 0, 1, -2 },
  { 0, -2, -13, -9 },
  { 0, -1, -13, 1 },
  { 0, -1, -18, -5 },
  { 0, -1, -2, 1 },
  { 1, 0, -8, 1 },
  { 1, 0, -5, 1 },
  { 2, 0, -135, -2 },
  { 1, 0, 1, 3 },
  { 1, 0, 1, -9 },
  { 1, 0, -13, -5 },
  { 2, 0, -1, -5 },
  { 0, 1, 1, 20 },
  { 1, 1, 1, 15 },
  { 0, 0, 1, 8 },
  { 0, 0, 1, 4 },
  { 1, 0, 1, 2 },
  { 1, 0, -136, -137 },
  { 1, 0, -138, -139 },
  { 1, 0, 1, 2 },
  { 1, 0, -31, -140 },
  { 1, 0, -141, -142 },
  { 1, 0, 1, 3 },
  { 0, 0, 1, -13 },
  { 2, 0, -1, -18 },
  { 0, 0, 1, 2 },
  { 0, 0, -112, -2 },
  { 1, 0, -8, -143 },
  { 0, 0, 1, -9 },
  { 0, 0, -3, 1 },
  { 2, 0, 1, -18 },
  { 1, 1, -20, -102 },
  { 1, 0, 1, 2 },
  { 2, 1, -1, -13 },
  { 1, 0, -2, 1 },
  { 1, 0, 1, 3 },
  { 0, 1, -9, 1 },
  { 0, 1, -5, -144 },
  { 2, 0, -1, 1 },
  { 1, 0, -145, -146 },
  { 2, 0, 1, 13 },
  { 1, 0, 1, 3 },
  { 0, 1, 1, -1 },
  { 1, 0, -9, -3 },
  { 0, 1, 1, 8 },
  { 0, 1, 1, 3 },
  { 1, 0, 1, -2 },
  { 2, 0, -13, -9 },
  { 1, 0, -2, 1 },
  { 0, 1, 1, 2 },
  { 0, 1, -9, -147 },
  { 2, 0, -2, -29 },
  { 0, 1, -2, -6 },
  { 1, 0, 1, 2 },
  { 0, 1, -9, -8 },
  { 0, 1, 1, 4 },
  { 1, 0, 1, -18 },
  { 0, 1, -3, 1 },
  { 1, 0, -13, -5 },
  { 1, 0, 1, 5 },
  { 0, 1, 1, 3 },
  { 1, 0, 1, -1 },
  { 1, 0, -48, -9 },
  { 2, 1, -1, -5 },
  { 1, 0, -2, 1 },
  { 1, 0, 1, -5 },
  { 0, 2, -148, -1 },
  { 1, 0, 1, 98 },
  { 1, -2, -2, 1 },
  { 1, 0, 1, 73 },
  { 1, -1, 1, 44 },
  { 2, 0, 1, 22 },
  { 2, 0, 1, 14 },
  { 1, -1, 1, 7 },
  { 1, -1, 1, 4 },
  { 1, -1, 1, 2 },
  { 0, -1, -117, -2 },
  { 0, -1, -6, -3 },
  { 0, 0, 1, -6 },
  { 0, -1, -8, -2 },
  { 0, 0, 1, 4 },
  { 0, -1, 1, 2 },
  { 0, -2, -3, -14 },
  { 0, 0, -34, -149 },
  { 0, 0, 1, -3 },
  { 0, 0, -8, -2 },
  { 1, -1, 1, 6 },
  { 1, -1, 1, 3 },
  { 0, 0, 1, -6 },
  { 1, -1, -3, -1 },
  { 0, -1, -3, 1 },
  { 0, 0, -1, -5 },
  { 0, 0, -2, -5 },
  { 0, 0, 1, 14 },
  { 0, 0, 1, 7 },
  { 0, -1, 1, 3 },
  { 1, -1, -2, 1 },
  { 1, -1, -13, -2 },
  { 0, 0, 1, 2 },
  { 0, 0, -150, -8 },
  { 1, -1, -151, -30 },
  { 2, 1, 1, 3 },
  { 0, 0, 1, -8 },
  { 0, 0, -58, -45 },
  { 1, -1, 1, 2 },
  { 1, -1, -152, -2 },
  { 1, -1, -5, -8 },
  { 0, 0, 1, 3 },
  { 2, 0, -5, 1 },
  { 1, -1, -1, -5 },
  { 0, 0, -2, 1 },
  { 0, 1, 1, 2 },
  { 2, 1, -5, -1 },
  { 1, -1, -8, -153 },
  { 0, -1, 1, 8 },
  { 0, -1, 1, 4 },
  { 1, -1, 1, -5 },
  { 0, -1, -3, 1 },
  { 1, -1, -8, -6 },
  { 0, -1, -2, 1 },
  { 1, -1, -3, 1 },
  { 2, 0, -8, -3 },
  { 0, 0, 1, 14 },
  { 1, -1, 1, 6 },
  { 0, 0, 1, 3 },
  { 1, -1, 1, -2 },
  { 0, -1, -1, -154 },
  { 1, -1, -3, 1 },
  { 0, 0, -155, -1 },
  { 1, 0, 1, 4 },
  { 2, 0, 1, 2 },
  { 0, 0, -156, -157 },
  { 0, 0, -2, -158 },
  { 2, 0, 1, 2 },
  { 2, 0, -1, -18 },
  { 1, 0, -13, -9 },
  { 0, 0, -2, 1 },
  { 1, -1, 1, 3 },
  { 0, 1, -159, 1 },
  { 0, 1, -2, -8 },
  { 2, 1, 1, -5 },
  { 0, 1, -13, -3 },
  { 0, 0, 1, 17 },
  { 0, 0, 1, -2 },
  { 0, -1, 1, 2 },
  { 2, 0, -5, -3 },
  { 0, 0, 1, 6 },
  { 0, 0, 1, 4 },
  { 2, 0, 1, 2 },
  { 0, -1, -8, -9 },
  { 2, 0, -2, -9 },
  { 2, 0, -8, -2 },
  { 2, 0, 1, 4 },
  { 1, 0, 1, 2 },
  { 2, 0, -160, -42 },
  { 1, 0, -8, -3 },
  { 2, 1, 1, 2 },
  { 0, 0, -22, -2 },
  { 0, 0, -18, -9 },
  { 1, 0, -5, 1 },
  { 0, 1, 1, 3 },
  { 1, 0, -8, 1 },
  { 1, 0, -9, -3 },
  { 0, 2, 1, -9 },
  { 1, 0, -13, -3 },
  { 2, 0, 1, 55 },
  { 1, 2, 1, 37 },
  { 1, 0, 1, 8 },
  { 1, 0, 1, 2 },
  { 0, -1, -13, -5 },
  { 0, 0, 1, -2 },
  { 0, 0, 1, 2 },
  { 1, 0, -2, -3 },
  { 1, 0, -18, 1 },
  { 0, 0, -6, -9 },
  { 1, 2, 1, 26 },
  { 1, 1, 1, 16 },
  { 1, 1, 1, 8 },
  { 1, 1, 1, 4 },
  { 0, 0, 1, 2 },
  { 0, 0, -161, -162 },
  { 0, 1, -1, -13 },
  { 0, 0, 1, 2 },
  { 1, 1, -163, -164 },
  { 1, 1, -165, -2 },
  { 0, 0, 1, 4 },
  { 0, 0, 1, 2 },
  { 1, 1, -166, -34 },
  { 1, 1, -2, -124 },
  { 2, -1, 1, 2 },
  { 1, 1, -2, -167 },
  { 1, 1, -9, -168 },
  { 0, 0, 1, 3 },
  { 2, -1, 1, -9 },
  { 0, 0, -18, -5 },
  { 0, 0, 1, 4 },
  { 2, -1, 1, 2 },
  { 1, 1, -165, -9 },
  { 0, 0, -13, -2 },
  { 1, 1, 1, -5 },
  { 0, 1, -13, -9 },
  { 0, 0, 1, -2 },
  { 2, -1, -1, -3 },
  { 0, 0, -1, 1 },
  { 1, 2, 1, 14 },
  { 1, 2, 1, 5 },
  { 0, 0, 1, -9 },
  { 0, 0, 1, 2 },
  { 1, 2, -5, -18 },
  { 0, 0, -9, -5 },
  { 0, 1, 1, 6 },
  { 1, 2, 1, 2 },
  { 0, 0, -9, -3 },
  { 2, -1, 1, 2 },
  { 1, 2, -157, -9 },
  { 1, 2, -51, -157 },
  { 0, 1, 1, -1 },
  { 2, -1, -13, -5 },
  { 0, 0, 1, -9 },
  { 2, -1, -18, -1 },
  { 0, 1, 1, 66 },
  { 0, 0, 1, 27 },
  { 0, -2, 1, 2 },
  { 1, 0, -5, -1 },
  { 0, -1, 1, 10 },
  { 1, 0, 1, 3 },
  { 0, -2, -3, 1 },
  { 0, -1, -2, -9 },
  { 2, 0, 1, 4 },
  { 0, -1, 1, 2 },
  { 0, -1, -157, -51 },
  { 1, 0, -169, -170 },
  { 0, -1, -2, 1 },
  { 0, -1, -171, -10 },
  { 0, 0, 1, 8 },
  { 1, 0, 1, 4 },
  { 1, 0, 1, 2 },
  { 1, 0, -172, -173 },
  { 1, 0, -9, -37 },
  { 1, 1, 1, 2 },
  { 0, 0, -1, -18 },
  { 0, 0, -9, -3 },
  { 1, 1, 1, 4 },
  { 1, 0, 1, 2 },
  { 1, 0, -174, -175 },
  { 1, 0, -176, -72 },
  { 2, 0, 1, -5 },
  { 2, 0, -51, -18 },
  { 0, 0, 1, 19 },
  { 0, 0, 1, 11 },
  { 1, 1, 1, 7 },
  { 0, 0, 1, 4 },
  { 1, 0, 1, 2 },
  { 0, 0, -177, -178 },
  { 1, 1, -179, -180 },
  { 2, 0, -2, 1 },
  { 1, 0, -181, -182 },
  { 0, 0, 1, -9 },
  { 2, 0, 1, -5 },
  { 1, 1, -5, -18 },
  { 0, 0, -1, 1 },
  { 1, 0, 1, 3 },
  { 1, 0, -3, 1 },
  { 1, 0, -1, -5 },
  { 2, 0, 1, 2 },
  { 1, 0, -3, -9 },
  { 2, 1, -27, -9 },
  { 1, 0, 1, 11 },
  { 1, 0, 1, 7 },
  { 2, 1, 1, 4 },
  { 1, 0, 1, 2 },
  { 2, 0, -5, -10 },
  { 0, 1, -183, -147 },
  { 1, 0, -1, 1 },
  { 0, 1, -5, -10 },
  { 0, 1, -3, 1 },
  { 0, 1, -8, 1 },
  { 0, 1, -4, -2 },
  { 0, 0, 1, 2 },
  { 1, 0, -2, -3 },
  { 1, 0, 1, 4 },
  { 1, 0, 1, 2 },
  { 1, 0, -184, -185 },
  { 0, 1, -18, -1 },
  { 0, 1, -18, 1 },
  { 0, 1, -153, -186 },
  { 2, 0, -5, 1 },
  { 2, 0, 1, 6 },
  { 0, 1, 1, 2 },
  { 2, 0, -2, -8 },
  { 1, 0, 1, -2 },
  { 0, 1, -3, 1 },
  { 2, 0, -9, -6 },
  { 0, 2, 1, -1 },
  { 2, 2, 1, -2 },
  { 0, 1, 1, 3 },
  { 2, 1, 1, -2 },
  { 1, 0, -6, -13 },
  { 0, 1, 1, 2 },
  { 1, 0, -1, -3 },
  { 0, 2, -187, -188 },
  { 1, -1, 1, 61 },
  { 0, 0, 1, 35 },
  { 0, 0, 1, 31 },
  { 1, -1, 1, -2 },
  { 1, -1, 1, 15 },
  { 2, 0, 1, 5 },
  { 2, 0, 1, 3 },
  { 0, -1, -3, 1 },
  { 0, -1, -8, -3 },
  { 0, 0, -2, -3 },
  { 1, -1, 1, 5 },
  { 1, -2, -2, 1 },
  { 0, 0, 1, 2 },
  { 2, 0, -3, -5 },
  { 1, -1, -2, -3 },
  { 2, 1, 1, 3 },
  { 0, -1, 1, -1 },
  { 2, 0, -1, -5 },
  { 0, 0, -3, -9 },
  { 1, -1, 1, 2 },
  { 1, -1, -8, -2 },
  { 0, 0, 1, 7 },
  { 0, 0, 1, 4 },
  { 0, -1, 1, 2 },
  { 1, -1, -29, -189 },
  { 2, 0, -3, -1 },
  { 2, 0, -1, 1 },
  { 1, -1, -2, -190 },
  { 2, 1, 1, 4 },
  { 2, 1, 1, 2 },
  { 0, 0, -31, -191 },
  { 1, -1, -192, -29 },
  { 1, -1, -9, -5 },
  { 1, -1, 1, 2 },
  { 2, 1, -8, -2 },
  { 2, 1, -8, -5 },
  { 0, 0, 1, 5 },
  { 2, 1, 1, -3 },
  { 0, 0, -1, 1 },
  { 1, -1, 1, -5 },
  { 0, 0, -1, -5 },
  { 0, 0, -2, 1 },
  { 1, -2, -1, 1 },
  { 2, 1, 1, 7 },
  { 1, -1, -8, 1 },
  { 0, 1, 1, 3 },
  { 0, 1, 1, -8 },
  { 1, -1, -193, -8 },
  { 0, 1, 1, -13 },
  { 2, 1, -5, -1 },
  { 0, 1, 1, 6 },
  { 0, 1, 1, 3 },
  { 1, -1, -1, 1 },
  { 0, 1, -131, -113 },
  { 1, -1, 1, -6 },
  { 1, -1, -8, -2 },
  { 1, -1, 1, 2 },
  { 1, -1, -9, -2 },
  { 0, 2, 1, 2 },
  { 1, -1, -13, -135 },
  { 1, -1, -6, -9 },
  { 0, 2, 1, -2 },
  { 0, -1, 1, 18 },
  { 1, 0, 1, 13 },
  { 1, 0, 1, -2 },
  { 1, 0, 1, 7 },
  { 1, 0, 1, 5 },
  { 1, 0, 1, -5 },
  { 1, -1, 1, 2 },
  { 0, -1, -129, -156 },
  { 0, -1, -194, -57 },
  { 1, 0, -2, -6 },
  { 0, -2, -5, 1 },
  { 1, 0, 1, -5 },
  { 1, 0, 1, -8 },
  { 2, 0, -9, -195 },
  { 0, -1, 1, -2 },
  { 2, 0, 1, 2 },
  { 2, 0, -5, -13 },
  { 2, 0, -18, -1 },
  { 2, 0, 1, 27 },
  { 1, 0, 1, 3 },
  { 0, 0, 1, -2 },
  { 2, -1, -5, -6 },
  { 1, 2, 1, 14 },
  { 2, -1, 1, 7 },
  { 1, 0, 1, 3 },
  { 0, 0, 1, -2 },
  { 1, 0, -196, -2 },
  { 1, 1, 1, 2 },
  { 0, 0, -1, -37 },
  { 1, 1, -197, -198 },
  { 1, 0, 1, 3 },
  { 1, 0, 1, -2 },
  { 1, 0, -199, -200 },
  { 1, 0, 1, 2 },
  { 0, 0, -18, -1 },
  { 1, 1, -201, -51 },
  { 2, -1, 1, 5 },
  { 1, 2, 1, -18 },
  { 0, 0, 1, 2 },
  { 0, 0, -13, -1 },
  { 1, 2, -143, -9 },
  { 2, -1, 1, 3 },
  { 1, 2, 1, -1 },
  { 1, 2, -202, -13 },
  { 0, 0, -9, -5 },
  { 0, 1, 1, 19 },
  { 1, 1, 1, 15 },
  { 1, 0, 1, 8 },
  { 1, 0, 1, 4 },
  { 0, -1, 1, 2 },
  { 1, 0, -203, -204 },
  { 0, 0, -205, -206 },
  { 0, 0, 1, 2 },
  { 0, 0, -207, -208 },
  { 0, 0, -30, -45 },
  { 0, -1, 1, 3 },
  { 1, 0, -1, 1 },
  { 1, 0, -13, -209 },
  { 0, -1, 1, 2 },
  { 1, 0, -13, -2 },
  { 0, 0, -210, -211 },
  { 0, 0, 1, -13 },
  { 0, 0, -1, 1 },
  { 0, 0, -5, -18 },
  { 2, 0, 1, 4 },
  { 1, 0, 1, 2 },
  { 1, 0, -13, -9 },
  { 2, 0, -5, -2 },
  { 2, 1, 1, 5 },
  { 1, 1, 1, -2 },
  { 1, 0, 1, 2 },
  { 0, 1, -1, -3 },
  { 1, 1, -212, -5 },
  { 1, 0, -2, 1 },
  { 0, 1, -6, -9 },
  { 0, -1, 1, 78 },
  { 1, 0, 1, 58 },
  { 0, -2, 1, 2 },
  { 1, 0, -3, -5 },
  { 2, 0, 1, 28 },
  { 0, -1, 1, 15 },
  { 1, -1, 1, 7 },
  { 0, -1, -8, 1 },
  { 1, -1, 1, 3 },
  { 1, -1, 1, -8 },
  { 1, -1, -8, -213 },
  { 0, -1, 1, -13 },
  { 0, -1, -3, -8 },
  { 2, 0, 1, 4 },
  { 1, 0, 1, 2 },
  { 1, 0, -2, -8 },
  { 1, 0, -3, -13 },
  { 1, 0, 1, -2 },
  { 0, -1, 1, -2 },
  { 1, 0, -214, -215 },
  { 1, 0, 1, 11 },
  { 1, 0, 1, 5 },
  { 0, -1, 1, -2 },
  { 1, -1, 1, 2 },
  { 0, -1, -216, -2 },
  { 0, -1, -3, -5 },
  { 0, -1, 1, 3 },
  { 0, -1, 1, -2 },
  { 0, -1, -217, -72 },
  { 2, 0, 1, -9 },
  { 0, -1, -3, -9 },
  { 2, 0, -5, -13 },
  { 1, 0, 1, 17 },
  { 0, -1, 1, 7 },
  { 2, 0, 1, -2 },
  { 1, 0, 1, 3 },
  { 1, -1, 1, -5 },
  { 1, -1, -218, -8 },
  { 2, 0, -2, 1 },
  { 1, 0, -9, -13 },
  { 0, -1, 1, 6 },
  { 0, -1, 1, 4 },
  { 0, -1, 1, 2 },
  { 1, -1, -2, -219 },
  { 1, -1, -3, -9 },
  { 1, -1, -9, -2 },
  { 1, -1, -2, 1 },
  { 1, -1, -1, 1 },
  { 2, 0, -3, -9 },
  { 1, 0, 1, 6 },
  { 1, 0, -5, 1 },
  { 0, -1, 1, 3 },
  { 1, 0, 1, -13 },
  { 0, -1, -6, -69 },
  { 1, 0, -13, -3 },
  { 0, -1, 1, -5 },
  { 0, -1, -9, 1 },
  { 0, -1, -5, 1 },
  { 1, 0, -9, -13 },
  { 0, -1, 1, 10 },
  { 0, -1, 1, 5 },
  { 1, 0, 1, 3 },
  { 2, 0, -1, 1 },
  { 0, -2, -1, -5 },
  { 0, -1, -13, -5 },
  { 1, 0, -18, 1 },
  { 1, 0, -3, 1 },
  { 1, 0, 1, -13 },
  { 2, 0, -5, -13 },
  { 0, -1, 1, 3 },
  { 1, 0, -2, 1 },
  { 2, -1, -8, -6 },
  { 2, 0, 1, -2 },
  { 2, -1, 1, 3 },
  { 0, -1, 1, -5 },
  { 0, -1, -3, -13 },
  { 2, 0, 1, -13 },
  { 0, -1, -13, -3 },
  { 1, -1, 1, 22 },
  { 1, -1, 1, 18 },
  { 0, 0, 1, 2 },
  { 0, 0, -1, -5 },
  { 0, 0, 1, 8 },
  { 0, 0, 1, 6 },
  { 2, 0, 1, 4 },
  { 0, 0, 1, -3 },
  { 2, 0, -3, 1 },
  { 2, 0, -2, -220 },
  { 2, 1, -1, -3 },
  { 2, 1, -8, -2 },
  { 1, -1, 1, 6 },
  { 2, 1, 1, 2 },
  { 1, -1, -5, -1 },
  { 2, 1, 1, -1 },
  { 0, 0, -5, 1 },
  { 1, -1, -8, -221 },
  { 2, 0, -5, -1 },
  { 1, -1, -8, 1 },
  { 2, 0, -2, 1 },
  { 1, -1, -2, -8 },
  { 2, 0, 1, 53 },
  { 1, 2, 1, 42 },
  { 1, 0, 1, 19 },
  { 0, 0, 1, 14 },
  { 0, 0, 1, 6 },
  { 0, 0, 1, 4 },
  { 1, 0, 1, 2 },
  { 0, 0, -2, -6 },
  { 0, 0, -9, -3 },
  { 2, -1, -8, -2 },
  { 1, 0, 1, 4 },
  { 0, 0, 1, 2 },
  { 0, 0, -5, -18 },
  { 0, 0, -222, -119 },
  { 2, -1, 1, 2 },
  { 0, 0, -8, -219 },
  { 1, 0, -223, -224 },
  { 0, 0, -2, 1 },
  { 1, 0, -2, 1 },
  { 1, 0, 1, -2 },
  { 1, 0, -3, -13 },
  { 2, -1, 1, 12 },
  { 1, 2, 1, 8 },
  { 1, 1, 1, 4 },
  { 0, 0, 1, 2 },
  { 1, 0, -225, -29 },
  { 0, 1, -226, -1 },
  { 2, -2, 1, 2 },
  { 0, 0, -8, -9 },
  { 0, 0, -227, -86 },
  { 1, 2, -2, 1 },
  { 0, 0, -2, 1 },
  { 0, 0, -9, -72 },
  { 1, 1, 1, 4 },
  { 1, 1, 1, -2 },
  { 1, 1, 1, -1 },
  { 0, 0, -228, -20 },
  { 0, 1, 1, 4 },
  { 1, 1, 1, 2 },
  { 0, 0, -1, -18 },
  { 1, 1, -9, -229 },
  { 0, 1, 1, -6 },
  { 0, 1, -9, -3 },
  { 0, 1, 1, -1 },
  { 0, 0, 1, 7 },
  { 0, 0, 1, 2 },
  { 2, -1, -9, -13 },
  { 2, -1, 1, -9 },
  { 0, 0, 1, 2 },
  { 0, 0, -18, -29 },
  { 0, 0, -230, -18 },
  { 2, -1, 1, -5 },
  { 0, 1, -9, -13 },
  { 0, 1, 1, 39 },
  { 1, 0, 1, 23 },
  { 0, 0, 1, 8 },
  { 2, 1, 1, -2 },
  { 2, 0, 1, 4 },
  { 2, 0, 1, 2 },
  { 0, 0, -231, -18 },
  { 1, 0, -232, -233 },
  { 1, 0, 1, -8 },
  { 2, 0, -234, -9 },
  { 0, 0, 1, 7 },
  { 0, 0, 1, 3 },
  { 1, -1, -1, 1 },
  { 1, -1, -65, -235 },
  { 0, 0, 1, 2 },
  { 2, 0, -6, -96 },
  { 1, 0, -6, -236 },
  { 1, 0, 1, 4 },
  { 1, 0, 1, 2 },
  { 2, 1, -237, -173 },
  { 1, 0, -238, -89 },
  { 1, 0, 1, 2 },
  { 0, 0, -69, -51 },
  { 0, 0, -239, -240 },
  { 0, 0, -1, 1 },
  { 1, 1, 1, 8 },
  { 1, 0, 1, 4 },
  { 2, 0, 1, 2 },
  { 0, 0, -241, -3 },
  { 1, 0, -30, -102 },
  { 2, 0, 1, 2 },
  { 1, 0, -1, -242 },
  { 1, 0, -243, -244 },
  { 1, 1, 1, 3 },
  { 1, 1, -5, 1 },
  { 0, 0, -1, -18 },
  { 1, 1, 1, 2 },
  { 1, 1, -126, -56 },
  { 1, 1, -18, -51 },
  { 1, 0, 1, 12 },
  { 0, 2, 1, -2 },
  { 1, 0, 1, 5 },
  { 1, 0, 1, 3 },
  { 2, 0, -1, 1 },
  { 0, 1, -245, -246 },
  { 2, 0, -2, -9 },
  { 0, 1, 1, 3 },
  { 1, 0, 1, -3 },
  { 0, 1, -5, -247 },
  { 1, 0, 1, -9 },
  { 2, 1, -3, -13 },
  { 0, 1, 1, 14 },
  { 0, 1, 1, 8 },
  { 2, 1, 1, 4 },
  { 1, 0, 1, 2 },
  { 1, 0, -53, -4 },
  { 1, 1, -30, -13 },
  { 0, 1, 1, 2 },
  { 1, 0, -3, -9 },
  { 0, 1, -18, -3 },
  { 1, 0, 1, 3 },
  { 1, 0, 1, -1 },
  { 1, 0, -9, -13 },
  { 0, 1, 1, -6 },
  { 2, 0, -9, -142 },
  { 2, 0, -2, 1 },
  { 1, 1, 1, -2 },
  { 1, 0, 1, 2 },
  { 1, 0, -29, -2 },
  { 2, 0, -248, -249 },
  { 1, 0, 1, 101 },
  { 0, -1, 1, 34 },
  { 0, -1, 1, 32 },
  { 0, -1, 1, 19 },
  { 1, 0, 1, 8 },
  { 1, -1, -8, 1 },
  { 2, 0, 1, -2 },
  { 2, 0, 1, 4 },
  { 0, -1, 1, 2 },
  { 0, -1, -250, -251 },
  { 2, 0, -13, -3 },
  { 0, -1, -3, -5 },
  { 0, -1, 1, 7 },
  { 1, 0, 1, 2 },
  { 0, -1, -2, -8 },
  { 2, 0, -2, 1 },
  { 0, -2, 1, 2 },
  { 1, 0, -2, -5 },
  { 1, 0, -252, -129 },
  { 2, 0, 1, 2 },
  { 2, 0, -8, -2 },
  { 0, -1, -6, -13 },
  { 2, 0, 1, 3 },
  { 1, -1, -3, 1 },
  { 1, 0, -1, -5 },
  { 0, -1, 1, 5 },
  { 2, 0, 1, -18 },
  { 1, 0, 1, 2 },
  { 0, -1, -3, -9 },
  { 1, 0, -6, -9 },
  { 1, -1, 1, 2 },
  { 0, -1, -3, -9 },
  { 1, 0, -2, 1 },
  { 1, 0, -9, -13 },
  { 0, -1, -2, -6 },
  { 0, 2, 1, 58 },
  { 0, 1, 1, 42 },
  { 2, 1, 1, 20 },
  { 0, 0, 1, 11 },
  { 0, 0, 1, 7 },
  { 1, 0, 1, 4 },
  { 1, 0, 1, 2 },
  { 0, 0, -253, -8 },
  { 1, 0, -183, -254 },
  { 2, 0, -2, 1 },
  { 1, 0, -128, -113 },
  { 1, 0, 1, -9 },
  { 1, 0, 1, -1 },
  { 1, -1, -51, -3 },
  { 1, 0, 1, 2 },
  { 1, -1, -5, -1 },
  { 0, 1, 1, 3 },
  { 2, 0, -2, 1 },
  { 2, 0, -8, -57 },
  { 0, 1, 1, 2 },
  { 2, 0, -13, -9 },
  { 0, 1, -255, -9 },
  { 1, 0, 1, 16 },
  { 1, -1, 1, 8 },
  { 0, 0, 1, 4 },
  { 1, -1, 1, 2 },
  { 1, -1, -5, -3 },
  { 0, 0, -2, -256 },
  { 1, -1, 1, 2 },
  { 1, -1, -1, -18 },
  { 0, 1, -70, -4 },
  { 0, 0, 1, 4 },
  { 1, 0, 1, 2 },
  { 1, -1, -1, -9 },
  { 1, 0, -27, -1 },
  { 0, 0, 1, 2 },
  { 1, 0, -2, -88 },
  { 1, 0, -257, -202 },
  { 2, 1, 1, -5 },
  { 1, 0, 1, -3 },
  { 0, 0, 1, 2 },
  { 1, 0, -8, -2 },
  { 0, 1, -72, -2 },
  { 2, 1, 1, 7 },
  { 1, -1, -8, 1 },
  { 1, 0, 1, 4 },
  { 2, 1, 1, -1 },
  { 1, -1, -8, 1 },
  { 0, 1, -71, -13 },
  { 2, 1, -13, -9 },
  { 2, 2, 1, -2 },
  { 1, -1, -8, 1 },
  { 0, 1, 1, 3 },
  { 0, 1, 1, -1 },
  { 1, 0, -6, -195 },
  { 0, 1, 1, 2 },
  { 0, 1, -218, -11 },
  { 1, -1, -165, -258 },
  { 0, 2, 1, 5 },
  { 1, -1, -9, 1 },
  { 1, -1, -2, 1 },
  { 1, 0, 1, -2 },
  { 1, -1, -6, -3 },
  { 1, 0, 1, 2 },
  { 0, 2, -3, -9 },
  { 0, 2, -6, -9 },
  { 2, 0, 1, 42 },
  { 1, 2, 1, 21 },
  { 1, 2, 1, -2 },
  { 0, -1, 1, 2 },
  { 1, 0, -1, -5 },
  { 0, 0, 1, 6 },
  { 1, 0, -2, 1 },
  { 0, -1, 1, 2 },
  { 2, -1, -8, -2 },
  { 0, 0, 1, -2 },
  { 2, -2, -2, -3 },
  { 0, 0, 1, 5 },
  { 1, 1, 1, -3 },
  { 2, -1, 1, 2 },
  { 1, 0, -18, -1 },
  { 0, 0, -3, -18 },
  { 0, 0, 1, 3 },
  { 1, 0, -3, 1 },
  { 1, 1, -2, -3 },
  { 1, 0, 1, 2 },
  { 1, 0, -259, -260 },
  { 0, 0, -261, -262 },
  { 0, 0, 1, 14 },
  { 1, 2, 1, -18 },
  { 1, 2, -1, 1 },
  { 1, 2, 1, 6 },
  { 1, 2, 1, 3 },
  { 0, 0, -5, 1 },
  { 0, 0, -9, -5 },
  { 0, 0, -9, 1 },
  { 0, 0, -5, -9 },
  { 1, 2, 1, 2 },
  { 1, 2, -18, -1 },
  { 2, -1, 1, 2 },
  { 1, 2, -13, -9 },
  { 0, 0, -157, -5 },
  { 0, 1, 1, 4 },
  { 0, 0, -9, 1 },
  { 1, 2, 1, -9 },
  { 0, 1, -13, -3 },
  { 0, 1, -5, 1 },
  { 0, 1, -13, -3 },
  { 0, 1, 1, 56 },
  { 0, 0, 1, 25 },
  { 1, 0, 1, 15 },
  { 0, 0, 1, 12 },
  { 0, -1, 1, 4 },
  { 0, -2, -1, 1 },
  { 1, 0, 1, -18 },
  { 1, 0, -5, -9 },
  { 0, -1, 1, 4 },
  { 1, 0, 1, 2 },
  { 0, -1, -5, -188 },
  { 1, 0, -238, -7 },
  { 2, 0, 1, 2 },
  { 1, 0, -6, -263 },
  { 0, -1, -10, -102 },
  { 1, 0, 1, -2 },
  { 1, 0, -9, -6 },
  { 1, 0, 1, 7 },
  { 1, 0, -1, 1 },
  { 0, -1, 1, 2 },
  { 0, -1, -13, -5 },
  { 2, 0, 1, 2 },
  { 1, 0, -80, -111 },
  { 0, 0, -9, -8 },
  { 0, -1, 1, -1 },
  { 1, 0, -1, -3 },
  { 1, 0, 1, 8 },
  { 0, 0, 1, 6 },
  { 0, 0, 1, 2 },
  { 2, 0, -1, -18 },
  { 2, 0, -18, 1 },
  { 2, 0, -13, 1 },
  { 0, 0, -13, -9 },
  { 0, 0, -18, -1 },
  { 1, 1, 1, 15 },
  { 0, 0, 1, 7 },
  { 0, 0, 1, 4 },
  { 1, 0, 1, 2 },
  { 1, 0, -264, -9 },
  { 1, 0, -75, -265 },
  { 0, 0, -8, 1 },
  { 0, 0, -76, -266 },
  { 0, 0, 1, 4 },
  { 2, 0, 1, 2 },
  { 0, 0, -216, -8 },
  { 2, 1, -267, -268 },
  { 1, 0, 1, 2 },
  { 0, 0, -269, -270 },
  { 1, 0, -57, -271 },
  { 1, 1, 1, 3 },
  { 1, 1, -5, 1 },
  { 2, 0, -1, -18 },
  { 1, 1, 1, -18 },
  { 0, 0, 1, 2 },
  { 0, 0, -3, -5 },
  { 2, 0, -6, -9 },
  { 0, 2, 1, -2 },
  { 2, 1, 1, 18 },
  { 2, 0, 1, 12 },
  { 1, 0, 1, 5 },
  { 0, 1, 1, 3 },
  { 1, 0, -3, 1 },
  { 1, 0, -18, -1 },
  { 2, 0, -9, -3 },
  { 1, 0, 1, 4 },
  { 1, 0, 1, 2 },
  { 0, 1, -13, -2 },
  { 0, 1, -2, -272 },
  { 0, 1, 1, -2 },
  { 2, 0, -29, -154 },
  { 1, 1, 1, -2 },
  { 1, 1, 1, 3 },
  { 0, 1, -8, 1 },
  { 1, 0, -273, -274 },
  { 1, 1, -5, -18 },
  { 0, 1, -2, 1 },
  { 1, 0, -6, -9 },
  { 1, 0, 1, 98 },
  { 1, 0, 1, 79 },
  { 1, -1, 1, 39 },
  { 2, 1, 1, 20 },
  { 0, 0, 1, 18 },
  { 1, -1, 1, 11 },
  { 2, 0, 1, 7 },
  { 1, -1, 1, 4 },
  { 2, 0, 1, 2 },
  { 1, -1, -8, -188 },
  { 1, -1, -275, -276 },
  { 1, -1, -1, 1 },
  { 1, -1, -119, -185 },
  { 1, -2, -2, 1 },
  { 0, 0, 1, -8 },
  { 2, 0, -277, -278 },
  { 2, 0, 1, 5 },
  { 0, 0, 1, 3 },
  { 0, -1, -8, 1 },
  { 0, 0, -156, -1 },
  { 0, 0, -8, -3 },
  { 1, -1, -8, -2 },
  { 2, 0, -5, -9 },
  { 0, 0, 1, 11 },
  { 1, -1, 1, 6 },
  { 1, -1, -5, 1 },
  { 0, 0, -9, 1 },
  { 0, 0, 1, 2 },
  { 0, 0, -96, -88 },
  { 0, 0, -2, -8 },
  { 1, -1, -5, 1 },
  { 1, -1, -2, 1 },
  { 1, -1, -5, 1 },
  { 1, -1, -8, -2 },
  { 1, -2, -1, 1 },
  { 1, -1, -8, 1 },
  { 1, -1, 1, 3 },
  { 0, 1, -1, 1 },
  { 1, -1, -279, -5 },
  { 1, -1, -2, 1 },
  { 2, 2, -113, -2 },
  { 1, -1, 1, 19 },
  { 0, -1, 1, 3 },
  { 2, 0, 1, -8 },
  { 1, -1, -3, -6 },
  { 2, 1, 1, 12 },
  { 0, 0, 1, 6 },
  { 0, -1, 1, 3 },
  { 1, -1, -9, 1 },
  { 1, -1, -45, -18 },
  { 0, -1, -2, 1 },
  { 1, -1, -20, -2 },
  { 2, 0, 1, 2 },
  { 1, -1, -1, -8 },
  { 1, -1, 1, 2 },
  { 2, 0, -5, -1 },
  { 1, -1, -9, -151 },
  { 2, 1, 1, -6 },
  { 0, 0, -9, 1 },
  { 1, -1, -1, -3 },
  { 1, -1, 1, 10 },
  { 0, 0, 1, 7 },
  { 1, -1, 1, 3 },
  { 0, -1, 1, -9 },
  { 0, -1, -3, -13 },
  { 0, -1, 1, 2 },
  { 2, 0, -8, -3 },
  { 2, 0, -9, -6 },
  { 2, 1, 1, -13 },
  { 1, -1, -8, -2 },
  { 2, 1, 1, 9 },
  { 2, 0, 1, 5 },
  { 0, -1, 1, 2 },
  { 0, -1, -2, -8 },
  { 1, 0, 1, -1 },
  { 0, 0, -9, -3 },
  { 2, 1, 1, -5 },
  { 0, -1, -5, 1 },
  { 2, 0, -3, -84 },
  { 1, 0, -13, -2 },
  { 2, 1, 1, 16 },
  { 2, 0, 1, 8 },
  { 2, 0, 1, -2 },
  { 1, 0, 1, -5 },
  { 0, 0, 1, 4 },
  { 0, -1, 1, -2 },
  { 0, -1, -8, 1 },
  { 1, 0, -13, -3 },
  { 0, 0, -3, -6 },
  { 0, 0, 1, 2 },
  { 0, -1, -13, -9 },
  { 0, 0, -2, 1 },
  { 0, 0, 1, 2 },
  { 1, 0, -13, -9 },
  { 0, 0, -2, 1 },
  { 1, 0, -9, -8 },
  { 2, 1, -1, 1 },
  { 1, 0, -5, -13 },
  { 2, 0, 1, 53 },
  { 1, 0, 1, 13 },
  { 0, 0, 1, 5 },
  { 0, -1, -5, 1 },
  { 1, 0, -2, 1 },
  { 0, 0, -3, 1 },
  { 1, 0, -8, -2 },
  { 0, 0, 1, -2 },
  { 1, 0, 1, 4 },
  { 1, 0, 1, 2 },
  { 0, 0, -3, -9 },
  { 1, 0, -6, -9 },
  { 1, 0, -13, 1 },
  { 1, 0, -3, -9 },
  { 1, 2, 1, 32 },
  { 2, -1, 1, 14 },
  { 0, -1, 1, 2 },
  { 2, -2, -2, -8 },
  { 0, 0, 1, 7 },
  { 1, 0, 1, 3 },
  { 1, 0, 1, -1 },
  { 0, 0, -45, -280 },
  { 1, 0, 1, 2 },
  { 0, 0, -3, -2 },
  { 0, 0, -1, -281 },
  { 1, 0, -2, 1 },
  { 1, 1, 1, 2 },
  { 1, 1, -282, -283 },
  { 0, 0, -284, -285 },
  { 0, 0, 1, 6 },
  { 0, -1, -1, 1 },
  { 0, -1, -2, 1 },
  { 1, 0, 1, 2 },
  { 1, 0, -29, -224 },
  { 1, 0, -29, -13 },
  { 1, 1, 1, 7 },
  { 1, 0, 1, 3 },
  { 0, 0, 1, -1 },
  { 0, 0, -32, -286 },
  { 0, 0, 1, 2 },
  { 0, 0, -21, -75 },
  { 1, 1, -165, -9 },
  { 1, 1, 1, 3 },
  { 1, 1, 1, -2 },
  { 1, 1, -287, -34 },
  { 0, 0, -18, -5 },
  { 0, 0, 1, 6 },
  { 0, 0, 1, 4 },
  { 0, 0, 1, 2 },
  { 0, 0, -13, -1 },
  { 0, 0, -3, -5 },
  { 0, 0, -1, -18 },
  { 1, 2, -13, -9 },
  { 0, 1, 1, 52 },
  { 1, 1, 1, 36 },
  { 0, -1, 1, 13 },
  { 0, -2, 1, 2 },
  { 1, 0, -5, -1 },
  { 1, 0, 1, 6 },
  { 0, -1, 1, 4 },
  { 1, 0, 1, 2 },
  { 1, 0, -131, -288 },
  { 2, 0, -289, -1 },
  { 1, 0, -2, -8 },
  { 1, 0, -5, 1 },
  { 1, 0, 1, 2 },
  { 1, 0, -3, -6 },
  { 0, -1, -13, -5 },
  { 1, 0, 1, 15 },
  { 2, 0, 1, 8 },
  { 0, 0, 1, 4 },
  { 1, 0, 1, 2 },
  { 0, 0, -249, -1 },
  { 1, 0, -5, -1 },
  { 0, 0, 1, 2 },
  { 1, 0, -2, -22 },
  { 0, 0, -1, -30 },
  { 0, 0, 1, 3 },
  { 1, 0, 1, -9 },
  { 2, 0, -1, -229 },
  { 0, 0, 1, 2 },
  { 2, 1, -8, -3 },
  { 1, 0, -30, -290 },
  { 1, 0, 1, 2 },
  { 0, 0, -2, -3 },
  { 1, 1, 1, 4 },
  { 1, 0, 1, 2 },
  { 2, 1, -291, -292 },
  { 1, 0, -293, -294 },
  { 0, 0, -2, -9 },
  { 2, 0, 1, 10 },
  { 1, 1, 1, 7 },
  { 1, 1, -1, 1 },
  { 1, 1, 1, 4 },
  { 1, 1, 1, 2 },
  { 1, 1, -29, -5 },
  { 0, 0, -9, -69 },
  { 0, 0, -3, -5 },
  { 0, 0, -18, 1 },
  { 0, 0, -5, -18 },
  { 1, 1, 1, -18 },
  { 2, 0, 1, 3 },
  { 0, 0, -5, 1 },
  { 2, 0, -3, -13 },
  { 0, 0, -5, -18 },
  { 2, 0, 1, 3 },
  { 1, 0, 1, -2 },
  { 2, 0, -1, -9 },
  { 0, 2, 1, 10 },
  { 1, 1, 1, -2 },
  { 0, 2, 1, 4 },
  { 0, 2, 1, -2 },
  { 1, 1, 1, -5 },
  { 0, 1, -295, -296 },
  { 0, 2, -1, 1 },
  { 1, 0, 1, 2 },
  { 0, 2, -9, -13 },
  { 2, 1, -157, -5 },
  { 0, 2, -2, -1 },
  { 1, 0, 1, 45 },
  { 0, -1, 1, 3 },
  { 2, 0, -5, 1 },
  { 0, -2, -2, -3 },
  { 1, -1, 1, 19 },
  { 2, 1, 1, -2 },
  { 0, 0, 1, 14 },
  { 0, 0, 1, 6 },
  { 0, 0, 1, -1 },
  { 1, -1, 1, 3 },
  { 1, -2, -2, 1 },
  { 1, -1, -3, -297 },
  { 0, -1, -3, -1 },
  { 1, -1, 1, 2 },
  { 1, -1, -8, -3 },
  { 0, 0, 1, 3 },
  { 0, 0, 1, -2 },
  { 1, -1, -8, -2 },
  { 1, -1, -9, 1 },
  { 1, -1, -2, -8 },
  { 1, -1, -8, 1 },
  { 0, 1, 1, -3 },
  { 2, 0, -5, -1 },
  { 1, -1, 1, 4 },
  { 2, 0, -6, 1 },
  { 2, 0, 1, -1 },
  { 1, -1, -5, -1 },
  { 1, -1, 1, 2 },
  { 1, -1, -2, -8 },
  { 1, -1, 1, 6 },
  { 1, -1, 1, -1 },
  { 0, 0, 1, -2 },
  { 1, -1, 1, 2 },
  { 2, 0, -3, -29 },
  { 2, 0, -3, -1 },
  { 0, -1, 1, 3 },
  { 0, -1, -3, 1 },
  { 1, 0, -8, -2 },
  { 1, 0, 1, 4 },
  { 1, -1, 1, 2 },
  { 1, -1, -298, -14 },
  { 1, -1, -299, -300 },
  { 0, 0, 1, 2 },
  { 2, 0, -6, -301 },
  { 0, 1, -302, -9 },
  { 0, 1, 1, 99 },
  { 2, -1, 1, 33 },
  { 1, 2, 1, 22 },
  { 0, 0, 1, 6 },
  { 0, 0, 1, 4 },
  { 0, -1, -5, 1 },
  { 1, 0, -3, 1 },
  { 0, -1, -3, -5 },
  { 0, 0, -1, -5 },
  { 1, 0, 1, 5 },
  { 1, 0, 1, -2 },
  { 0, 0, 1, -2 },
  { 0, 0, -8, 1 },
  { 1, 0, -6, -111 },
  { 0, 0, 1, 4 },
  { 1, 2, 1, -2 },
  { 1, 2, 1, -1 },
  { 0, 0, -303, -213 },
  { 1, 2, 1, 4 },
  { 1, 1, 1, 2 },
  { 1, 1, -304, -283 },
  { 1, 1, -45, -295 },
  { 2, -1, 1, -9 },
  { 0, 0, -9, -2 },
  { 1, 2, 1, 9 },
  { 0, 0, 1, 6 },
  { 1, 2, -18, 1 },
  { 1, 2, -9, 1 },
  { 1, 2, 1, 2 },
  { 0, 0, -18, -5 },
  { 0, 0, -225, -305 },
  { 2, -1, -9, 1 },
  { 1, 2, -3, -13 },
  { 2, -1, -18, -1 },
  { 1, 0, 1, 38 },
  { 2, 0, 1, 22 },
  { 1, 0, 1, 15 },
  { 0, 0, 1, 7 },
  { 2, 0, 1, 3 },
  { 1, 0, -2, 1 },
  { 0, 0, -3, -2 },
  { 1, 0, 1, 2 },
  { 1, 0, -306, -102 },
  { 0, -1, -2, -164 },
  { 2, 0, 1, 4 },
  { 1, 0, 1, 2 },
  { 1, 0, -307, -224 },
  { 0, 0, -72, -308 },
  { 0, 0, 1, 2 },
  { 1, 0, -53, -131 },
  { 0, 0, -309, -310 },
  { 0, 0, 1, 3 },
  { 0, 0, 1, -2 },
  { 0, 0, -13, -3 },
  { 0, 0, 1, 2 },
  { 2, 0, -2, -13 },
  { 1, 0, -3, -13 },
  { 0, 0, 1, 6 },
  { 1, 0, 1, 2 },
  { 0, -1, -13, -5 },
  { 2, 0, 1, -13 },
  { 1, 0, 1, -1 },
  { 0, 0, -5, -247 },
  { 1, 0, 1, 2 },
  { 0, 0, -18, -1 },
  { 2, 1, 1, 4 },
  { 0, 0, 1, 2 },
  { 0, 0, -311, -9 },
  { 0, 0, -312, -313 },
  { 0, 1, 1, 2 },
  { 1, 0, -314, -9 },
  { 0, 1, -238, -315 },
  { 0, 1, 1, 16 },
  { 1, 0, 1, 3 },
  { 2, 0, -1, 1 },
  { 2, 0, -2, -18 },
  { 0, 0, 1, 5 },
  { 2, 0, 1, -8 },
  { 1, 1, 1, 2 },
  { 0, -1, -1, -20 },
  { 1, 1, -1, -27 },
  { 0, 0, 1, 4 },
  { 0, 0, 1, 2 },
  { 1, 1, -316, -209 },
  { 0, 0, -22, -10 },
  { 1, 1, 1, 2 },
  { 1, 1, -317, -318 },
  { 1, 2, -2, -9 },
  { 0, 1, 1, 6 },
  { 2, 0, -2, 1 },
  { 0, 1, 1, 2 },
  { 1, 0, -8, -6 },
  { 1, 0, 1, -1 },
  { 1, 0, -3, -9 },
  { 1, 2, 1, -5 },
  { 1, 1, 1, 3 },
  { 1, 1, 1, -5 },
  { 2, 1, -67, -9 },
  { 2, 0, -3, -9 },
  { 2, 0, 1, 7 },
  { 1, 1, 1, 5 },
  { 1, 0, 1, 2 },
  { 1, 0, -9, -1 },
  { 2, 0, 1, -2 },
  { 0, 1, -2, -3 },
  { 0, 1, -3, -1 },
  { 1, 1, 1, -2 },
  { 1, 0, 1, 4 },
  { 0, 1, 1, 2 },
  { 1, 0, -3, -13 },
  { 2, 1, -8, -2 },
  { 0, 2, 1, -2 },
  { 0, 2, 1, 7 },
  { 1, 0, 1, 4 },
  { 1, 0, 1, 2 },
  { 1, 0, -319, -1 },
  { 0, 1, -13, -320 },
  { 1, 0, -2, 1 },
  { 1, 0, -224, -126 },
  { 0, 2, 1, -1 },
  { 0, 2, -5, 1 },
  { 1, 0, -3, -13 } 
};

static const int32_t daegu_blossom_model_tree_roots[10] = { 0, 197, 438, 557, 818, 1052, 1189, 1412, 1632, 1849 };

static const uint8_t daegu_blossom_model_leaves[1280] = { 0, 0, 160, 66, 0, 0, 190, 66, 0, 0, 172, 66, 0, 0, 187, 66, 0, 0, 164, 66, 0, 0, 176, 66, 146, 36, 177, 66, 0, 0, 184, 66, 0, 0, 174, 66, 85, 85, 171, 66, 0, 0, 183, 66, 0, 128, 177, 66, 0, 0, 170, 66, 0, 0, 178, 66, 51, 51, 179, 66, 0, 192, 167, 66, 8, 33, 176, 66, 0, 0, 162, 66, 171, 170, 164, 66, 0, 0, 168, 66, 110, 219, 166, 66, 0, 0, 182, 66, 116, 209, 176, 66, 114, 28, 171, 66, 154, 153, 171, 66, 146, 36, 175, 66, 171, 170, 162, 66, 114, 28, 161, 66, 0, 0, 173, 66, 85, 85, 173, 66, 0, 0, 167, 66, 171, 170, 173, 66, 228, 56, 168, 66, 85, 85, 165, 66, 196, 195, 181, 66, 110, 219, 175, 66, 0, 128, 170, 66, 235, 216, 170, 66, 123, 20, 176, 66, 205, 140, 166, 66, 171, 42, 172, 66, 0, 0, 169, 66, 57, 142, 163, 66, 110, 219, 172, 66, 0, 0, 166, 66, 110, 219, 178, 66, 19, 2, 172, 66, 146, 36, 171, 66, 85, 85, 161, 66, 146, 36, 169, 66, 0, 0, 163, 66, 171, 170, 166, 66, 0, 128, 174, 66, 251, 134, 177, 66, 51, 51, 174, 66, 85, 85, 169, 66, 0, 0, 186, 66, 85, 85, 181, 66, 219, 182, 165, 66, 102, 102, 173, 66, 85, 85, 185, 66, 51, 51, 169, 66, 24, 134, 177, 66, 171, 42, 171, 66, 205, 76, 175, 66, 70, 23, 167, 66, 85, 85, 170, 66, 55, 239, 175, 66, 0, 0, 175, 66, 0, 64, 173, 66, 0, 0, 161, 66, 171, 170, 172, 66, 72, 225, 170, 66, 248, 129, 173, 66, 0, 128, 161, 66, 205, 204, 168, 66, 0, 0, 185, 66, 177, 19, 175, 66, 157, 51, 171, 66, 102, 102, 168, 66, 59, 177, 163, 66, 233, 162, 173, 66, 197, 14, 167, 66, 171, 170, 168, 66, 85, 85, 177, 66, 183, 237, 169, 66, 37, 73, 164, 66, 85, 85, 179, 66, 0, 128, 173, 66, 15, 15, 171, 66, 37, 73, 172, 66, 114, 28, 175, 66, 219, 182, 171, 66, 187, 193, 175, 66, 85, 21, 173, 66, 0, 0, 188, 66, 73, 146, 172, 66, 110, 219, 170, 66, 85, 85, 180, 66, 190, 229, 173, 66, 79, 236, 160, 66, 85, 85, 163, 66, 28, 231, 171, 66, 98, 39, 174, 66, 247, 52, 182, 66, 221, 211, 178, 66, 136, 208, 171, 66, 116, 42, 171, 66, 171, 58, 168, 66, 171, 170, 180, 66, 154, 153, 172, 66, 51, 51, 173, 66, 85, 85, 175, 66, 171, 170, 175, 66, 102, 102, 183, 66, 73, 146, 164, 66, 171, 170, 178, 66, 171, 170, 182, 66, 171, 170, 174, 66, 202, 107, 178, 66, 74, 169, 171, 66, 205, 204, 176, 66, 142, 227, 162, 66, 102, 102, 184, 66, 244, 60, 171, 66, 0, 128, 175, 66, 205, 204, 179, 66, 102, 102, 169, 66, 0, 0, 180, 66, 76, 103, 171, 66, 171, 170, 184, 66, 102, 102, 164, 66, 154, 153, 183, 66, 105, 144, 172, 66, 0, 128, 172, 66, 151, 182, 170, 66, 47, 186, 174, 66, 254, 66, 168, 66, 191, 160, 171, 66, 0, 192, 160, 66, 197, 78, 166, 66, 205, 204, 170, 66, 102, 102, 172, 66, 51, 51, 161, 66, 0, 192, 171, 66, 171, 42, 167, 66, 57, 142, 171, 66, 108, 40, 173, 66, 171, 170, 169, 66, 39, 118, 172, 66, 0, 128, 163, 66, 219, 182, 187, 66, 209, 69, 173, 66, 0, 64, 170, 66, 219, 182, 164, 66, 0, 128, 168, 66, 0, 0, 171, 66, 142, 227, 172, 66, 51, 51, 177, 66, 199, 113, 172, 66, 44, 190, 173, 66, 105, 105, 179, 66, 148, 215, 166, 66, 154, 153, 173, 66, 171, 170, 170, 66, 0, 128, 176, 66, 171, 170, 176, 66, 171, 170, 167, 66, 135, 242, 182, 66, 110, 219, 171, 66, 73, 146, 162, 66, 136, 206, 169, 66, 205, 204, 164, 66, 32, 89, 173, 66, 22, 95, 169, 66, 171, 170, 185, 66, 0, 208, 170, 66, 171, 170, 183, 66, 0, 128, 167, 66, 146, 36, 173, 66, 205, 204, 162, 66, 211, 210, 168, 66, 0, 192, 183, 66, 39, 118, 166, 66, 183, 109, 171, 66, 116, 206, 169, 66, 171, 170, 179, 66, 51, 51, 171, 66, 93, 116, 180, 66, 0, 192, 181, 66, 216, 80, 176, 66, 102, 102, 186, 66, 197, 78, 170, 66, 62, 6, 177, 66, 37, 73, 170, 66, 118, 98, 174, 66, 5, 49, 177, 66, 0, 32, 172, 66, 219, 182, 167, 66, 116, 209, 175, 66, 219, 129, 171, 66, 0, 128, 162, 66, 118, 98, 169, 66, 211, 210, 176, 66, 51, 51, 165, 66, 0, 140, 170, 66, 0, 128, 171, 66, 171, 42, 184, 66, 51, 51, 163, 66, 210, 143, 168, 66, 183, 109, 170, 66, 121, 141, 173, 66, 110, 219, 174, 66, 85, 85, 187, 66, 0, 0, 179, 66, 0, 128, 169, 66, 73, 146, 184, 66, 85, 85, 172, 66, 0, 0, 177, 66, 51, 51, 181, 66, 228, 56, 178, 66, 73, 146, 170, 66, 57, 142, 173, 66, 0, 0, 181, 66, 0, 0, 165, 66, 136, 135, 175, 66, 102, 102, 174, 66, 51, 179, 173, 66, 199, 113, 164, 66, 219, 182, 163, 66, 0, 32, 168, 66, 146, 36, 181, 66, 159, 70, 170, 66, 0, 176, 164, 66, 161, 47, 171, 66, 186, 232, 172, 66, 27, 202, 171, 66, 154, 153, 187, 66, 161, 66, 167, 66, 201, 103, 173, 66, 186, 232, 164, 66, 70, 23, 173, 66, 219, 182, 172, 66, 36, 238, 166, 66, 75, 126, 173, 66, 238, 105, 170, 66, 171, 170, 160, 66, 171, 170, 177, 66, 102, 102, 171, 66, 219, 182, 173, 66, 57, 142, 179, 66, 40, 175, 171, 66, 51, 51, 172, 66, 174, 71, 175, 66, 0, 128, 185, 66, 70, 23, 179, 66, 34, 34, 170, 66, 0, 64, 172, 66, 62, 235, 172, 66, 0, 160, 165, 66, 205, 204, 167, 66, 206, 251, 174, 66, 73, 18, 170, 66, 93, 215, 169, 66, 100, 33, 169, 66, 141, 176, 172, 66, 111, 122, 166, 66, 205, 204, 172, 66, 0, 128, 160, 66, 171, 170, 165, 66, 136, 135, 171, 66, 0, 128, 179, 66, 102, 102, 167, 66, 84, 130, 172, 66, 51, 51, 187, 66, 0, 128, 180, 66, 0, 224, 165, 66, 177, 19, 172, 66, 85, 213, 171, 66, 163, 139, 172, 66, 45, 45, 173, 66, 134, 44, 175, 66, 79, 236, 182, 66, 47, 186, 178, 66, 51, 243, 171, 66, 205, 204, 169, 66, 37, 73, 177, 66, 180, 151, 172, 66, 146, 36, 187, 66, 15, 15, 165, 66, 98, 14, 171, 66, 116, 209, 180, 66, 33, 132, 166, 66, 161, 228, 170, 66, 183, 109, 175, 66, 61, 10, 173, 66, 102, 102, 177, 66, 227, 146, 173, 66, 228, 179, 168, 66, 153, 197, 173, 66, 219, 182, 169, 66, 154, 153, 186, 66, 20, 59, 169, 66, 189, 233, 174, 66, 28, 199, 169, 66, 196, 195, 172, 66, 225, 229, 168, 66, 98, 39, 162, 66, 51, 51, 166, 66, 23, 93, 173, 66, 73, 210, 170, 66, 136, 135, 165, 66, 206, 202, 169, 66, 114, 28, 165, 66, 59, 177, 175, 66, 154, 57, 171, 66, 83, 160, 168, 66, 102, 102, 162, 66, 28, 199, 171, 66, 93, 116, 173, 66 };

EmlTrees daegu_blossom_model = {
        2016,
        (EmlTreesNode *)(daegu_blossom_model_nodes),	  
        10,
        (int32_t *)(daegu_blossom_model_tree_roots),
        1280,
        (uint8_t *)(daegu_blossom_model_leaves),
        32,
        3,
        0,
    };

static inline int32_t daegu_blossom_model_tree_0(const int16_t *features, int32_t features_length) {
          if (features[1] < -1) {
              if (features[0] < 0) {
                  if (features[0] < 0) {
                      if (features[1] < -1) {
                          if (features[0] < -1) {
                              if (features[1] < -1) {
                                  if (features[1] < -2) {
                                      return 95.000000f;
                                  } else {
                                      if (features[0] < -1) {
                                          return 86.000000f;
                                      } else {
                                          if (features[1] < -1) {
                                              return 86.000000f;
                                          } else {
                                              if (features[1] < -1) {
                                                  return 93.500000f;
                                              } else {
                                                  return 86.000000f;
                                              }
                                          }
                                      }
                                  }
                              } else {
                                  return 80.000000f;
                              }
                          } else {
                              if (features[1] < -1) {
                                  if (features[0] < 0) {
                                      if (features[0] < 0) {
                                          return 80.000000f;
                                      } else {
                                          return 82.000000f;
                                      }
                                  } else {
                                      if (features[0] < 0) {
                                          return 95.000000f;
                                      } else {
                                          if (features[2] < 0) {
                                              if (features[1] < -1) {
                                                  return 86.000000f;
                                              } else {
                                                  return 88.000000f;
                                              }
                                          } else {
                                              if (features[1] < -1) {
                                                  return 95.000000f;
                                              } else {
                                                  return 88.571429f;
                                              }
                                          }
                                      }
                                  }
                              } else {
                                  if (features[0] < 0) {
                                      return 95.000000f;
                                  } else {
                                      if (features[0] < 0) {
                                          if (features[2] < 1) {
                                              return 92.000000f;
                                          } else {
                                              if (features[1] < -1) {
                                                  return 92.000000f;
                                              } else {
                                                  return 95.000000f;
                                              }
                                          }
                                      } else {
                                          return 95.000000f;
                                      }
                                  }
                              }
                          }
                      } else {
                          if (features[1] < -1) {
                              if (features[0] < 0) {
                                  if (features[2] < 0) {
                                      return 86.000000f;
                                  } else {
                                      return 87.000000f;
                                  }
                              } else {
                                  if (features[2] < 0) {
                                      if (features[0] < 0) {
                                          return 88.000000f;
                                      } else {
                                          return 86.000000f;
                                      }
                                  } else {
                                      if (features[2] < 0) {
                                          return 80.000000f;
                                      } else {
                                          if (features[1] < -1) {
                                              if (features[1] < -1) {
                                                  return 88.000000f;
                                              } else {
                                                  return 86.000000f;
                                              }
                                          } else {
                                              return 82.000000f;
                                          }
                                      }
                                  }
                              }
                          } else {
                              if (features[1] < -1) {
                                  if (features[1] < -1) {
                                      if (features[0] < -1) {
                                          if (features[0] < -1) {
                                              if (features[0] < -1) {
                                                  return 92.000000f;
                                              } else {
                                                  return 86.000000f;
                                              }
                                          } else {
                                              if (features[0] < -1) {
                                                  return 92.000000f;
                                              } else {
                                                  return 95.000000f;
                                              }
                                          }
                                      } else {
                                          if (features[0] < 0) {
                                              if (features[0] < 0) {
                                                  return 85.666667f;
                                              } else {
                                                  return 80.000000f;
                                              }
                                          } else {
                                              if (features[0] < 0) {
                                                  return 91.500000f;
                                              } else {
                                                  return 88.000000f;
                                              }
                                          }
                                      }
                                  } else {
                                      if (features[2] < 0) {
                                          return 86.000000f;
                                      } else {
                                          return 80.000000f;
                                      }
                                  }
                              } else {
                                  if (features[0] < -1) {
                                      if (features[2] < 0) {
                                          return 92.000000f;
                                      } else {
                                          if (features[0] < -1) {
                                              return 86.000000f;
                                          } else {
                                              return 80.000000f;
                                          }
                                      }
                                  } else {
                                      if (features[0] < 0) {
                                          return 95.000000f;
                                      } else {
                                          if (features[0] < 0) {
                                              return 80.000000f;
                                          } else {
                                              if (features[0] < 0) {
                                                  return 93.500000f;
                                              } else {
                                                  return 88.750000f;
                                              }
                                          }
                                      }
                                  }
                              }
                          }
                      }
                  } else {
                      if (features[2] < 1) {
                          return 92.000000f;
                      } else {
                          return 95.000000f;
                      }
                  }
              } else {
                  if (features[2] < 1) {
                      if (features[0] < 0) {
                          if (features[2] < 0) {
                              return 82.000000f;
                          } else {
                              if (features[1] < -1) {
                                  return 82.000000f;
                              } else {
                                  return 80.000000f;
                              }
                          }
                      } else {
                          if (features[0] < 1) {
                              return 87.000000f;
                          } else {
                              return 82.000000f;
                          }
                      }
                  } else {
                      if (features[2] < 2) {
                          if (features[1] < -1) {
                              if (features[1] < -1) {
                                  if (features[0] < 0) {
                                      return 82.000000f;
                                  } else {
                                      if (features[0] < 1) {
                                          if (features[0] < 0) {
                                              return 95.000000f;
                                          } else {
                                              return 92.000000f;
                                          }
                                      } else {
                                          if (features[1] < -1) {
                                              return 92.000000f;
                                          } else {
                                              if (features[0] < 1) {
                                                  return 88.000000f;
                                              } else {
                                                  return 86.000000f;
                                              }
                                          }
                                      }
                                  }
                              } else {
                                  if (features[0] < 1) {
                                      return 80.000000f;
                                  } else {
                                      if (features[1] < -1) {
                                          if (features[0] < 1) {
                                              return 86.000000f;
                                          } else {
                                              if (features[1] < -1) {
                                                  return 80.000000f;
                                              } else {
                                                  return 82.000000f;
                                              }
                                          }
                                      } else {
                                          if (features[0] < 1) {
                                              if (features[2] < 1) {
                                                  return 86.000000f;
                                              } else {
                                                  return 88.000000f;
                                              }
                                          } else {
                                              if (features[1] < -1) {
                                                  return 86.000000f;
                                              } else {
                                                  return 85.000000f;
                                              }
                                          }
                                      }
                                  }
                              }
                          } else {
                              if (features[0] < 1) {
                                  if (features[1] < -1) {
                                      return 95.000000f;
                                  } else {
                                      if (features[2] < 1) {
                                          return 92.000000f;
                                      } else {
                                          if (features[0] < 1) {
                                              return 89.000000f;
                                          } else {
                                              return 87.000000f;
                                          }
                                      }
                                  }
                              } else {
                                  return 86.000000f;
                              }
                          }
                      } else {
                          return 95.000000f;
                      }
                  }
              }
          } else {
              if (features[1] < 2) {
                  if (features[2] < 0) {
                      if (features[1] < 0) {
                          if (features[0] < -1) {
                              if (features[1] < 0) {
                                  return 80.000000f;
                              } else {
                                  return 82.000000f;
                              }
                          } else {
                              if (features[1] < 0) {
                                  if (features[1] < 0) {
                                      if (features[0] < 0) {
                                          if (features[0] < 0) {
                                              if (features[0] < 0) {
                                                  return 89.600000f;
                                              } else {
                                                  return 93.500000f;
                                              }
                                          } else {
                                              if (features[0] < 0) {
                                                  return 83.875000f;
                                              } else {
                                                  return 88.064516f;
                                              }
                                          }
                                      } else {
                                          if (features[0] < 0) {
                                              if (features[1] < 0) {
                                                  return 92.000000f;
                                              } else {
                                                  return 95.000000f;
                                              }
                                          } else {
                                              if (features[1] < 0) {
                                                  return 95.000000f;
                                              } else {
                                                  return 80.000000f;
                                              }
                                          }
                                      }
                                  } else {
                                      if (features[1] < 0) {
                                          return 81.000000f;
                                      } else {
                                          return 86.000000f;
                                      }
                                  }
                              } else {
                                  return 95.000000f;
                              }
                          }
                      } else {
                          if (features[0] < 0) {
                              if (features[1] < 0) {
                                  if (features[1] < 0) {
                                      return 81.000000f;
                                  } else {
                                      return 80.000000f;
                                  }
                              } else {
                                  if (features[1] < 1) {
                                      if (features[0] < 0) {
                                          if (features[0] < 0) {
                                              if (features[1] < 1) {
                                                  return 82.333333f;
                                              } else {
                                                  return 86.000000f;
                                              }
                                          } else {
                                              if (features[1] < 0) {
                                                  return 84.000000f;
                                              } else {
                                                  return 86.000000f;
                                              }
                                          }
                                      } else {
                                          if (features[1] < 1) {
                                              if (features[0] < 0) {
                                                  return 80.000000f;
                                              } else {
                                                  return 86.000000f;
                                              }
                                          } else {
                                              if (features[1] < 1) {
                                                  return 80.000000f;
                                              } else {
                                                  return 81.000000f;
                                              }
                                          }
                                      }
                                  } else {
                                      return 87.000000f;
                                  }
                              }
                          } else {
                              if (features[2] < -1) {
                                  if (features[1] < 1) {
                                      if (features[1] < 1) {
                                          if (features[1] < 1) {
                                              if (features[1] < 1) {
                                                  return 87.000000f;
                                              } else {
                                                  return 95.000000f;
                                              }
                                          } else {
                                              if (features[0] < 0) {
                                                  return 92.000000f;
                                              } else {
                                                  return 83.428571f;
                                              }
                                          }
                                      } else {
                                          if (features[1] < 1) {
                                              return 95.000000f;
                                          } else {
                                              if (features[0] < 0) {
                                                  return 91.000000f;
                                              } else {
                                                  return 88.409091f;
                                              }
                                          }
                                      }
                                  } else {
                                      if (features[0] < 0) {
                                          if (features[0] < 0) {
                                              return 88.000000f;
                                          } else {
                                              return 80.000000f;
                                          }
                                      } else {
                                          if (features[1] < 2) {
                                              if (features[1] < 1) {
                                                  return 85.555556f;
                                              } else {
                                                  return 87.000000f;
                                              }
                                          } else {
                                              if (features[0] < 0) {
                                                  return 95.000000f;
                                              } else {
                                                  return 86.000000f;
                                              }
                                          }
                                      }
                                  }
                              } else {
                                  if (features[1] < 1) {
                                      if (features[1] < 1) {
                                          if (features[1] < 1) {
                                              if (features[1] < 0) {
                                                  return 85.800000f;
                                              } else {
                                                  return 87.571429f;
                                              }
                                          } else {
                                              if (features[2] < -1) {
                                                  return 81.333333f;
                                              } else {
                                                  return 85.000000f;
                                              }
                                          }
                                      } else {
                                          if (features[2] < -1) {
                                              return 95.000000f;
                                          } else {
                                              if (features[0] < 0) {
                                                  return 86.000000f;
                                              } else {
                                                  return 87.000000f;
                                              }
                                          }
                                      }
                                  } else {
                                      if (features[1] < 1) {
                                          if (features[0] < 0) {
                                              if (features[1] < 1) {
                                                  return 87.000000f;
                                              } else {
                                                  return 88.000000f;
                                              }
                                          } else {
                                              if (features[0] < 0) {
                                                  return 80.555556f;
                                              } else {
                                                  return 84.000000f;
                                              }
                                          }
                                      } else {
                                          if (features[1] < 1) {
                                              if (features[1] < 1) {
                                                  return 86.500000f;
                                              } else {
                                                  return 95.000000f;
                                              }
                                          } else {
                                              if (features[0] < 0) {
                                                  return 86.666667f;
                                              } else {
                                                  return 83.500000f;
                                              }
                                          }
                                      }
                                  }
                              }
                          }
                      }
                  } else {
                      if (features[0] < -1) {
                          if (features[1] < 0) {
                              if (features[1] < 0) {
                                  if (features[0] < -2) {
                                      return 95.000000f;
                                  } else {
                                      if (features[1] < 0) {
                                          if (features[1] < 0) {
                                              if (features[2] < 0) {
                                                  return 86.833333f;
                                              } else {
                                                  return 84.111111f;
                                              }
                                          } else {
                                              if (features[0] < -1) {
                                                  return 92.000000f;
                                              } else {
                                                  return 86.000000f;
                                              }
                                          }
                                      } else {
                                          if (features[2] < 0) {
                                              if (features[0] < -1) {
                                                  return 82.666667f;
                                              } else {
                                                  return 86.000000f;
                                              }
                                          } else {
                                              if (features[0] < -1) {
                                                  return 85.000000f;
                                              } else {
                                                  return 87.000000f;
                                              }
                                          }
                                      }
                                  }
                              } else {
                                  if (features[0] < -2) {
                                      return 82.000000f;
                                  } else {
                                      if (features[2] < 0) {
                                          if (features[0] < -1) {
                                              if (features[0] < -1) {
                                                  return 90.882353f;
                                              } else {
                                                  return 87.928571f;
                                              }
                                          } else {
                                              if (features[0] < -1) {
                                                  return 93.500000f;
                                              } else {
                                                  return 88.000000f;
                                              }
                                          }
                                      } else {
                                          if (features[0] < -1) {
                                              return 95.000000f;
                                          } else {
                                              if (features[1] < 0) {
                                                  return 88.000000f;
                                              } else {
                                                  return 85.250000f;
                                              }
                                          }
                                      }
                                  }
                              }
                          } else {
                              if (features[1] < 0) {
                                  if (features[2] < 0) {
                                      if (features[1] < 0) {
                                          return 81.000000f;
                                      } else {
                                          return 82.000000f;
                                      }
                                  } else {
                                      return 80.000000f;
                                  }
                              } else {
                                  if (features[0] < -1) {
                                      return 82.000000f;
                                  } else {
                                      if (features[1] < 0) {
                                          if (features[0] < -1) {
                                              return 86.000000f;
                                          } else {
                                              return 87.000000f;
                                          }
                                      } else {
                                          return 85.000000f;
                                      }
                                  }
                              }
                          }
                      } else {
                          if (features[1] < 1) {
                              if (features[1] < -1) {
                                  if (features[2] < 1) {
                                      if (features[1] < -1) {
                                          if (features[2] < 0) {
                                              return 82.000000f;
                                          } else {
                                              return 80.000000f;
                                          }
                                      } else {
                                          return 80.000000f;
                                      }
                                  } else {
                                      if (features[0] < 1) {
                                          if (features[0] < 0) {
                                              return 87.000000f;
                                          } else {
                                              return 82.000000f;
                                          }
                                      } else {
                                          return 95.000000f;
                                      }
                                  }
                              } else {
                                  if (features[0] < 0) {
                                      if (features[1] < 0) {
                                          if (features[1] < -1) {
                                              return 95.000000f;
                                          } else {
                                              if (features[1] < 0) {
                                                  return 85.423664f;
                                              } else {
                                                  return 88.040000f;
                                              }
                                          }
                                      } else {
                                          if (features[0] < 0) {
                                              if (features[2] < 0) {
                                                  return 83.275000f;
                                              } else {
                                                  return 86.083333f;
                                              }
                                          } else {
                                              if (features[1] < 0) {
                                                  return 84.500000f;
                                              } else {
                                                  return 80.000000f;
                                              }
                                          }
                                      }
                                  } else {
                                      if (features[1] < -1) {
                                          if (features[0] < 0) {
                                              if (features[1] < -1) {
                                                  return 87.000000f;
                                              } else {
                                                  return 81.777778f;
                                              }
                                          } else {
                                              if (features[1] < -1) {
                                                  return 86.428571f;
                                              } else {
                                                  return 83.000000f;
                                              }
                                          }
                                      } else {
                                          if (features[0] < 0) {
                                              if (features[2] < 0) {
                                                  return 89.428571f;
                                              } else {
                                                  return 83.500000f;
                                              }
                                          } else {
                                              if (features[2] < 2) {
                                                  return 86.004049f;
                                              } else {
                                                  return 95.000000f;
                                              }
                                          }
                                      }
                                  }
                              }
                          } else {
                              if (features[0] < 0) {
                                  if (features[0] < 0) {
                                      if (features[0] < 0) {
                                          if (features[1] < 1) {
                                              if (features[1] < 1) {
                                                  return 82.000000f;
                                              } else {
                                                  return 85.571429f;
                                              }
                                          } else {
                                              if (features[1] < 1) {
                                                  return 80.666667f;
                                              } else {
                                                  return 84.571429f;
                                              }
                                          }
                                      } else {
                                          if (features[1] < 1) {
                                              return 87.000000f;
                                          } else {
                                              return 88.000000f;
                                          }
                                      }
                                  } else {
                                      if (features[0] < 0) {
                                          if (features[1] < 1) {
                                              return 82.000000f;
                                          } else {
                                              return 81.000000f;
                                          }
                                      } else {
                                          if (features[1] < 1) {
                                              return 82.000000f;
                                          } else {
                                              return 87.000000f;
                                          }
                                      }
                                  }
                              } else {
                                  if (features[2] < 0) {
                                      if (features[2] < 0) {
                                          return 85.000000f;
                                      } else {
                                          return 87.000000f;
                                      }
                                  } else {
                                      return 95.000000f;
                                  }
                              }
                          }
                      }
                  }
              } else {
                  if (features[1] < 2) {
                      if (features[0] < 0) {
                          return 80.000000f;
                      } else {
                          return 81.000000f;
                      }
                  } else {
                      if (features[1] < 2) {
                          if (features[2] < -1) {
                              if (features[0] < 0) {
                                  return 87.000000f;
                              } else {
                                  if (features[0] < 0) {
                                      return 82.000000f;
                                  } else {
                                      if (features[1] < 2) {
                                          if (features[0] < 1) {
                                              return 87.000000f;
                                          } else {
                                              return 86.000000f;
                                          }
                                      } else {
                                          return 86.000000f;
                                      }
                                  }
                              }
                          } else {
                              return 82.000000f;
                          }
                      } else {
                          if (features[0] < 0) {
                              return 86.000000f;
                          } else {
                              if (features[0] < 0) {
                                  return 81.000000f;
                              } else {
                                  if (features[0] < 0) {
                                      if (features[1] < 2) {
                                          return 87.000000f;
                                      } else {
                                          return 86.000000f;
                                      }
                                  } else {
                                      if (features[0] < 0) {
                                          if (features[2] < -1) {
                                              if (features[0] < 0) {
                                                  return 85.000000f;
                                              } else {
                                                  return 82.000000f;
                                              }
                                          } else {
                                              if (features[0] < 0) {
                                                  return 81.500000f;
                                              } else {
                                                  return 80.000000f;
                                              }
                                          }
                                      } else {
                                          if (features[0] < 1) {
                                              return 87.000000f;
                                          } else {
                                              return 82.000000f;
                                          }
                                      }
                                  }
                              }
                          }
                      }
                  }
              }
          }
        }
        

static inline int32_t daegu_blossom_model_tree_1(const int16_t *features, int32_t features_length) {
          if (features[1] < 0) {
              if (features[0] < 0) {
                  if (features[0] < -2) {
                      if (features[1] < 0) {
                          if (features[1] < 0) {
                              return 86.000000f;
                          } else {
                              return 95.000000f;
                          }
                      } else {
                          if (features[0] < -2) {
                              return 82.000000f;
                          } else {
                              return 86.000000f;
                          }
                      }
                  } else {
                      if (features[2] < 0) {
                          if (features[2] < 0) {
                              if (features[1] < -1) {
                                  return 80.000000f;
                              } else {
                                  if (features[0] < 0) {
                                      if (features[0] < -1) {
                                          return 92.000000f;
                                      } else {
                                          if (features[0] < -1) {
                                              if (features[1] < 0) {
                                                  return 83.333333f;
                                              } else {
                                                  return 88.000000f;
                                              }
                                          } else {
                                              if (features[1] < 0) {
                                                  return 87.250000f;
                                              } else {
                                                  return 95.000000f;
                                              }
                                          }
                                      }
                                  } else {
                                      return 95.000000f;
                                  }
                              }
                          } else {
                              if (features[0] < -1) {
                                  if (features[1] < 0) {
                                      if (features[1] < 0) {
                                          if (features[0] < -1) {
                                              return 95.000000f;
                                          } else {
                                              if (features[1] < -1) {
                                                  return 95.000000f;
                                              } else {
                                                  return 88.763636f;
                                              }
                                          }
                                      } else {
                                          if (features[0] < -1) {
                                              return 82.000000f;
                                          } else {
                                              return 87.000000f;
                                          }
                                      }
                                  } else {
                                      return 95.000000f;
                                  }
                              } else {
                                  if (features[0] < 0) {
                                      return 95.000000f;
                                  } else {
                                      if (features[1] < -1) {
                                          return 95.000000f;
                                      } else {
                                          return 86.000000f;
                                      }
                                  }
                              }
                          }
                      } else {
                          if (features[1] < -2) {
                              return 95.000000f;
                          } else {
                              if (features[1] < -1) {
                                  if (features[0] < -1) {
                                      return 86.000000f;
                                  } else {
                                      if (features[1] < -1) {
                                          return 82.000000f;
                                      } else {
                                          return 80.000000f;
                                      }
                                  }
                              } else {
                                  if (features[1] < -1) {
                                      return 95.000000f;
                                  } else {
                                      if (features[0] < 0) {
                                          if (features[0] < -1) {
                                              if (features[1] < -1) {
                                                  return 86.000000f;
                                              } else {
                                                  return 95.000000f;
                                              }
                                          } else {
                                              if (features[1] < 0) {
                                                  return 87.100000f;
                                              } else {
                                                  return 84.666667f;
                                              }
                                          }
                                      } else {
                                          if (features[1] < -1) {
                                              return 95.000000f;
                                          } else {
                                              return 87.000000f;
                                          }
                                      }
                                  }
                              }
                          }
                      }
                  }
              } else {
                  if (features[1] < -1) {
                      if (features[0] < 0) {
                          if (features[2] < 1) {
                              if (features[2] < 0) {
                                  if (features[0] < 0) {
                                      if (features[0] < 0) {
                                          if (features[0] < 0) {
                                              if (features[1] < -1) {
                                                  return 93.000000f;
                                              } else {
                                                  return 87.250000f;
                                              }
                                          } else {
                                              if (features[1] < -1) {
                                                  return 83.500000f;
                                              } else {
                                                  return 90.666667f;
                                              }
                                          }
                                      } else {
                                          if (features[2] < 0) {
                                              return 95.000000f;
                                          } else {
                                              return 92.000000f;
                                          }
                                      }
                                  } else {
                                      return 86.000000f;
                                  }
                              } else {
                                  if (features[0] < 0) {
                                      if (features[0] < 0) {
                                          if (features[0] < 0) {
                                              return 88.000000f;
                                          } else {
                                              if (features[0] < 0) {
                                                  return 80.000000f;
                                              } else {
                                                  return 82.857143f;
                                              }
                                          }
                                      } else {
                                          if (features[1] < -1) {
                                              return 92.000000f;
                                          } else {
                                              if (features[1] < -1) {
                                                  return 80.000000f;
                                              } else {
                                                  return 86.700000f;
                                              }
                                          }
                                      }
                                  } else {
                                      return 92.000000f;
                                  }
                              }
                          } else {
                              if (features[1] < -1) {
                                  if (features[0] < 0) {
                                      if (features[1] < -1) {
                                          return 86.000000f;
                                      } else {
                                          if (features[0] < 0) {
                                              if (features[2] < 1) {
                                                  return 92.666667f;
                                              } else {
                                                  return 95.000000f;
                                              }
                                          } else {
                                              return 87.000000f;
                                          }
                                      }
                                  } else {
                                      return 95.000000f;
                                  }
                              } else {
                                  if (features[1] < -1) {
                                      return 82.000000f;
                                  } else {
                                      if (features[1] < -1) {
                                          return 95.000000f;
                                      } else {
                                          if (features[1] < -1) {
                                              return 87.000000f;
                                          } else {
                                              return 86.000000f;
                                          }
                                      }
                                  }
                              }
                          }
                      } else {
                          if (features[2] < 1) {
                              if (features[1] < -1) {
                                  if (features[1] < -1) {
                                      return 92.000000f;
                                  } else {
                                      return 88.000000f;
                                  }
                              } else {
                                  if (features[1] < -1) {
                                      if (features[0] < 1) {
