


    // !!! This file is generated using emlearn !!!

    #include <eml_trees.h>
    

static const EmlTreesNode seoul_blossom_model_nodes[1685] = {
  { 1, 0, 1, 85 },
  { 2, 1, 1, 51 },
  { 2, 0, 1, 25 },
  { 0, 1, 1, 21 },
  { 1, 0, 1, 16 },
  { 1, 0, 1, 11 },
  { 2, 0, 1, 5 },
  { 0, 0, 1, 3 },
  { 1, 0, 1, -1 },
  { 1, -1, -2, -3 },
  { 0, 0, -4, -5 },
  { 0, -1, 1, 3 },
  { 2, 0, -6, 1 },
  { 1, 0, -7, -8 },
  { 0, -1, -9, 1 },
  { 0, -1, -4, -10 },
  { 1, 0, -9, 1 },
  { 0, -1, -9, 1 },
  { 0, -1, -11, 1 },
  { 0, 0, -12, -13 },
  { 2, 0, -6, 1 },
  { 0, -1, 1, -11 },
  { 0, -2, -4, 1 },
  { 0, -1, -14, -15 },
  { 0, 1, 1, -9 },
  { 2, 0, 1, -5 },
  { 1, 0, -16, -9 },
  { 0, 1, 1, 23 },
  { 0, 0, 1, 13 },
  { 0, 0, 1, 6 },
  { 0, 0, 1, 4 },
  { 0, -1, 1, 2 },
  { 1, -1, -5, -17 },
  { 0, 0, -14, -4 },
  { 0, 0, -16, -5 },
  { 1, 0, 1, -16 },
  { 0, 0, 1, 4 },
  { 1, -1, 1, 2 },
  { 0, 0, -14, -15 },
  { 1, -1, -17, -14 },
  { 0, 0, -4, -6 },
  { 1, 0, 1, -6 },
  { 1, -1, 1, 5 },
  { 1, -1, 1, -6 },
  { 1, -1, 1, 2 },
  { 0, 0, -9, -1 },
  { 1, -1, -11, -7 },
  { 0, 1, 1, 2 },
  { 0, 0, -16, -5 },
  { 1, 0, -16, -1 },
  { 0, 1, -4, 1 },
  { 1, -1, -4, -6 },
  { 1, 0, 1, 30 },
  { 0, 1, 1, 22 },
  { 0, 0, 1, 8 },
  { 0, 0, 1, 5 },
  { 0, 0, -14, 1 },
  { 0, 0, -16, 1 },
  { 1, -1, -1, 1 },
  { 1, -1, -15, -18 },
  { 0, 0, -1, 1 },
  { 1, -1, -1, -16 },
  { 0, 0, 1, 3 },
  { 1, 0, -14, 1 },
  { 0, 0, -17, -14 },
  { 1, 0, 1, 8 },
  { 0, 1, 1, 4 },
  { 1, -1, 1, 2 },
  { 0, 0, -11, -14 },
  { 2, 1, -1, -19 },
  { 0, 1, 1, 2 },
  { 2, 1, -20, -9 },
  { 0, 1, -21, -22 },
  { 1, 0, -16, 1 },
  { 0, 0, -5, -11 },
  { 1, -1, 1, 3 },
  { 2, 1, 1, -5 },
  { 1, -1, -16, -9 },
  { 1, -1, -4, 1 },
  { 1, -1, -5, 1 },
  { 1, 0, 1, -7 },
  { 2, 1, -16, -1 },
  { 0, 1, 1, -17 },
  { 1, 0, -15, 1 },
  { 0, 0, -14, -6 },
  { 0, 0, 1, 68 },
  { 0, 0, 1, 35 },
  { 1, 2, 1, 32 },
  { 1, 1, 1, 22 },
  { 1, 1, 1, 15 },
  { 0, 0, 1, 7 },
  { 0, -2, 1, 3 },
  { 1, 0, 1, -7 },
  { 0, -2, -9, -16 },
  { 0, -1, 1, 2 },
  { 2, 0, -23, -24 },
  { 1, 0, -25, -26 },
  { 2, -1, 1, 4 },
  { 1, 0, 1, 2 },
  { 0, 0, -7, -1 },
  { 1, 0, -27, -28 },
  { 0, 0, 1, 2 },
  { 1, 0, -29, -30 },
  { 2, 0, -31, -32 },
  { 2, -1, -6, 1 },
  { 1, 1, 1, 3 },
  { 2, -1, -1, 1 },
  { 2, -1, -16, -9 },
  { 1, 1, 1, -7 },
  { 0, 0, -33, -9 },
  { 1, 2, 1, 8 },
  { 2, -1, 1, 4 },
  { 0, 0, -15, 1 },
  { 1, 1, -4, 1 },
  { 1, 2, -6, -8 },
  { 0, 0, -15, 1 },
  { 1, 2, 1, -1 },
  { 1, 2, -7, -17 },
  { 2, -1, -7, -5 },
  { 1, 2, 1, -16 },
  { 0, 0, -9, -16 },
  { 0, 0, 1, 30 },
  { 0, 0, 1, 18 },
  { 2, 1, 1, 14 },
  { 2, 1, 1, 7 },
  { 2, -1, 1, 3 },
  { 1, 2, 1, -9 },
  { 1, 1, -34, -35 },
  { 1, 0, 1, 2 },
  { 0, 0, -36, -37 },
  { 1, 0, -16, -38 },
  { 1, 0, 1, 3 },
  { 1, 0, -9, 1 },
  { 0, 0, -16, -9 },
  { 0, 0, 1, 2 },
  { 1, 0, -39, -9 },
  { 0, 0, -14, -1 },
  { 1, 0, 1, 2 },
  { 0, 0, -16, -1 },
  { 0, 0, -9, -16 },
  { 0, 0, 1, 9 },
  { 1, 0, 1, 5 },
  { 0, 0, 1, 2 },
  { 0, 0, -15, -4 },
  { 1, 0, 1, -14 },
  { 1, 0, -28, -5 },
  { 0, 0, 1, -14 },
  { 0, 0, -5, 1 },
  { 2, 0, -5, -1 },
  { 1, 0, 1, -11 },
  { 1, 0, -9, -16 },
  { 1, 0, 1, -9 },
  { 1, 0, -16, -1 },
  { 0, 0, 1, 6 },
  { 1, 0, 1, 3 },
  { 2, 1, 1, -14 },
  { 2, 0, -11, -5 },
  { 2, 0, 1, -6 },
  { 1, 1, -15, -14 },
  { 0, 1, 1, 5 },
  { 0, 0, 1, 2 },
  { 2, -1, -7, -15 },
  { 1, 1, 1, -1 },
  { 2, 0, -16, -9 },
  { 0, 2, 1, -4 },
  { 1, 0, 1, 15 },
  { 0, 1, 1, 8 },
  { 2, 0, 1, 4 },
  { 0, 1, 1, 2 },
  { 2, 0, -11, -5 },
  { 1, 0, -40, -15 },
  { 1, 0, 1, 2 },
  { 2, 1, -7, -17 },
  { 1, 0, -1, -16 },
  { 0, 1, 1, 4 },
  { 0, 1, 1, 2 },
  { 0, 1, -41, -42 },
  { 2, 0, -16, -1 },
  { 1, 0, 1, -7 },
  { 0, 1, -15, -4 },
  { 1, 0, 1, 2 },
  { 1, 0, -15, -6 },
  { 1, 1, 1, 4 },
  { 1, 0, 1, 2 },
  { 1, 0, -43, -44 },
  { 2, 1, -22, -45 },
  { 1, 2, 1, 2 },
  { 0, 1, -46, -17 },
  { 1, 2, -1, -5 },
  { 1, 0, 1, 76 },
  { 0, 0, 1, 45 },
  { 0, 0, 1, 26 },
  { 1, -1, 1, 2 },
  { 1, -2, -4, -14 },
  { 1, -1, -1, 1 },
  { 2, 0, 1, 9 },
  { 1, -1, -4, 1 },
  { 1, -1, 1, 4 },
  { 0, 0, 1, 2 },
  { 0, 0, -47, -1 },
  { 0, 0, -4, -48 },
  { 0, -1, 1, 2 },
  { 0, -1, -49, -1 },
  { 1, 0, -1, -39 },
  { 0, 0, 1, 8 },
  { 1, -1, 1, 4 },
  { 1, -1, 1, 2 },
  { 1, -1, -50, -51 },
  { 0, -1, -52, -53 },
  { 2, 0, 1, 2 },
  { 0, -1, -54, -55 },
  { 0, 0, -5, -4 },
  { 1, -1, 1, 2 },
  { 0, 0, -4, -6 },
  { 1, -1, 1, 2 },
  { 2, 0, -9, -7 },
  { 0, 0, -56, -16 },
  { 1, -1, 1, 8 },
  { 1, -1, -5, 1 },
  { 1, -1, 1, 4 },
  { 2, 1, 1, -15 },
  { 0, 0, -15, 1 },
  { 1, -1, -4, -6 },
  { 0, 0, 1, -5 },
  { 0, 0, -6, -15 },
  { 1, -1, 1, 2 },
  { 1, -1, -16, -1 },
  { 1, -1, 1, 2 },
  { 0, 0, -4, -14 },
  { 2, 0, -6, 1 },
  { 2, 0, 1, 2 },
  { 2, 0, -1, -7 },
  { 0, 0, 1, 2 },
  { 1, 0, -5, -1 },
  { 0, 0, -57, -58 },
  { 0, 1, 1, 24 },
  { 0, 1, 1, 21 },
  { 0, 1, 1, 18 },
  { 2, 0, 1, 7 },
  { 0, 1, 1, 5 },
  { 0, 1, 1, -1 },
  { 0, 0, 1, 2 },
  { 1, -1, -5, -59 },
  { 1, -1, -60, -61 },
  { 1, -1, -4, -14 },
  { 0, 1, 1, 8 },
  { 1, -1, 1, 4 },
  { 1, -1, 1, 2 },
  { 2, 1, -62, -14 },
  { 2, 1, -4, -14 },
  { 1, -1, 1, 2 },
  { 2, 1, -63, -64 },
  { 2, 1, -65, -66 },
  { 1, -1, -5, 1 },
  { 0, 1, -4, -15 },
  { 2, 1, 1, -5 },
  { 0, 1, -16, -9 },
  { 0, 1, 1, -5 },
  { 0, 1, -4, -6 },
  { 0, 2, 1, -4 },
  { 0, 1, 1, 3 },
  { 1, -1, 1, -9 },
  { 1, -1, -16, -1 },
  { 2, 0, -9, 1 },
  { 2, 1, -5, -6 },
  { 0, -1, 1, 17 },
  { 2, 0, 1, 14 },
  { 2, 0, -7, 1 },
  { 1, 0, 1, 7 },
  { 1, 0, 1, 4 },
  { 1, 0, 1, 2 },
  { 2, 0, -5, -11 },
  { 0, -2, -4, -15 },
  { 0, -1, 1, -14 },
  { 0, -2, -5, -11 },
  { 0, -2, 1, 2 },
  { 1, 0, -15, -1 },
  { 2, 0, 1, 2 },
  { 0, -1, -15, -14 },
  { 0, -1, -14, -6 },
  { 1, 0, 1, -7 },
  { 2, 0, -16, -9 },
  { 2, -1, 1, 35 },
  { 0, 0, 1, 23 },
  { 1, 2, 1, 17 },
  { 1, 1, 1, 11 },
  { 0, 0, 1, 5 },
  { 0, 0, 1, -4 },
  { 1, 1, 1, 2 },
  { 1, 0, -67, -68 },
  { 1, 1, -69, -70 },
  { 1, 1, 1, 4 },
  { 1, 1, 1, 2 },
  { 1, 1, -71, -1 },
  { 1, 1, -15, -5 },
  { 1, 1, -1, -9 },
  { 1, 2, 1, 4 },
  { 0, 0, -7, 1 },
  { 1, 1, -4, 1 },
  { 0, 0, -69, -6 },
  { 1, 2, -7, -5 },
  { 0, 0, 1, 2 },
  { 1, 2, -9, -16 },
  { 0, 0, -15, 1 },
  { 1, 2, 1, -16 },
  { 2, -1, -5, -7 },
  { 1, 1, 1, 6 },
  { 1, 1, 1, 2 },
  { 1, 1, -11, -4 },
  { 1, 1, -9, 1 },
  { 0, 1, 1, -7 },
  { 1, 1, -5, -17 },
  { 1, 2, 1, 3 },
  { 0, 0, -14, 1 },
  { 0, 1, -4, -14 },
  { 0, 0, -4, 1 },
  { 1, 2, -7, -14 },
  { 0, -1, 1, 9 },
  { 0, -1, 1, -9 },
  { 2, 0, 1, 6 },
  { 1, 0, 1, 4 },
  { 1, 0, -14, 1 },
  { 0, -1, -11, 1 },
  { 0, -1, -17, -5 },
  { 0, -1, -16, -1 },
  { 0, -1, -16, -9 },
  { 0, 1, 1, 30 },
  { 1, 0, 1, 14 },
  { 1, 0, 1, 8 },
  { 0, 0, 1, 4 },
  { 0, 0, 1, 2 },
  { 1, 0, -72, -73 },
  { 0, 0, -74, -17 },
  { 0, 0, 1, 2 },
  { 0, 0, -75, -9 },
  { 2, 1, -76, -77 },
  { 1, 0, 1, 2 },
  { 2, 0, -17, -15 },
  { 0, 1, 1, 2 },
  { 1, 0, -78, -79 },
  { 1, 0, -1, -16 },
  { 1, 1, 1, 8 },
  { 0, 0, 1, 4 },
  { 1, 1, 1, 2 },
  { 2, -1, -80, -81 },
  { 0, 0, -5, -82 },
  { 1, 1, 1, 2 },
  { 1, 1, -83, -9 },
  { 0, 0, -16, -5 },
  { 0, 0, 1, 4 },
  { 1, 1, 1, 2 },
  { 1, 1, -84, -14 },
  { 1, 1, -85, -86 },
  { 0, 1, 1, 2 },
  { 2, 0, -87, -14 },
  { 0, 1, -5, -1 },
  { 2, 1, 1, 15 },
  { 2, 0, 1, 7 },
  { 0, 1, 1, 3 },
  { 1, 0, 1, -7 },
  { 1, 0, -16, -1 },
  { 1, 1, 1, 2 },
  { 1, 0, -28, -88 },
  { 1, 1, -7, -17 },
  { 1, 0, 1, 4 },
  { 0, 2, 1, 2 },
  { 0, 1, -89, -40 },
  { 1, 0, -7, -11 },
  { 0, 1, 1, 2 },
  { 1, 0, -11, -4 },
  { 1, 0, -21, -90 },
  { 1, 0, -7, -16 },
  { 1, 0, 1, 79 },
  { 1, 0, 1, 73 },
  { 2, 0, 1, 10 },
  { 1, 0, 1, 6 },
  { 0, -1, 1, 3 },
  { 0, -1, 1, -1 },
  { 0, -1, -7, -5 },
  { 0, 0, 1, -5 },
  { 0, 0, -5, -7 },
  { 1, 0, -9, 1 },
  { 1, 0, -7, 1 },
  { 0, -1, -7, -1 },
  { 0, 0, 1, 39 },
  { 2, 0, 1, 22 },
  { 1, -1, 1, 7 },
  { 2, 0, 1, -7 },
  { 0, 0, 1, 4 },
  { 0, -1, 1, 2 },
  { 1, -1, -4, -6 },
  { 1, -1, -17, -91 },
  { 0, 0, -4, -6 },
  { 1, -1, 1, 7 },
  { 0, 0, 1, 3 },
  { 0, 0, 1, -4 },
  { 1, -1, -21, -92 },
  { 2, 0, 1, 2 },
  { 1, -1, -66, -9 },
  { 1, -1, -9, -93 },
  { 1, -1, 1, 4 },
  { 2, 0, 1, 2 },
  { 1, -1, -4, -28 },
  { 1, -1, -4, -94 },
  { 1, 0, 1, 2 },
  { 1, -1, -11, -95 },
  { 1, 0, -96, -97 },
  { 0, 0, 1, 5 },
  { 1, 0, 1, -16 },
  { 0, -1, -17, 1 },
  { 1, -1, -7, 1 },
  { 1, -1, -5, -7 },
  { 0, 0, 1, 8 },
  { 0, 0, 1, 4 },
  { 0, 0, 1, 2 },
  { 0, 0, -98, -14 },
  { 0, 0, -17, -15 },
  { 0, 0, 1, 2 },
  { 1, -1, -16, -5 },
  { 1, -1, -5, -99 },
  { 1, -1, -1, 1 },
  { 2, 1, 1, -15 },
  { 0, 0, -4, -6 },
  { 0, 1, 1, 10 },
  { 0, 1, 1, 8 },
  { 2, 1, 1, -14 },
  { 1, -1, 1, 3 },
  { 1, -2, -4, 1 },
  { 2, 0, -28, -100 },
  { 0, 0, 1, 2 },
  { 0, 0, -101, -102 },
  { 0, 0, -14, -103 },
  { 1, -1, -7, -16 },
  { 1, -1, 1, 6 },
  { 0, 1, 1, -4 },
  { 0, 1, 1, -16 },
  { 2, 1, 1, 2 },
  { 0, 1, -104, -16 },
  { 1, -1, -5, -7 },
  { 2, 0, -16, 1 },
  { 0, 2, 1, 4 },
  { 2, 1, 1, 2 },
  { 1, 0, -105, -5 },
  { 1, -1, -69, -5 },
  { 1, -1, 1, -9 },
  { 2, 1, -5, -11 },
  { 0, -1, 1, 4 },
  { 0, -1, 1, -11 },
  { 0, -2, -4, 1 },
  { 1, 0, -14, -15 },
  { 0, 0, -4, -6 },
  { 2, 0, 1, 98 },
  { 1, 0, 1, 54 },
  { 2, 0, 1, 24 },
  { 0, -1, 1, 6 },
  { 0, -1, 1, 4 },
  { 2, -1, -9, 1 },
  { 1, 0, -7, 1 },
  { 0, -1, -5, -17 },
  { 1, 0, -1, -9 },
  { 0, -1, 1, 4 },
  { 1, 0, -14, 1 },
  { 0, -1, -14, 1 },
  { 0, -1, -6, -4 },
  { 1, 0, 1, 8 },
  { 0, 0, 1, 4 },
  { 1, 0, 1, 2 },
  { 0, 0, -60, -4 },
  { 0, 0, -106, -38 },
  { 1, 0, 1, 2 },
  { 0, 0, -15, -107 },
  { 1, 0, -4, -108 },
  { 1, 0, 1, 2 },
  { 2, -1, -4, -6 },
  { 1, 0, 1, 2 },
  { 0, 0, -109, -110 },
  { 2, -1, -6, -111 },
  { 0, -1, 1, 13 },
  { 0, -1, 1, 7 },
  { 1, 0, 1, 5 },
  { 1, 0, 1, 3 },
  { 0, -2, -9, 1 },
  { 1, 0, -17, -112 },
  { 0, -1, -1, -9 },
  { 0, -1, -15, -14 },
  { 0, -1, -6, 1 },
  { 0, -1, 1, 2 },
  { 1, 0, -15, -11 },
  { 0, -1, 1, -14 },
  { 1, 0, -14, -15 },
  { 0, -1, -9, 1 },
  { 2, 0, 1, 8 },
  { 0, 0, 1, 4 },
  { 0, 0, 1, 2 },
  { 1, 0, -109, -113 },
  { 1, 0, -114, -115 },
  { 1, 0, 1, 2 },
  { 0, 1, -111, -5 },
  { 0, 0, -116, -117 },
  { 0, 0, 1, 4 },
  { 0, -1, 1, 2 },
  { 0, -1, -118, -6 },
  { 0, 0, -5, -119 },
  { 0, 0, 1, 2 },
  { 1, 0, -120, -121 },
  { 1, 0, -16, -11 },
  { 0, 1, 1, 38 },
  { 1, 0, 1, 12 },
  { 2, 0, 1, 9 },
  { 0, 0, 1, 7 },
  { 0, 0, 1, 4 },
  { 0, 0, 1, 2 },
  { 0, -1, -122, -3 },
  { 0, 0, -11, -6 },
  { 0, 0, 1, -1 },
  { 1, 0, -9, -16 },
  { 1, 0, -15, -11 },
  { 1, 0, -9, 1 },
  { 0, 0, -7, -1 },
  { 0, 0, 1, 10 },
  { 1, 1, 1, 7 },
  { 2, 0, 1, 4 },
  { 1, 1, 1, 2 },
  { 0, -1, -14, -123 },
  { 0, 0, -28, -124 },
  { 0, 0, -6, 1 },
  { 0, 0, -15, -14 },
  { 1, 2, 1, -16 },
  { 1, 2, -1, -7 },
  { 2, -1, 1, 8 },
  { 1, 2, 1, 4 },
  { 1, 1, 1, 2 },
  { 1, 1, -125, -126 },
  { 2, -1, -127, -128 },
  { 2, -1, 1, 2 },
  { 1, 2, -60, -15 },
  { 0, 0, -129, -60 },
  { 0, 0, 1, 4 },
  { 1, 0, 1, 2 },
  { 1, 0, -7, -14 },
  { 1, 1, -130, -131 },
  { 0, 1, 1, 2 },
  { 1, 2, -132, -16 },
  { 0, 1, -133, -5 },
  { 0, 1, 1, 2 },
  { 1, 2, -4, -14 },
  { 1, 1, -15, 1 },
  { 1, 1, -7, 1 },
  { 2, -1, -5, -17 },
  { 1, 0, 1, 5 },
  { 2, 0, 1, 3 },
  { 1, 0, 1, -16 },
  { 0, 0, -9, -16 },
  { 0, 0, -16, -5 },
  { 0, 2, 1, -4 },
  { 1, 0, 1, 24 },
  { 0, 0, 1, 9 },
  { 0, 0, 1, 7 },
  { 1, 0, 1, 4 },
  { 1, 0, 1, 2 },
  { 0, -1, -11, -17 },
  { 1, 0, -134, -17 },
  { 1, 0, -14, 1 },
  { 1, 0, -21, -135 },
  { 1, 0, -14, -15 },
  { 0, 0, 1, 7 },
  { 2, 0, 1, 4 },
  { 0, 0, 1, 2 },
  { 0, 0, -136, -137 },
  { 1, 0, -17, -138 },
  { 0, 0, -14, 1 },
  { 1, 0, -15, -139 },
  { 2, 0, 1, 4 },
  { 0, 0, 1, 2 },
  { 1, 0, -140, -116 },
  { 0, 1, -141, -15 },
  { 1, 0, 1, 2 },
  { 1, 0, -142, -143 },
  { 1, 0, -6, -144 },
  { 1, 0, 1, 3 },
  { 2, 0, 1, -1 },
  { 0, 1, -9, -16 },
  { 0, 1, 1, 5 },
  { 1, 0, -6, 1 },
  { 1, 0, 1, 2 },
  { 0, 0, -145, -146 },
  { 1, 0, -6, -147 },
  { 0, 1, 1, 3 },
  { 1, 0, -11, 1 },
  { 1, 0, -4, -15 },
  { 2, 2, 1, -16 },
  { 2, 0, -7, -86 },
  { 1, 0, 1, 88 },
  { 0, 1, 1, 74 },
  { 2, -1, 1, 15 },
  { 1, 0, 1, 8 },
  { 0, -1, -4, 1 },
  { 1, 0, 1, 4 },
  { 2, -1, -15, 1 },
  { 0, 0, -7, 1 },
  { 0, 0, -17, -5 },
  { 0, 0, 1, -1 },
  { 1, 0, -7, -5 },
  { 0, 1, 1, -7 },
  { 1, 0, 1, -5 },
  { 1, 0, -4, 1 },
  { 1, 0, -5, 1 },
  { 1, 0, 1, -6 },
  { 1, 0, -148, -5 },
  { 1, 0, 1, 20 },
  { 1, 0, 1, 16 },
  { 2, 0, 1, 3 },
  { 1, -1, 1, -1 },
  { 0, -1, -7, -5 },
  { 0, 0, 1, 6 },
  { 1, 0, 1, 3 },
  { 1, -2, -4, 1 },
  { 2, 0, -149, -150 },
  { 2, 0, -5, 1 },
  { 0, -1, -9, -151 },
  { 0, 0, 1, 3 },
  { 2, 0, -5, 1 },
  { 1, -1, -109, -152 },
  { 0, 0, 1, 2 },
  { 2, 1, -153, -154 },
  { 0, 1, -155, -133 },
  { 0, -1, 1, 2 },
  { 2, 0, -14, -15 },
  { 0, 0, -4, -6 },
  { 1, 0, 1, 9 },
  { 0, -1, -6, 1 },
  { 0, -1, -9, 1 },
  { 0, 0, 1, 4 },
  { 2, 0, 1, 2 },
  { 1, 0, -11, -17 },
  { 1, 0, -1, -5 },
  { 2, 0, -1, 1 },
  { 2, 1, -9, -16 },
  { 2, 0, 1, 15 },
  { 2, 0, 1, 7 },
  { 0, 1, 1, 4 },
  { 0, 0, 1, 2 },
  { 1, 0, -156, -157 },
  { 0, 0, -158, -159 },
  { 1, 0, 1, -7 },
  { 0, 1, -14, -160 },
  { 0, -2, 1, 4 },
  { 1, 0, 1, 2 },
  { 1, 0, -16, -9 },
  { 2, 0, -1, -7 },
  { 0, 1, 1, 2 },
  { 0, 0, -161, -162 },
  { 2, 0, -11, -16 },
  { 0, 0, 1, 7 },
  { 0, 0, 1, 4 },
  { 1, 0, 1, 2 },
  { 2, 1, -163, -164 },
  { 2, 0, -133, -116 },
  { 0, 0, 1, -7 },
  { 0, 0, -1, -165 },
  { 0, 0, 1, 4 },
  { 0, 0, 1, 2 },
  { 0, 0, -14, -4 },
  { 1, 0, -21, -166 },
  { 1, 0, 1, 2 },
  { 1, 0, -167, -142 },
  { 1, 0, -51, -168 },
  { 0, 2, 1, 8 },
  { 1, 0, 1, 2 },
  { 2, 1, -4, -6 },
  { 2, 1, 1, -7 },
  { 2, 0, -5, 1 },
  { 1, 0, -15, 1 },
  { 0, 2, 1, -15 },
  { 1, 0, -6, -4 },
  { 0, 2, 1, -4 },
  { 2, 0, -9, 1 },
  { 0, 2, -7, 1 },
  { 2, 1, -5, 1 },
  { 0, 2, -11, -17 },
  { 2, 0, 1, 42 },
  { 1, 2, 1, 33 },
  { 0, 1, 1, 28 },
  { 0, 0, 1, 10 },
  { 1, 0, 1, 4 },
  { 0, -1, 1, -14 },
  { 1, 0, 1, -7 },
  { 0, -1, -5, -17 },
  { 2, -1, 1, 4 },
  { 1, 0, 1, 2 },
  { 0, -1, -1, -16 },
  { 1, 1, -5, -1 },
  { 1, 0, -1, -11 },
  { 1, 0, 1, 5 },
  { 1, 0, -5, 1 },
  { 0, 0, 1, 2 },
  { 0, 0, -6, -5 },
  { 2, -1, -4, -6 },
  { 1, 0, 1, 7 },
  { 1, 0, 1, 3 },
  { 0, 0, 1, -15 },
  { 2, -1, -5, -11 },
  { 1, 0, 1, 2 },
  { 2, -1, -16, -1 },
  { 1, 0, -14, -169 },
  { 1, 0, 1, 2 },
  { 1, 0, -4, -15 },
  { 1, 1, 1, 2 },
  { 2, -1, -170, -171 },
  { 1, 1, -14, -172 },
  { 2, -1, 1, 3 },
  { 0, 1, 1, -5 },
  { 2, -1, -4, -14 },
  { 0, 1, -7, -17 },
  { 2, -1, 1, 3 },
  { 1, 2, 1, -16 },
  { 1, 2, -5, -15 },
  { 0, 0, 1, 2 },
  { 1, 2, -16, -9 },
  { 0, 1, 1, -1 },
  { 1, 2, -7, 1 },
  { 1, 2, -5, -17 },
  { 2, 1, 1, 23 },
  { 0, 1, 1, 17 },
  { 0, -1, -14, 1 },
  { 1, 0, 1, 6 },
  { 2, 1, 1, -14 },
  { 0, 0, 1, 2 },
  { 2, 0, -16, -9 },
  { 0, 0, 1, -9 },
  { 1, 0, -173, -1 },
  { 1, 0, 1, 2 },
  { 0, 0, -5, -6 },
  { 2, 1, 1, 4 },
  { 0, -1, 1, 2 },
  { 1, 0, -9, -174 },
  { 2, 0, -175, -176 },
  { 1, 0, 1, 2 },
  { 2, 1, -177, -14 },
  { 0, 1, -9, -7 },
  { 0, 1, 1, 2 },
  { 1, 0, -4, -15 },
  { 1, 0, -7, 1 },
  { 2, 0, 1, -17 },
  { 2, 0, -7, -5 },
  { 0, 1, -9, -16 },
  { 1, 0, 1, 75 },
  { 0, 1, 1, 46 },
  { 1, 0, 1, 41 },
  { 1, 0, 1, 29 },
  { 2, 0, 1, 8 },
  { 0, 0, 1, 6 },
  { 1, -1, -1, 1 },
  { 1, -1, -4, 1 },
  { 0, 0, 1, 2 },
  { 0, -1, -178, -45 },
  { 1, 0, -1, -5 },
  { 1, -1, -5, -6 },
  { 0, 0, 1, 14 },
  { 0, -1, 1, 6 },
  { 2, 0, 1, 2 },
  { 1, 0, -6, -4 },
  { 1, 0, 1, 2 },
  { 0, -1, -7, -15 },
  { 1, 0, -6, -14 },
  { 0, 0, 1, 4 },
  { 1, -1, 1, 2 },
  { 0, -1, -179, -15 },
  { 0, 0, -180, -38 },
  { 1, -1, 1, 2 },
  { 2, 0, -4, -5 },
  { 1, 0, -181, -15 },
  { 1, -2, -4, 1 },
  { 2, 0, 1, 2 },
  { 0, 0, -1, -5 },
  { 0, 0, 1, 2 },
  { 1, -1, -48, -26 },
  { 0, 0, -182, -183 },
  { 0, 0, 1, 9 },
  { 2, 0, 1, 5 },
  { 0, -1, 1, 3 },
  { 2, 0, 1, -11 },
  { 1, 0, -7, -5 },
  { 2, -1, -5, -1 },
  { 2, 0, -1, 1 },
  { 1, 0, -9, 1 },
  { 0, -1, -9, -1 },
  { 0, 0, 1, -6 },
  { 1, 0, -5, -14 },
  { 0, 0, 1, 3 },
  { 0, -2, -4, 1 },
  { 2, 0, -14, -15 },
  { 0, 0, -4, -6 },
  { 0, 1, 1, 24 },
  { 0, 1, 1, 17 },
  { 0, 1, 1, 2 },
  { 2, 1, -16, -7 },
  { 1, -1, 1, 4 },
  { 0, 1, -7, 1 },
  { 2, 1, 1, -5 },
  { 0, 1, -1, -16 },
  { 0, 1, 1, 6 },
  { 1, -1, 1, 2 },
  { 0, 1, -15, -4 },
  { 1, 0, 1, 2 },
  { 1, -1, -1, -184 },
  { 2, 0, -5, -16 },
  { 2, 1, 1, 2 },
  { 0, 1, -14, -4 },
  { 1, 0, 1, -15 },
  { 1, -1, -5, -7 },
  { 1, 0, 1, -17 },
  { 2, 1, 1, -7 },
  { 0, 1, 1, 2 },
  { 0, 1, -16, -9 },
  { 1, 0, 1, -9 },
  { 1, -1, -16, -1 },
  { 2, 0, -9, 1 },
  { 0, 2, 1, 2 },
  { 2, 1, -4, -6 },
  { 0, 2, -11, -4 },
  { 0, 1, 1, 98 },
  { 2, 1, 1, 77 },
  { 0, 0, 1, 37 },
  { 0, 0, 1, 21 },
  { 0, 0, 1, 12 },
  { 0, 0, 1, 8 },
  { 0, -1, 1, 4 },
  { 1, 0, 1, 2 },
  { 2, 0, -185, -66 },
  { 0, -1, -102, -14 },
  { 0, -1, 1, 2 },
  { 1, 0, -186, -187 },
  { 1, 0, -188, -189 },
  { 1, 0, -16, 1 },
  { 2, 0, 1, -1 },
  { 1, 0, -1, -16 },
  { 2, 0, 1, 3 },
  { 0, 0, -9, 1 },
  { 0, 0, -15, -7 },
  { 0, 0, 1, 2 },
  { 1, 0, -14, -4 },
  { 1, 0, 1, 2 },
  { 0, 0, -116, -15 },
  { 0, 0, -6, -7 },
  { 1, 2, 1, 12 },
  { 1, 2, 1, 8 },
  { 0, 0, 1, 4 },
  { 2, 0, 1, 2 },
  { 1, 1, -185, -4 },
  { 0, 0, -66, -17 },
  { 1, 0, 1, 2 },
  { 0, 0, -190, -191 },
  { 0, 0, -192, -104 },
  { 0, 0, -7, 1 },
  { 2, -1, 1, -11 },
  { 1, 2, -14, -4 },
  { 1, 2, 1, 2 },
  { 0, 0, -5, -16 },
  { 2, -1, -16, -9 },
  { 2, 0, 1, 22 },
  { 2, 0, 1, 13 },
  { 0, 1, 1, 7 },
  { 1, 2, 1, 4 },
  { 1, 1, 1, 2 },
  { 2, 0, -153, -193 },
  { 1, 1, -6, -15 },
  { 1, 2, 1, -16 },
  { 1, 2, -7, -17 },
  { 0, 1, 1, 2 },
  { 0, 1, -9, -1 },
  { 1, 0, 1, 2 },
  { 0, 1, -6, -4 },
  { 2, -1, -108, -30 },
  { 1, 0, -6, 1 },
  { 0, 1, 1, 4 },
  { 1, 0, 1, 2 },
  { 2, 0, -1, -5 },
  { 1, 0, -194, -1 },
  { 1, 0, 1, 2 },
  { 0, 1, -1, -16 },
  { 1, 0, -88, -195 },
  { 0, 1, 1, 11 },
  { 1, 0, 1, 7 },
  { 1, 0, 1, 3 },
  { 1, 0, -5, 1 },
  { 0, 1, -11, -28 },
  { 0, 1, 1, 2 },
  { 0, 0, -57, -196 },
  { 0, 1, -160, -6 },
  { 2, 1, 1, -9 },
  { 0, 1, -14, 1 },
  { 0, 1, -7, -11 },
  { 1, 0, -15, 1 },
  { 1, 0, 1, 3 },
  { 1, 0, -17, 1 },
  { 0, 1, -16, -1 },
  { 0, 1, -5, 1 },
  { 1, 0, -11, -197 },
  { 1, 0, 1, 5 },
  { 1, 0, 1, 3 },
  { 0, 0, -16, 1 },
  { 1, 0, -17, -5 },
  { 0, 0, -1, -9 },
  { 0, 0, 1, 3 },
  { 1, 0, 1, -14 },
  { 1, 0, -1, -17 },
  { 0, 1, 1, 7 },
  { 1, 0, 1, 3 },
  { 0, 0, -14, 1 },
  { 1, 0, -5, -7 },
  { 0, 1, 1, -1 },
  { 2, 1, -9, 1 },
  { 0, 0, -9, -16 },
  { 1, 0, 1, -16 },
  { 1, 0, 1, -15 },
  { 1, 0, 1, 2 },
  { 2, 1, -15, -70 },
  { 1, 0, -9, -198 },
  { 2, 1, 1, 4 },
  { 1, 1, 1, 2 },
  { 1, 0, -4, -15 },
  { 2, 0, -17, -7 },
  { 1, 0, -7, 1 },
  { 1, 0, -11, 1 },
  { 0, 2, 1, -17 },
  { 2, 1, -5, -7 },
  { 1, -1, 1, 16 },
  { 1, -1, 1, 10 },
  { 0, 1, 1, -16 },
  { 1, -2, 1, 6 },
  { 0, 0, -4, 1 },
  { 1, -2, -4, 1 },
  { 1, -2, 1, -14 },
  { 1, -2, -11, 1 },
  { 2, 0, -7, -5 },
  { 1, -1, 1, -1 },
  { 2, 0, -7, -11 },
  { 0, -1, -1, 1 },
  { 1, -1, 1, -15 },
  { 1, -1, -14, 1 },
  { 0, 0, -6, 1 },
  { 1, -1, -4, -6 },
  { 0, 2, 1, -4 },
  { 1, 2, 1, 72 },
  { 2, -1, 1, 23 },
  { 0, 0, 1, 15 },
  { 1, 0, 1, 5 },
  { 1, 0, 1, -6 },
  { 0, 0, -6, 1 },
  { 0, 0, 1, -6 },
  { 0, 0, -7, -5 },
  { 1, 2, 1, 7 },
  { 1, 0, 1, 3 },
  { 0, 0, -7, 1 },
  { 1, 0, -1, -9 },
  { 0, 0, 1, 2 },
  { 0, 0, -199, -15 },
  { 0, 0, -9, -22 },
  { 0, 0, -5, 1 },
  { 1, 2, -9, -16 },
  { 1, 2, 1, -7 },
  { 1, 1, 1, 3 },
  { 0, 1, 1, -4 },
  { 0, 0, -11, -5 },
  { 2, -1, -14, 1 },
  { 0, 1, 1, -14 },
  { 0, 0, -6, -4 },
  { 1, 0, 1, 30 },
  { 0, 0, 1, 15 },
  { 0, 0, 1, 8 },
  { 2, 0, 1, 4 },
  { 2, 0, 1, 2 },
  { 1, 0, -200, -201 },
  { 1, 0, -202, -203 },
  { 1, -1, 1, 2 },
  { 0, 0, -5, -6 },
  { 2, 0, -204, -205 },
  { 0, 0, 1, 4 },
  { 0, 0, 1, 2 },
  { 1, 0, -120, -206 },
  { 1, 0, -207, -208 },
  { 2, 0, -14, 1 },
  { 2, 0, -4, -6 },
  { 1, 0, 1, 7 },
  { 1, 0, 1, 4 },
  { 1, -1, 1, 2 },
  { 0, 1, -209, -210 },
  { 1, 0, -211, -212 },
  { 0, 0, -5, 1 },
  { 0, 0, -1, -213 },
  { 1, 0, 1, 4 },
  { 0, 0, 1, 2 },
  { 1, 0, -5, -17 },
  { 2, 0, -67, -214 },
  { 1, 0, 1, 2 },
  { 1, 0, -215, -1 },
  { 2, 0, -53, -216 },
  { 0, 1, 1, 12 },
  { 0, -1, 1, 4 },
  { 2, 0, 1, -7 },
  { 0, -1, 1, -1 },
  { 1, 1, -9, -16 },
  { 0, 0, 1, 4 },
  { 1, 0, 1, 2 },
  { 0, -1, -80, -141 },
  { 2, 0, -67, -16 },
  { 2, 1, 1, 2 },
  { 0, 0, -217, -218 },
  { 1, 0, -9, -7 },
  { 0, 1, 1, 2 },
  { 0, 1, -15, -4 },
  { 0, 1, 1, 3 },
  { 1, 0, -17, 1 },
  { 1, 0, -7, -13 },
  { 2, 0, -15, -5 },
  { 1, 2, 1, 3 },
  { 1, 2, 1, -5 },
  { 2, -1, -1, -16 },
  { 1, 2, -9, -16 },
  { 1, 2, 1, 103 },
  { 1, -1, 1, 13 },
  { 0, 0, 1, 9 },
  { 0, 0, 1, 6 },
  { 0, -1, -4, 1 },
  { 0, -1, 1, 3 },
  { 0, -1, -1, 1 },
  { 2, 0, -5, -7 },
  { 0, -1, -6, -5 },
  { 1, -1, 1, -15 },
  { 1, -1, -4, -6 },
  { 2, 0, 1, 2 },
  { 2, 0, -5, -7 },
  { 2, 1, -11, -5 },
  { 2, -1, 1, 32 },
  { 0, 0, 1, 16 },
  { 1, 0, 1, 4 },
  { 1, 0, 1, -6 },
  { 0, 0, 1, -1 },
  { 1, 0, -7, -5 },
  { 1, 0, 1, 2 },
  { 0, 0, -1, -9 },
  { 1, 1, 1, 6 },
  { 1, 1, 1, 3 },
  { 0, -1, -14, 1 },
  { 0, 0, -12, -219 },
  { 0, 0, -6, 1 },
  { 0, 0, -14, -15 },
  { 0, 0, -1, 1 },
  { 1, 2, 1, -9 },
  { 1, 1, -7, -45 },
  { 1, 1, 1, 10 },
  { 1, 1, 1, 6 },
  { 0, 0, 1, 2 },
  { 1, 1, -14, -15 },
  { 1, 1, 1, 2 },
  { 0, 1, -11, -4 },
  { 0, 0, -1, -16 },
  { 0, 0, -9, 1 },
  { 1, 1, 1, -7 },
  { 1, 1, -5, -17 },
  { 2, -1, -5, 1 },
  { 1, 2, 1, 3 },
  { 0, 0, 1, -4 },
  { 1, 1, -14, -6 },
  { 0, 0, -4, -14 },
  { 0, -1, 1, 19 },
  { 2, 0, 1, 2 },
  { 1, 0, -7, -9 },
  { 1, 0, 1, 11 },
  { 2, 0, 1, 6 },
  { 1, 0, 1, 2 },
  { 0, -1, -6, -4 },
  { 1, 0, 1, 2 },
  { 0, -1, -5, -11 },
  { 1, 0, -8, -220 },
  { 0, -1, 1, 2 },
  { 1, -1, -1, -9 },
  { 1, 0, 1, -7 },
  { 1, -1, -15, -4 },
  { 0, -1, 1, -6 },
  { 2, 0, 1, 2 },
  { 1, 0, -15, -7 },
  { 1, 0, -7, 1 },
  { 1, 0, -9, -1 },
  { 0, -1, 1, 15 },
  { 1, 0, 1, 6 },
  { 2, 0, 1, 3 },
  { 0, -1, -9, 1 },
  { 1, 0, -5, -7 },
  { 2, 0, 1, -17 },
  { 1, -1, -15, -6 },
  { 0, -1, 1, 2 },
  { 0, -1, -5, -14 },
  { 0, -1, 1, 4 },
  { 0, -1, 1, 2 },
  { 0, -1, -151, -109 },
  { 1, 0, -9, -1 },
  { 2, 0, -9, 1 },
  { 1, 0, -221, -28 },
  { 2, 1, 1, 14 },
  { 2, 0, 1, 8 },
  { 0, 0, 1, 4 },
  { 0, 0, 1, 2 },
  { 2, 0, -222, -169 },
  { 1, 0, -28, -223 },
  { 0, 0, 1, 2 },
  { 1, 1, -224, -41 },
  { 0, 0, -225, -226 },
  { 1, -1, 1, 2 },
  { 0, 1, -1, -16 },
  { 0, 0, 1, 2 },
  { 0, 0, -227, -15 },
  { 0, 0, -228, -229 },
  { 0, 1, 1, 5 },
  { 1, -1, -9, 1 },
  { 0, 0, 1, 2 },
  { 1, 0, -230, -231 },
  { 0, 0, -15, -211 },
  { 1, 0, 1, -16 },
  { 0, 1, 1, 2 },
  { 0, 1, -17, -14 },
  { 1, -1, -11, -5 },
  { 0, 1, 1, -14 },
  { 0, 0, 1, 10 },
  { 2, -1, 1, 4 },
  { 1, 2, 1, -16 },
  { 0, 0, -5, 1 },
  { 1, 2, -1, -5 },
  { 1, 2, 1, 2 },
  { 0, 0, -7, -1 },
  { 0, 0, 1, -9 },
  { 1, 2, 1, -16 },
  { 0, 0, -9, -16 },
  { 1, 2, 1, -16 },
  { 1, 2, -7, -17 },
  { 1, 0, 1, 146 },
  { 1, 0, 1, 98 },
  { 0, 1, 1, 61 },
  { 0, 0, 1, 36 },
  { 1, 0, 1, 15 },
  { 0, 0, 1, 10 },
  { 2, 0, 1, 5 },
  { 1, -2, -4, 1 },
  { 1, -1, 1, 2 },
  { 2, 0, -5, -1 },
  { 2, 0, -232, -233 },
  { 1, -2, -4, 1 },
  { 1, -1, 1, 2 },
  { 1, -1, -234, -1 },
  { 0, -1, -235, -236 },
  { 1, 0, 1, -5 },
  { 2, 0, -5, 1 },
  { 1, -1, 1, -16 },
  { 0, 0, -5, -1 },
  { 2, 0, 1, 11 },
  { 1, 0, 1, 4 },
  { 0, 0, 1, -6 },
  { 0, -2, -4, 1 },
  { 0, -1, -64, -237 },
  { 1, 0, 1, 4 },
  { 0, 0, 1, 2 },
  { 2, 0, -1, -101 },
  { 0, 0, -15, -4 },
  { 0, -2, -9, 1 },
  { 0, -1, -61, -238 },
  { 0, 0, 1, 4 },
  { 2, 1, 1, -15 },
  { 0, 0, -16, 1 },
  { 0, 0, -239, -101 },
  { 2, 1, 1, 3 },
  { 2, 1, 1, -9 },
  { 0, 0, -240, -16 },
  { 1, 0, 1, -17 },
  { 0, 0, -16, -1 },
  { 2, 0, 1, 10 },
  { 1, 0, 1, 4 },
  { 1, -1, 1, -6 },
  { 0, 0, -14, 1 },
  { 1, -1, -5, -11 },
  { 0, 0, 1, 3 },
  { 0, 0, -5, 1 },
  { 1, 0, -9, -5 },
  { 2, 0, -11, 1 },
  { 2, 0, -5, -11 },
  { 1, 0, 1, 6 },
  { 1, -1, 1, 3 },
  { 1, -2, -11, 1 },
  { 2, 1, -6, -14 },
  { 1, -1, -7, 1 },
  { 1, -1, -1, -7 },
  { 2, 1, 1, 5 },
  { 0, 0, 1, -6 },
  { 2, 1, 1, 2 },
  { 1, 0, -241, -6 },
  { 0, 0, -242, -17 },
  { 0, 0, -16, 1 },
  { 0, 0, -14, 1 },
  { 1, 0, -243, -5 },
  { 2, 0, 1, 3 },
  { 1, 0, -5, 1 },
  { 0, 1, -14, -6 },
  { 0, 1, 1, 16 },
  { 2, 0, 1, 7 },
  { 1, -1, -1, 1 },
  { 1, -1, 1, 2 },
  { 2, 0, -5, -4 },
  { 0, 1, 1, 2 },
  { 1, 0, -11, -244 },
  { 0, 1, -1, -60 },
  { 1, -1, 1, 4 },
  { 0, 1, -16, 1 },
  { 1, -1, 1, -4 },
  { 0, 1, -11, -13 },
  { 1, -1, -9, 1 },
  { 0, 1, 1, 2 },
  { 0, 1, -245, -6 },
  { 2, 1, -246, -70 },
  { 2, 0, 1, 6 },
  { 1, -1, -4, 1 },
  { 2, 0, 1, 2 },
  { 1, 0, -5, -11 },
  { 0, 1, 1, -9 },
  { 0, 1, -16, -5 },
  { 0, 1, 1, 6 },
  { 1, -1, 1, 3 },
  { 0, 1, -7, 1 },
  { 0, 1, -16, -1 },
  { 0, 1, -15, 1 },
  { 1, 0, -247, -95 },
  { 0, 2, 1, 3 },
  { 1, 0, 1, -7 },
  { 2, 1, -4, -6 },
  { 1, 0, 1, -11 },
  { 0, 2, -7, -5 },
  { 0, 0, 1, 20 },
  { 1, 0, 1, 10 },
  { 1, 0, 1, 8 },
  { 1, 0, 1, 2 },
  { 0, -1, -16, -11 },
  { 0, -2, -1, 1 },
  { 0, -1, 1, 2 },
  { 0, -1, -15, -6 },
  { 0, 0, 1, -14 },
  { 0, 0, -17, -5 },
  { 2, 0, -1, -16 },
  { 1, 0, 1, 8 },
  { 2, -1, -1, 1 },
  { 1, 0, 1, 5 },
  { 1, 0, -6, 1 },
  { 1, 0, 1, 2 },
  { 2, 0, -5, -11 },
  { 0, 0, -6, -4 },
  { 0, 0, -5, -6 },
  { 1, 0, -4, -6 },
  { 0, 0, 1, 14 },
  { 0, 0, 1, 12 },
  { 0, 0, 1, -4 },
  { 1, 0, 1, 6 },
  { 0, 0, 1, 2 },
  { 1, 0, -6, -5 },
  { 1, 0, 1, 2 },
  { 1, 0, -248, -249 },
  { 0, 0, -5, -1 },
  { 0, 0, 1, 2 },
  { 0, 0, -7, -5 },
  { 2, 1, 1, -7 },
  { 0, 0, -15, -20 },
  { 2, 1, -9, -1 },
  { 2, 0, 1, 9 },
  { 1, 0, 1, 3 },
  { 0, 1, 1, -4 },
  { 2, 0, -15, -14 },
  { 0, 0, -4, 1 },
  { 0, 1, 1, -15 },
  { 0, 1, 1, 2 },
  { 0, 0, -7, -107 },
  { 2, 0, -7, -5 },
  { 0, 0, -14, 1 },
  { 0, 1, 1, -14 },
  { 1, 0, 1, -14 },
  { 2, 1, -11, -17 },
  { 2, -1, 1, 46 },
  { 1, 2, 1, 37 },
  { 1, 1, 1, 21 },
  { 0, 1, 1, 16 },
  { 0, 0, 1, 9 },
  { 0, -1, -9, 1 },
  { 1, 0, 1, 4 },
  { 0, 0, 1, 2 },
  { 0, 0, -7, -160 },
  { 1, 0, -5, -6 },
  { 1, 0, 1, 2 },
  { 2, -1, -250, -251 },
  { 1, 1, -252, -253 },
  { 0, 1, 1, 4 },
  { 1, 1, 1, 2 },
  { 0, 1, -16, -9 },
  { 1, 1, -5, -1 },
  { 1, 1, -11, 1 },
  { 1, 1, -5, -17 },
  { 1, 1, 1, 2 },
  { 1, 0, -14, -4 },
  { 1, 1, 1, -4 },
  { 1, 1, -5, -7 },
  { 1, 2, 1, 10 },
  { 0, 0, -1, 1 },
  { 2, -1, 1, 5 },
  { 0, 0, 1, 3 },
  { 0, 0, 1, -7 },
  { 0, 0, -15, -14 },
  { 0, 0, -6, -14 },
  { 0, 0, -15, 1 },
  { 1, 2, 1, -17 },
  { 1, 2, -7, -5 },
  { 1, 2, 1, -4 },
  { 0, 0, 1, 2 },
  { 1, 2, -7, -9 },
  { 2, -1, 1, -5 },
  { 2, -1, -5, -7 },
  { 2, -1, 1, 4 },
  { 1, 2, 1, -16 },
  { 0, 0, -5, 1 },
  { 1, 2, -14, -15 },
  { 0, 0, 1, 2 },
  { 0, 0, -9, -16 },
  { 1, 2, 1, -16 },
  { 2, -1, -7, -5 },
  { 1, 0, 1, 38 },
  { 1, 0, 1, 34 },
  { 0, 0, 1, 17 },
  { 0, 0, 1, 11 },
  { 1, 0, 1, 4 },
  { 0, -1, -9, 1 },
  { 1, 0, 1, -16 },
  { 0, 0, -186, -16 },
  { 1, 0, 1, 3 },
  { 0, -1, -14, 1 },
  { 1, 0, -6, -254 },
  { 1, 0, 1, 2 },
  { 0, 0, -255, -15 },
  { 0, 0, -256, -257 },
  { 0, 0, 1, 4 },
  { 1, 0, -7, 1 },
  { 0, 0, 1, -9 },
  { 2, 0, -1, -16 },
  { 2, 0, -7, -5 },
  { 1, 0, 1, 9 },
  { 1, 0, 1, 6 },
  { 0, 0, 1, 2 },
  { 2, 1, -15, -14 },
  { 2, 0, 1, 2 },
  { 0, 1, -15, -21 },
  { 0, 0, -9, -258 },
  { 2, 0, 1, -7 },
  { 0, 0, -14, -6 },
  { 1, 0, 1, 4 },
  { 2, 0, 1, 2 },
  { 0, 0, -9, -16 },
  { 0, 1, -7, -16 },
  { 2, 1, 1, -6 },
  { 2, 0, -1, 1 },
  { 2, 0, -5, -7 },
  { 2, 0, -5, 1 },
  { 2, 0, 1, -15 },
  { 2, 0, -15, -14 },
  { 0, 0, 1, 4 },
  { 1, 1, 1, 2 },
  { 1, 1, -17, -7 },
  { 1, 1, -15, -6 },
  { 0, 0, 1, 13 },
  { 1, 0, 1, 3 },
  { 2, 0, 1, -7 },
  { 0, 0, -5, -17 },
  { 1, 1, 1, 7 },
  { 0, 0, 1, 3 },
  { 0, 0, 1, -7 },
  { 2, 0, -9, -16 },
  { 1, 1, 1, 2 },
  { 2, 0, -16, -9 },
  { 1, 1, -5, -73 },
  { 2, 0, 1, -9 },
  { 0, 0, -14, -5 },
  { 1, 1, 1, 6 },
  { 2, 0, -7, 1 },
  { 2, 0, 1, 3 },
  { 2, 0, -9, 1 },
  { 1, 0, -151, -1 },
  { 0, 0, -7, -9 },
  { 1, 1, 1, 6 },
  { 1, 1, 1, 3 },
  { 1, 1, -15, 1 },
  { 0, 0, -259, -260 },
  { 0, 1, 1, -11 },
  { 1, 1, -15, -14 },
  { 1, 2, 1, 4 },
  { 1, 1, 1, 2 },
  { 1, 1, -261, -262 },
  { 1, 1, -4, -93 },
  { 0, 1, 1, -1 },
  { 2, 0, -16, -1 },
  { 1, -1, 1, 29 },
  { 2, 1, 1, 25 },
  { 2, 0, 1, 10 },
  { 0, -1, 1, 3 },
  { 1, -1, -1, 1 },
  { 1, -1, -5, -7 },
  { 2, 0, 1, -7 },
  { 0, 0, 1, -5 },
  { 0, 0, 1, 3 },
  { 0, 0, 1, -1 },
  { 0, 0, -4, -15 },
  { 0, 0, -4, -6 },
  { 2, 0, 1, 9 },
  { 1, -2, -4, 1 },
  { 1, -1, -5, 1 },
  { 1, -1, 1, 3 },
  { 1, -1, 1, -15 },
  { 0, 0, -6, -4 },
  { 1, -1, -5, 1 },
  { 0, -1, -5, 1 },
  { 0, 0, -4, -185 },
  { 1, -1, -11, 1 },
  { 0, 0, 1, 3 },
  { 0, 0, 1, -7 },
  { 1, -1, -4, -6 },
  { 0, 0, -6, -4 },
  { 1, -1, 1, 2 },
  { 0, 1, -1, -16 },
  { 1, -1, -7, -11 },
  { 0, 1, 1, 71 },
  { 1, 1, 1, 42 },
  { 1, 1, 1, 34 },
  { 1, 0, 1, 12 },
  { 1, 0, 1, 9 },
  { 0, 1, 1, 7 },
  { 0, 1, 1, 4 },
  { 0, 0, 1, 2 },
  { 1, 0, -263, -151 },
  { 0, 0, -264, -265 },
  { 0, 1, 1, -5 },
  { 1, 0, -4, -6 },
  { 1, -1, -1, -9 },
  { 2, 0, -4, 1 },
  { 0, -1, -15, -11 },
  { 1, 0, 1, 7 },
  { 0, -1, -6, 1 },
  { 2, 0, 1, 3 },
  { 1, 0, -1, 1 },
  { 1, 0, -266, -177 },
  { 2, 2, 1, -17 },
  { 0, 0, -2, -267 },
  { 0, 0, 1, 7 },
  { 0, 0, 1, 4 },
  { 1, 0, 1, 2 },
  { 0, 0, -268, -269 },
  { 1, 1, -270, -271 },
  { 2, 1, -1, 1 },
  { 0, 0, -16, -9 },
  { 0, 0, 1, 4 },
  { 2, 0, 1, 2 },
  { 1, 1, -197, -1 },
  { 0, 0, -272, -24 },
  { 0, 1, 1, 2 },
  { 0, 1, -273, -269 },
  { 0, 1, -274, -275 },
  { 2, -1, -6, 1 },
  { 2, 0, 1, -14 },
  { 0, -1, -16, 1 },
  { 0, 0, 1, -1 },
  { 1, 1, 1, 2 },
  { 2, -1, -104, -2 },
  { 0, 0, -276, -7 },
  { 1, 2, 1, 14 },
  { 0, 0, 1, 2 },
  { 0, 0, -1, -7 },
  { 2, -1, 1, 7 },
  { 1, 1, 1, 2 },
  { 0, 0, -7, -4 },
  { 1, 1, 1, 2 },
  { 1, 1, -14, -15 },
  { 1, 2, 1, -14 },
  { 0, 0, -6, -4 },
  { 1, 1, 1, 2 },
  { 2, 0, -15, -7 },
  { 0, 0, -7, 1 },
  { 1, 2, -5, -17 },
  { 2, -1, 1, -1 },
  { 0, 0, 1, 8 },
  { 1, 2, 1, -15 },
  { 1, 2, 1, 3 },
  { 1, 2, -6, 1 },
  { 1, 2, -7, -15 },
  { 0, 0, 1, 2 },
  { 2, -1, -5, -60 },
  { 0, 0, -142, -277 },
  { 0, 0, 1, 2 },
  { 1, 2, -14, -4 },
  { 0, 1, 1, -14 },
  { 0, 0, 1, -7 },
  { 1, 2, -7, -179 },
  { 1, 0, 1, 7 },
  { 2, 0, 1, 4 },
  { 1, 0, -9, 1 },
  { 0, 2, -5, 1 },
  { 1, 0, -4, -15 },
  { 0, 2, 1, -11 },
  { 0, 1, -6, -4 },
  { 2, 1, -5, -17 },
  { 1, 0, 1, 59 },
  { 0, 1, 1, 53 },
  { 1, -1, 1, 22 },
  { 1, -1, 1, 20 },
  { 0, -1, 1, 6 },
  { 1, -1, 1, 2 },
  { 1, -1, -7, -1 },
  { 1, -1, 1, 2 },
  { 2, 0, -5, -15 },
  { 2, 0, -7, -5 },
  { 2, 1, 1, 8 },
  { 1, -1, 1, 6 },
  { 2, 0, 1, 3 },
  { 1, -2, -4, 1 },
  { 1, -1, -65, -6 },
  { 0, 1, 1, -1 },
  { 1, -1, -278, -279 },
  { 2, 0, -9, -5 },
  { 0, 0, -15, 1 },
  { 0, 0, -1, 1 },
  { 2, 1, 1, 2 },
  { 0, 1, -221, -5 },
  { 0, 1, -11, -7 },
  { 2, 1, -4, -15 },
  { 1, -1, 1, 15 },
  { 0, 1, 1, -4 },
  { 0, 0, 1, 8 },
  { 0, 0, 1, 6 },
  { 1, -1, 1, 3 },
  { 2, 0, 1, -7 },
  { 2, 0, -1, -9 },
  { 2, 0, 1, -15 },
  { 0, -1, -7, -5 },
  { 2, 1, -11, -15 },
  { 2, 0, 1, 2 },
  { 1, -1, -1, -11 },
  { 0, 0, 1, 2 },
  { 0, 0, -9, -16 },
  { 1, -1, -1, -16 },
  { 2, 1, 1, 14 },
  { 1, 0, 1, -4 },
  { 2, 0, 1, 6 },
  { 0, 0, 1, 4 },
  { 0, 0, 1, 2 },
  { 0, 0, -280, -4 },
  { 0, 0, -203, -5 },
  { 2, 0, -5, -6 },
  { 0, 0, 1, 4 },
  { 1, -1, 1, 2 },
  { 1, -1, -6, -4 },
  { 1, -1, -281, -282 },
  { 0, 0, -1, 1 },
  { 2, 0, -135, -283 },
  { 1, -1, -9, -1 },
  { 0, 1, 1, 3 },
  { 1, -1, 1, -9 },
  { 1, -1, -16, -1 },
  { 2, 1, -5, 1 },
  { 0, 2, -6, -4 },
  { 0, 1, 1, 111 },
  { 2, 0, 1, 52 },
  { 0, -1, 1, 12 },
  { 2, 0, 1, 2 },
  { 0, -1, -7, -9 },
  { 0, -2, 1, 2 },
  { 2, 0, -5, -9 },
  { 1, 0, 1, 5 },
  { 0, -1, 1, 2 },
  { 0, -1, -11, -17 },
  { 1, 0, 1, -11 },
  { 0, -1, -6, -284 },
  { 0, -1, 1, -6 },
  { 0, -2, -15, -14 },
  { 0, -1, 1, 16 },
  { 1, 0, 1, 6 },
  { 1, 0, 1, -14 },
  { 0, -1, 1, 3 },
  { 1, 0, -11, 1 },
  { 0, -1, -17, -5 },
  { 1, 0, -16, -5 },
  { 1, 0, 1, 6 },
  { 0, -1, 1, 4 },
  { 1, 0, 1, 2 },
  { 1, 0, -64, -17 },
  { 1, 0, -16, -9 },
  { 2, 0, -17, -16 },
  { 2, -1, -14, 1 },
  { 1, 1, 1, -16 },
  { 0, -1, -285, -7 },
  { 0, -1, 1, 11 },
  { 1, 0, 1, 7 },
  { 2, 0, 1, 3 },
  { 0, -1, 1, -4 },
  { 2, -1, -6, -286 },
  { 1, 0, 1, 2 },
  { 1, 0, -5, -4 },
  { 1, 0, -287, -288 },
  { 2, 0, 1, -9 },
  { 1, 1, 1, -11 },
  { 1, 0, -7, -17 },
  { 1, 2, 1, 8 },
  { 1, 1, 1, 4 },
  { 0, 1, 1, 2 },
  { 0, 1, -289, -290 },
  { 1, 1, -291, -4 },
  { 1, 2, 1, 2 },
  { 0, 0, -1, -292 },
  { 0, 0, -211, -293 },
  { 0, 0, 1, 3 },
  { 2, -1, -1, 1 },
  { 1, 2, -16, -9 },
  { 1, 2, -17, -16 },
  { 1, 0, 1, 21 },
  { 0, 0, 1, 10 },
  { 0, -1, -16, 1 },
  { 1, 0, 1, 6 },
  { 1, 0, 1, 4 },
  { 1, 0, 1, 2 },
  { 0, 0, -294, -5 },
  { 0, 0, -101, -102 },
  { 2, 0, -11, -15 },
  { 0, -1, -7, 1 },
  { 2, 0, -16, -1 },
  { 0, 1, 1, 7 },
  { 0, 0, 1, 5 },
  { 2, 0, -5, 1 },
  { 1, 0, 1, 2 },
  { 0, 0, -16, -1 },
  { 1, 0, -5, -1 },
  { 2, 1, -16, -9 },
  { 1, 0, -16, 1 },
  { 2, 1, 1, -7 },
  { 2, 1, -5, -17 },
  { 1, 0, 1, 21 },
  { 0, 1, 1, 16 },
  { 1, 0, 1, 8 },
  { 2, 0, 1, 4 },
  { 0, 0, 1, 2 },
  { 1, 0, -295, -296 },
  { 1, 0, -297, -91 },
  { 1, 0, 1, 2 },
  { 1, 0, -298, -135 },
  { 0, 0, -90, -299 },
  { 0, 0, 1, 4 },
  { 0, 0, 1, 2 },
  { 1, 0, -101, -300 },
  { 1, 0, -17, -301 },
  { 0, 0, 1, 2 },
  { 1, 0, -104, -302 },
  { 1, 0, -74, -17 },
  { 0, 1, 1, -7 },
  { 2, 1, 1, -7 },
  { 1, 0, -17, 1 },
  { 1, 0, -82, -1 },
  { 2, 1, 1, 10 },
  { 0, 0, 1, 3 },
  { 0, 0, 1, -9 },
  { 0, 0, -17, -7 },
  { 0, 0, 1, 3 },
  { 0, 0, 1, -15 },
  { 1, 0, -86, -295 },
  { 0, 0, 1, 2 },
  { 0, 0, -303, -9 },
  { 1, 0, -38, -304 },
  { 2, 1, 1, 5 },
  { 0, 0, -7, 1 },
  { 1, 0, 1, 2 },
  { 0, 1, -305, -7 },
  { 1, 1, -9, -17 },
  { 1, 0, -9, -16 },
  { 2, 1, 1, 5 },
  { 1, 0, -4, 1 },
  { 0, 2, 1, -5 },
  { 1, 0, -5, 1 },
  { 2, 0, -15, -4 },
  { 0, 2, -7, -17 } 
};

static const int32_t seoul_blossom_model_tree_roots[10] = { 0, 189, 372, 592, 746, 927, 1020, 1136, 1401, 1509 };

static const uint8_t seoul_blossom_model_leaves[1220] = { 0, 0, 174, 66, 85, 85, 185, 66, 0, 0, 183, 66, 0, 0, 212, 66, 0, 0, 186, 66, 0, 0, 210, 66, 0, 0, 184, 66, 171, 170, 208, 66, 0, 0, 166, 66, 37, 73, 193, 66, 0, 0, 192, 66, 85, 85, 177, 66, 0, 128, 185, 66, 0, 0, 206, 66, 0, 0, 204, 66, 0, 0, 168, 66, 0, 0, 188, 66, 171, 170, 188, 66, 0, 64, 183, 66, 85, 85, 209, 66, 0, 0, 190, 66, 51, 51, 185, 66, 171, 170, 182, 66, 85, 85, 199, 66, 219, 129, 187, 66, 0, 128, 196, 66, 23, 93, 202, 66, 0, 0, 189, 66, 73, 146, 173, 66, 228, 56, 182, 66, 100, 82, 182, 66, 177, 246, 189, 66, 51, 51, 179, 66, 51, 51, 182, 66, 171, 170, 195, 66, 28, 199, 191, 66, 102, 102, 179, 66, 0, 0, 178, 66, 73, 146, 186, 66, 0, 0, 209, 66, 171, 170, 168, 66, 243, 26, 184, 66, 60, 60, 187, 66, 122, 211, 199, 66, 0, 0, 195, 66, 146, 36, 207, 66, 189, 134, 186, 66, 0, 0, 179, 66, 85, 85, 183, 66, 154, 153, 189, 66, 0, 128, 207, 66, 0, 0, 175, 66, 0, 0, 187, 66, 197, 78, 206, 66, 85, 85, 197, 66, 133, 246, 188, 66, 205, 204, 206, 66, 57, 142, 191, 66, 102, 102, 190, 66, 171, 170, 184, 66, 140, 46, 200, 66, 0, 128, 182, 66, 171, 170, 171, 66, 0, 0, 167, 66, 0, 128, 186, 66, 171, 170, 174, 66, 0, 0, 197, 66, 85, 85, 186, 66, 0, 128, 205, 66, 171, 170, 186, 66, 0, 192, 181, 66, 0, 160, 187, 66, 85, 85, 167, 66, 0, 0, 208, 66, 133, 235, 175, 66, 241, 228, 186, 66, 140, 46, 180, 66, 123, 148, 188, 66, 161, 59, 186, 66, 0, 0, 194, 66, 243, 26, 182, 66, 0, 128, 169, 66, 154, 153, 171, 66, 93, 116, 189, 66, 177, 19, 177, 66, 114, 28, 187, 66, 142, 227, 192, 66, 0, 128, 199, 66, 142, 227, 196, 66, 205, 204, 186, 66, 0, 0, 205, 66, 110, 219, 196, 66, 85, 85, 191, 66, 0, 128, 204, 66, 197, 78, 180, 66, 0, 0, 199, 66, 23, 93, 187, 66, 85, 85, 205, 66, 0, 128, 202, 66, 134, 97, 180, 66, 0, 0, 196, 66, 73, 146, 176, 66, 137, 136, 192, 66, 0, 0, 182, 66, 102, 102, 208, 66, 37, 73, 185, 66, 85, 85, 171, 66, 171, 170, 194, 66, 0, 0, 180, 66, 115, 79, 195, 66, 205, 204, 204, 66, 85, 85, 194, 66, 88, 124, 189, 66, 198, 24, 181, 66, 37, 201, 186, 66, 85, 85, 179, 66, 171, 170, 192, 66, 234, 77, 191, 66, 37, 73, 180, 66, 0, 64, 206, 66, 51, 51, 197, 66, 85, 85, 172, 66, 162, 188, 186, 66, 205, 204, 208, 66, 51, 51, 192, 66, 205, 204, 182, 66, 20, 59, 199, 66, 110, 219, 186, 66, 0, 64, 174, 66, 197, 78, 172, 66, 154, 153, 181, 66, 211, 155, 190, 66, 0, 128, 172, 66, 183, 109, 185, 66, 0, 0, 198, 66, 228, 56, 176, 66, 0, 0, 201, 66, 30, 30, 170, 66, 154, 153, 185, 66, 231, 99, 196, 66, 28, 199, 181, 66, 171, 170, 172, 66, 37, 73, 184, 66, 23, 93, 189, 66, 79, 236, 186, 66, 217, 231, 178, 66, 51, 51, 183, 66, 0, 0, 207, 66, 0, 224, 187, 66, 158, 88, 195, 66, 0, 0, 170, 66, 51, 51, 169, 66, 102, 102, 188, 66, 171, 170, 206, 66, 93, 52, 187, 66, 171, 42, 186, 66, 57, 142, 197, 66, 93, 116, 177, 66, 23, 93, 185, 66, 0, 0, 211, 66, 116, 81, 189, 66, 42, 103, 195, 66, 56, 189, 182, 66, 37, 73, 191, 66, 102, 102, 168, 66, 85, 85, 201, 66, 80, 250, 184, 66, 205, 204, 191, 66, 194, 114, 181, 66, 0, 128, 203, 66, 209, 94, 188, 66, 239, 238, 188, 66, 102, 102, 186, 66, 28, 199, 193, 66, 197, 78, 182, 66, 131, 190, 186, 66, 0, 0, 176, 66, 206, 57, 185, 66, 0, 128, 189, 66, 97, 138, 193, 66, 51, 51, 211, 66, 0, 32, 182, 66, 248, 224, 189, 66, 60, 60, 188, 66, 0, 0, 200, 66, 171, 170, 187, 66, 154, 153, 175, 66, 7, 246, 182, 66, 185, 113, 187, 66, 70, 23, 175, 66, 140, 46, 189, 66, 154, 153, 174, 66, 219, 182, 197, 66, 205, 204, 166, 66, 18, 150, 183, 66, 183, 109, 189, 66, 0, 128, 187, 66, 51, 51, 184, 66, 236, 81, 190, 66, 74, 136, 184, 66, 45, 100, 192, 66, 0, 192, 191, 66, 73, 146, 178, 66, 78, 111, 174, 66, 222, 221, 182, 66, 59, 177, 191, 66, 204, 167, 192, 66, 27, 202, 185, 66, 177, 19, 183, 66, 226, 225, 197, 66, 0, 0, 181, 66, 163, 169, 185, 66, 114, 28, 167, 66, 154, 153, 207, 66, 85, 213, 183, 66, 48, 69, 194, 66, 45, 100, 177, 66, 217, 105, 184, 66, 116, 209, 187, 66, 47, 186, 196, 66, 0, 128, 184, 66, 130, 231, 187, 66, 177, 19, 203, 66, 45, 45, 177, 66, 122, 211, 195, 66, 136, 135, 185, 66, 0, 64, 187, 66, 239, 189, 185, 66, 54, 59, 192, 66, 205, 204, 172, 66, 171, 170, 166, 66, 209, 69, 183, 66, 156, 143, 189, 66, 70, 23, 187, 66, 233, 162, 203, 66, 0, 220, 194, 66, 15, 15, 184, 66, 54, 171, 187, 66, 114, 28, 181, 66, 0, 64, 181, 66, 0, 128, 188, 66, 31, 133, 203, 66, 110, 219, 194, 66, 93, 116, 185, 66, 229, 53, 180, 66, 146, 36, 172, 66, 138, 157, 194, 66, 102, 102, 180, 66, 85, 213, 186, 66, 199, 113, 172, 66, 181, 180, 188, 66, 219, 246, 191, 66, 51, 51, 181, 66, 46, 216, 188, 66, 175, 161, 176, 66, 175, 161, 182, 66, 209, 69, 188, 66, 110, 91, 186, 66, 171, 170, 191, 66, 183, 109, 183, 66, 154, 153, 183, 66, 0, 128, 177, 66, 209, 111, 188, 66, 227, 43, 197, 66, 48, 253, 186, 66, 209, 69, 186, 66, 171, 42, 171, 66, 235, 104, 188, 66, 0, 0, 202, 66, 21, 172, 184, 66, 66, 17, 190, 66, 154, 153, 206, 66, 15, 234, 188, 66, 85, 85, 174, 66, 140, 46, 186, 66, 0, 0, 171, 66, 85, 85, 182, 66, 51, 51, 191, 66, 140, 46, 206, 66, 105, 105, 186, 66, 196, 195, 185, 66, 49, 185, 194, 66, 33, 11, 189, 66, 51, 51, 205, 66, 85, 85, 187, 66, 28, 199, 205, 66, 199, 113, 186, 66, 163, 139, 198, 66, 167, 190, 186, 66, 171, 170, 180, 66, 0, 128, 192, 66, 34, 34, 204, 66, 177, 19, 195, 66, 154, 153, 199, 66, 0, 0, 193, 66, 0, 192, 176, 66, 102, 102, 192, 66, 0, 0, 185, 66, 0, 32, 174, 66, 233, 162, 184, 66, 0, 0, 172, 66, 136, 135, 201, 66, 183, 109, 175, 66, 171, 170, 183, 66, 199, 113, 206, 66 };

EmlTrees seoul_blossom_model = {
        1685,
        (EmlTreesNode *)(seoul_blossom_model_nodes),	  
        10,
        (int32_t *)(seoul_blossom_model_tree_roots),
        1220,
        (uint8_t *)(seoul_blossom_model_leaves),
        32,
        3,
        0,
    };

static inline int32_t seoul_blossom_model_tree_0(const int16_t *features, int32_t features_length) {
          if (features[1] < 0) {
              if (features[2] < 1) {
                  if (features[2] < 0) {
                      if (features[0] < 1) {
                          if (features[1] < 0) {
                              if (features[1] < 0) {
                                  if (features[2] < 0) {
                                      if (features[0] < 0) {
                                          if (features[1] < 0) {
                                              if (features[1] < -1) {
                                                  return 92.666667f;
                                              } else {
                                                  return 91.500000f;
                                              }
                                          } else {
                                              return 87.000000f;
                                          }
                                      } else {
                                          if (features[0] < 0) {
                                              return 106.000000f;
                                          } else {
                                              return 93.000000f;
                                          }
                                      }
                                  } else {
                                      if (features[0] < -1) {
                                          if (features[2] < 0) {
                                              return 105.000000f;
                                          } else {
                                              if (features[1] < 0) {
                                                  return 92.000000f;
                                              } else {
                                                  return 104.333333f;
                                              }
                                          }
                                      } else {
                                          if (features[0] < -1) {
                                              return 83.000000f;
                                          } else {
                                              if (features[0] < -1) {
                                                  return 106.000000f;
                                              } else {
                                                  return 96.642857f;
                                              }
                                          }
                                      }
                                  }
                              } else {
                                  if (features[1] < 0) {
                                      return 83.000000f;
                                  } else {
                                      if (features[0] < -1) {
                                          return 83.000000f;
                                      } else {
                                          if (features[0] < -1) {
                                              return 96.000000f;
                                          } else {
                                              if (features[0] < 0) {
                                                  return 88.666667f;
                                              } else {
                                                  return 92.750000f;
                                              }
                                          }
                                      }
                                  }
                              }
                          } else {
                              if (features[2] < 0) {
                                  return 105.000000f;
                              } else {
                                  if (features[0] < -1) {
                                      if (features[0] < -2) {
                                          return 106.000000f;
                                      } else {
                                          if (features[0] < -1) {
                                              return 103.000000f;
                                          } else {
                                              return 102.000000f;
                                          }
                                      }
                                  } else {
                                      return 96.000000f;
                                  }
                              }
                          }
                      } else {
                          if (features[0] < 1) {
                              if (features[2] < 0) {
                                  if (features[1] < 0) {
                                      return 84.000000f;
                                  } else {
                                      return 83.000000f;
                                  }
                              } else {
                                  return 93.000000f;
                              }
                          } else {
                              return 83.000000f;
                          }
                      }
                  } else {
                      if (features[0] < 1) {
                          if (features[0] < 0) {
                              if (features[0] < 0) {
                                  if (features[0] < 0) {
                                      if (features[0] < -1) {
                                          if (features[1] < -1) {
                                              return 93.000000f;
                                          } else {
                                              return 94.000000f;
                                          }
                                      } else {
                                          if (features[0] < 0) {
                                              return 103.000000f;
                                          } else {
                                              return 106.000000f;
                                          }
                                      }
                                  } else {
                                      if (features[0] < 0) {
                                          return 84.000000f;
                                      } else {
                                          return 93.000000f;
                                      }
                                  }
                              } else {
                                  if (features[1] < 0) {
                                      if (features[0] < 0) {
                                          if (features[1] < -1) {
                                              if (features[0] < 0) {
                                                  return 103.000000f;
                                              } else {
                                                  return 102.000000f;
                                              }
                                          } else {
                                              if (features[1] < -1) {
                                                  return 94.000000f;
                                              } else {
                                                  return 103.000000f;
                                              }
                                          }
                                      } else {
                                          if (features[0] < 0) {
                                              return 106.000000f;
                                          } else {
                                              return 105.000000f;
                                          }
                                      }
                                  } else {
                                      return 84.000000f;
                                  }
                              }
                          } else {
                              if (features[1] < 0) {
                                  if (features[1] < -1) {
                                      if (features[1] < -1) {
                                          if (features[1] < -1) {
                                              if (features[0] < 0) {
                                                  return 83.000000f;
                                              } else {
                                                  return 87.000000f;
                                              }
                                          } else {
                                              if (features[1] < -1) {
                                                  return 96.000000f;
                                              } else {
                                                  return 92.000000f;
                                              }
                                          }
                                      } else {
                                          return 105.000000f;
                                      }
                                  } else {
                                      if (features[0] < 1) {
                                          if (features[0] < 0) {
                                              return 84.000000f;
                                          } else {
                                              return 93.000000f;
                                          }
                                      } else {
                                          if (features[1] < 0) {
                                              return 84.000000f;
                                          } else {
                                              return 87.000000f;
                                          }
                                      }
                                  }
                              } else {
                                  return 105.000000f;
                              }
                          }
                      } else {
                          if (features[0] < 1) {
                              return 106.000000f;
                          } else {
                              if (features[1] < -1) {
                                  return 106.000000f;
                              } else {
                                  return 105.000000f;
                              }
                          }
                      }
                  }
              } else {
                  if (features[1] < 0) {
                      if (features[0] < 1) {
                          if (features[0] < 0) {
                              if (features[0] < 0) {
                                  if (features[0] < 0) {
                                      return 103.000000f;
                                  } else {
                                      if (features[0] < 0) {
                                          return 84.000000f;
                                      } else {
                                          if (features[1] < -1) {
                                              return 87.000000f;
                                          } else {
                                              if (features[1] < -1) {
                                                  return 102.000000f;
                                              } else {
                                                  return 94.333333f;
                                              }
                                          }
                                      }
                                  }
                              } else {
                                  if (features[0] < 0) {
                                      return 87.000000f;
                                  } else {
                                      if (features[1] < -1) {
                                          return 87.000000f;
                                      } else {
                                          return 84.000000f;
                                      }
                                  }
                              }
                          } else {
                              if (features[0] < 0) {
                                  if (features[1] < 0) {
                                      return 103.000000f;
                                  } else {
                                      if (features[0] < 0) {
                                          return 94.000000f;
                                      } else {
                                          return 103.000000f;
                                      }
                                  }
                              } else {
                                  if (features[1] < 0) {
                                      if (features[0] < 1) {
                                          if (features[1] < -1) {
                                              if (features[0] < 0) {
                                                  return 96.000000f;
                                              } else {
                                                  return 103.000000f;
                                              }
                                          } else {
                                              if (features[2] < 1) {
                                                  return 87.000000f;
                                              } else {
                                                  return 91.625000f;
                                              }
                                          }
                                      } else {
                                          if (features[0] < 1) {
                                              if (features[2] < 1) {
                                                  return 104.666667f;
                                              } else {
                                                  return 83.000000f;
                                              }
                                          } else {
                                              if (features[0] < 1) {
                                                  return 95.000000f;
                                              } else {
                                                  return 92.600000f;
                                              }
                                          }
                                      }
                                  } else {
                                      if (features[1] < 0) {
                                          return 84.000000f;
                                      } else {
                                          if (features[0] < 0) {
                                              return 93.000000f;
                                          } else {
                                              return 96.000000f;
                                          }
                                      }
                                  }
                              }
                          }
                      } else {
                          if (features[1] < -1) {
                              if (features[2] < 1) {
                                  if (features[1] < -1) {
                                      return 84.000000f;
                                  } else {
                                      return 83.000000f;
                                  }
                              } else {
                                  return 93.000000f;
                              }
                          } else {
                              if (features[1] < -1) {
                                  return 106.000000f;
                              } else {
                                  if (features[1] < -1) {
                                      return 93.000000f;
                                  } else {
                                      if (features[1] < 0) {
                                          if (features[2] < 1) {
                                              return 84.000000f;
                                          } else {
                                              return 87.000000f;
                                          }
                                      } else {
                                          return 92.000000f;
                                      }
                                  }
                              }
                          }
                      }
                  } else {
                      if (features[0] < 1) {
                          if (features[1] < 0) {
                              return 102.000000f;
                          } else {
                              if (features[0] < 0) {
                                  return 103.000000f;
                              } else {
                                  return 105.000000f;
                              }
                          }
                      } else {
                          return 94.000000f;
                      }
                  }
              }
          } else {
              if (features[0] < 0) {
                  if (features[0] < 0) {
                      if (features[1] < 2) {
                          if (features[1] < 1) {
                              if (features[1] < 1) {
                                  if (features[0] < 0) {
                                      if (features[0] < -2) {
                                          if (features[1] < 0) {
                                              if (features[0] < -2) {
                                                  return 83.000000f;
                                              } else {
                                                  return 84.000000f;
                                              }
                                          } else {
                                              return 92.000000f;
                                          }
                                      } else {
                                          if (features[0] < -1) {
                                              if (features[2] < 0) {
                                                  return 91.333333f;
                                              } else {
                                                  return 99.666667f;
                                              }
                                          } else {
                                              if (features[1] < 0) {
                                                  return 93.753623f;
                                              } else {
                                                  return 98.250000f;
                                              }
                                          }
                                      }
                                  } else {
                                      if (features[2] < -1) {
                                          if (features[1] < 0) {
                                              if (features[0] < 0) {
                                                  return 92.000000f;
                                              } else {
                                                  return 87.000000f;
                                              }
                                          } else {
                                              if (features[1] < 0) {
                                                  return 101.181818f;
                                              } else {
                                                  return 94.500000f;
                                              }
                                          }
                                      } else {
                                          if (features[0] < 0) {
                                              if (features[1] < 0) {
                                                  return 86.785714f;
                                              } else {
                                                  return 91.111111f;
                                              }
                                          } else {
                                              if (features[2] < 0) {
                                                  return 91.160920f;
                                              } else {
                                                  return 94.981818f;
                                              }
                                          }
                                      }
                                  }
                              } else {
                                  if (features[2] < -1) {
                                      return 105.000000f;
                                  } else {
                                      if (features[1] < 1) {
                                          if (features[2] < -1) {
                                              return 87.000000f;
                                          } else {
                                              if (features[2] < -1) {
                                                  return 84.000000f;
                                              } else {
                                                  return 83.000000f;
                                              }
                                          }
                                      } else {
                                          if (features[1] < 1) {
                                              if (features[0] < 0) {
                                                  return 89.600000f;
                                              } else {
                                                  return 83.000000f;
                                              }
                                          } else {
                                              return 92.000000f;
                                          }
                                      }
                                  }
                              }
                          } else {
                              if (features[1] < 2) {
                                  if (features[2] < -1) {
                                      if (features[0] < 0) {
                                          return 102.000000f;
                                      } else {
                                          if (features[1] < 1) {
                                              return 106.000000f;
                                          } else {
                                              if (features[1] < 2) {
                                                  return 105.000000f;
                                              } else {
                                                  return 104.333333f;
                                              }
                                          }
                                      }
                                  } else {
                                      if (features[0] < 0) {
                                          return 102.000000f;
                                      } else {
                                          if (features[1] < 2) {
                                              if (features[1] < 2) {
                                                  return 92.000000f;
                                              } else {
                                                  return 94.000000f;
                                              }
                                          } else {
                                              return 87.000000f;
                                          }
                                      }
                                  }
                              } else {
                                  if (features[2] < -1) {
                                      return 92.000000f;
                                  } else {
                                      return 93.000000f;
                                  }
                              }
                          }
                      } else {
                          if (features[1] < 2) {
                              if (features[0] < 0) {
                                  return 83.000000f;
                              } else {
                                  return 84.000000f;
                              }
                          } else {
                              return 84.000000f;
                          }
                      }
                  } else {
                      if (features[0] < 0) {
                          if (features[0] < 0) {
                              if (features[2] < 1) {
                                  if (features[2] < 1) {
                                      if (features[2] < -1) {
                                          if (features[1] < 2) {
                                              if (features[1] < 1) {
                                                  return 91.100000f;
                                              } else {
                                                  return 97.833333f;
                                              }
                                          } else {
                                              return 83.000000f;
                                          }
                                      } else {
                                          if (features[1] < 0) {
                                              if (features[0] < 0) {
                                                  return 95.888889f;
                                              } else {
                                                  return 89.700000f;
                                              }
                                          } else {
                                              if (features[1] < 0) {
                                                  return 84.000000f;
                                              } else {
                                                  return 89.000000f;
                                              }
                                          }
                                      }
                                  } else {
                                      if (features[1] < 0) {
                                          if (features[1] < 0) {
                                              return 83.000000f;
                                          } else {
                                              if (features[0] < 0) {
                                                  return 84.000000f;
                                              } else {
                                                  return 83.000000f;
                                              }
                                          }
                                      } else {
                                          if (features[0] < 0) {
                                              if (features[1] < 0) {
                                                  return 93.285714f;
                                              } else {
                                                  return 83.000000f;
                                              }
                                          } else {
                                              if (features[0] < 0) {
                                                  return 103.000000f;
                                              } else {
                                                  return 87.000000f;
                                              }
                                          }
                                      }
                                  }
                              } else {
                                  if (features[1] < 0) {
                                      if (features[0] < 0) {
                                          return 84.000000f;
                                      } else {
                                          return 87.000000f;
                                      }
                                  } else {
                                      if (features[0] < 0) {
                                          return 83.000000f;
                                      } else {
                                          return 84.000000f;
                                      }
                                  }
                              }
                          } else {
                              if (features[0] < 0) {
                                  if (features[1] < 0) {
                                      if (features[0] < 0) {
                                          if (features[0] < 0) {
                                              return 102.000000f;
                                          } else {
                                              return 106.000000f;
                                          }
                                      } else {
                                          if (features[1] < 0) {
                                              if (features[1] < 0) {
                                                  return 94.500000f;
                                              } else {
                                                  return 93.000000f;
                                              }
                                          } else {
                                              return 103.000000f;
                                          }
                                      }
                                  } else {
                                      if (features[0] < 0) {
                                          if (features[0] < 0) {
                                              return 93.000000f;
                                          } else {
                                              if (features[2] < 0) {
                                                  return 93.000000f;
                                              } else {
                                                  return 87.000000f;
                                              }
                                          }
                                      } else {
                                          return 103.000000f;
                                      }
                                  }
                              } else {
                                  if (features[1] < 0) {
                                      if (features[1] < 0) {
                                          return 83.000000f;
                                      } else {
                                          return 84.000000f;
                                      }
                                  } else {
                                      return 96.000000f;
                                  }
                              }
                          }
                      } else {
                          if (features[1] < 0) {
                              if (features[1] < 0) {
                                  return 84.000000f;
                              } else {
                                  return 87.000000f;
                              }
                          } else {
                              return 83.000000f;
                          }
                      }
                  }
              } else {
                  if (features[0] < 0) {
                      if (features[1] < 0) {
                          if (features[2] < 1) {
                              if (features[2] < 0) {
                                  return 96.000000f;
                              } else {
                                  return 93.000000f;
                              }
                          } else {
                              return 103.000000f;
                          }
                      } else {
                          if (features[2] < 0) {
                              if (features[1] < 1) {
                                  return 102.000000f;
                              } else {
                                  return 103.000000f;
                              }
                          } else {
                              return 105.000000f;
                          }
                      }
                  } else {
                      if (features[0] < 1) {
                          if (features[0] < 0) {
                              if (features[2] < -1) {
                                  return 92.000000f;
                              } else {
                                  return 102.000000f;
                              }
                          } else {
                              if (features[1] < 1) {
                                  if (features[2] < 0) {
                                      return 84.000000f;
                                  } else {
                                      return 83.000000f;
                                  }
                              } else {
                                  return 87.000000f;
                              }
                          }
                      } else {
                          if (features[0] < 2) {
                              if (features[1] < 0) {
                                  if (features[0] < 1) {
                                      if (features[2] < 0) {
                                          if (features[0] < 1) {
                                              if (features[2] < 0) {
                                                  return 96.000000f;
                                              } else {
                                                  return 93.000000f;
                                              }
                                          } else {
                                              if (features[1] < 0) {
                                                  return 104.500000f;
                                              } else {
                                                  return 102.000000f;
                                              }
                                          }
                                      } else {
                                          if (features[1] < 0) {
                                              if (features[2] < 1) {
                                                  return 92.000000f;
                                              } else {
                                                  return 94.000000f;
                                              }
                                          } else {
                                              if (features[1] < 0) {
                                                  return 87.000000f;
                                              } else {
                                                  return 84.000000f;
                                              }
                                          }
                                      }
                                  } else {
                                      if (features[0] < 1) {
                                          if (features[0] < 1) {
                                              if (features[0] < 1) {
                                                  return 84.333333f;
                                              } else {
                                                  return 92.052632f;
                                              }
                                          } else {
                                              if (features[2] < 0) {
                                                  return 84.000000f;
                                              } else {
                                                  return 87.000000f;
                                              }
                                          }
                                      } else {
                                          if (features[1] < 0) {
                                              if (features[0] < 1) {
                                                  return 102.000000f;
                                              } else {
                                                  return 106.000000f;
                                              }
                                          } else {
                                              return 92.000000f;
                                          }
                                      }
                                  }
                              } else {
                                  if (features[1] < 0) {
                                      if (features[1] < 0) {
                                          return 102.000000f;
                                      } else {
                                          return 105.000000f;
                                      }
                                  } else {
                                      if (features[1] < 1) {
                                          if (features[1] < 0) {
                                              if (features[1] < 0) {
                                                  return 93.617647f;
                                              } else {
                                                  return 99.913043f;
                                              }
                                          } else {
                                              if (features[2] < 1) {
                                                  return 92.600000f;
                                              } else {
                                                  return 97.500000f;
                                              }
                                          }
                                      } else {
                                          if (features[1] < 2) {
                                              if (features[0] < 1) {
                                                  return 103.571429f;
                                              } else {
                                                  return 94.000000f;
                                              }
                                          } else {
                                              if (features[1] < 2) {
                                                  return 87.000000f;
                                              } else {
                                                  return 93.000000f;
                                              }
                                          }
                                      }
                                  }
                              }
                          } else {
                              return 106.000000f;
                          }
                      }
                  }
              }
          }
        }
        

static inline int32_t seoul_blossom_model_tree_1(const int16_t *features, int32_t features_length) {
          if (features[1] < 0) {
              if (features[0] < 0) {
                  if (features[0] < 0) {
                      if (features[1] < -1) {
                          if (features[1] < -2) {
                              return 106.000000f;
                          } else {
                              return 103.000000f;
                          }
                      } else {
                          if (features[1] < -1) {
                              return 87.000000f;
                          } else {
                              if (features[2] < 0) {
                                  if (features[1] < -1) {
                                      return 106.000000f;
                                  } else {
                                      if (features[1] < -1) {
                                          if (features[0] < 0) {
                                              if (features[0] < 0) {
                                                  return 93.263158f;
                                              } else {
                                                  return 87.000000f;
                                              }
                                          } else {
                                              if (features[0] < 0) {
                                                  return 106.000000f;
                                              } else {
                                                  return 89.500000f;
                                              }
                                          }
                                      } else {
                                          if (features[0] < -1) {
                                              if (features[0] < -1) {
                                                  return 91.666667f;
                                              } else {
                                                  return 87.000000f;
                                              }
                                          } else {
                                              if (features[1] < 0) {
                                                  return 87.000000f;
                                              } else {
                                                  return 93.285714f;
                                              }
                                          }
                                      }
                                  }
                              } else {
                                  if (features[0] < 0) {
                                      if (features[1] < -1) {
                                          if (features[1] < -1) {
                                              if (features[1] < -1) {
                                                  return 94.800000f;
                                              } else {
                                                  return 103.750000f;
                                              }
                                          } else {
                                              if (features[0] < -1) {
                                                  return 87.500000f;
                                              } else {
                                                  return 93.500000f;
                                              }
                                          }
                                      } else {
                                          if (features[2] < 0) {
                                              if (features[0] < -1) {
                                                  return 103.153846f;
                                              } else {
                                                  return 98.666667f;
                                              }
                                          } else {
                                              if (features[0] < 0) {
                                                  return 93.000000f;
                                              } else {
                                                  return 106.000000f;
                                              }
                                          }
                                      }
                                  } else {
                                      if (features[1] < -1) {
                                          if (features[0] < 0) {
                                              return 106.000000f;
                                          } else {
                                              return 105.000000f;
                                          }
                                      } else {
                                          if (features[1] < -1) {
                                              if (features[2] < 0) {
                                                  return 83.000000f;
                                              } else {
                                                  return 92.000000f;
                                              }
                                          } else {
                                              if (features[0] < 0) {
                                                  return 94.481481f;
                                              } else {
                                                  return 84.000000f;
                                              }
                                          }
                                      }
                                  }
                              }
                          }
                      }
                  } else {
                      if (features[1] < -1) {
                          if (features[1] < -1) {
                              return 93.000000f;
                          } else {
                              if (features[1] < -1) {
                                  if (features[2] < 1) {
                                      if (features[0] < 0) {
                                          return 102.000000f;
                                      } else {
                                          if (features[1] < -1) {
                                              return 106.000000f;
                                          } else {
                                              return 105.000000f;
                                          }
                                      }
                                  } else {
                                      return 102.000000f;
                                  }
                              } else {
                                  if (features[0] < 0) {
                                      if (features[0] < 0) {
                                          return 105.000000f;
                                      } else {
                                          return 102.000000f;
                                      }
                                  } else {
                                      return 93.000000f;
                                  }
                              }
                          }
                      } else {
                          if (features[1] < -1) {
                              if (features[1] < -1) {
                                  return 84.000000f;
                              } else {
                                  return 87.000000f;
                              }
                          } else {
                              if (features[1] < -1) {
                                  if (features[0] < 0) {
                                      return 106.000000f;
                                  } else {
                                      return 103.000000f;
                                  }
                              } else {
                                  if (features[2] < 0) {
                                      return 105.000000f;
                                  } else {
                                      if (features[2] < 0) {
                                          if (features[2] < 0) {
                                              return 87.000000f;
                                          } else {
                                              return 92.000000f;
                                          }
                                      } else {
                                          if (features[0] < 0) {
                                              if (features[1] < 0) {
                                                  return 93.000000f;
                                              } else {
                                                  return 87.000000f;
                                              }
                                          } else {
                                              if (features[0] < 0) {
                                                  return 103.400000f;
                                              } else {
                                                  return 95.777778f;
                                              }
                                          }
                                      }
                                  }
                              }
                          }
                      }
                  }
              } else {
                  if (features[0] < 1) {
                      if (features[0] < 1) {
                          if (features[0] < 1) {
                              if (features[2] < 0) {
                                  if (features[0] < 1) {
                                      if (features[0] < 1) {
                                          if (features[0] < 0) {
                                              if (features[1] < -1) {
                                                  return 93.000000f;
                                              } else {
                                                  return 95.200000f;
                                              }
                                          } else {
                                              if (features[1] < -1) {
                                                  return 92.333333f;
                                              } else {
                                                  return 100.090909f;
                                              }
                                          }
                                      } else {
                                          return 87.000000f;
                                      }
                                  } else {
                                      if (features[1] < -1) {
                                          return 106.000000f;
                                      } else {
                                          return 103.000000f;
                                      }
                                  }
                              } else {
                                  if (features[0] < 1) {
                                      if (features[1] < -1) {
                                          if (features[1] < -1) {
                                              if (features[2] < 1) {
                                                  return 91.250000f;
                                              } else {
                                                  return 103.000000f;
                                              }
                                          } else {
                                              if (features[2] < 1) {
                                                  return 106.000000f;
                                              } else {
                                                  return 103.000000f;
                                              }
                                          }
                                      } else {
                                          if (features[1] < -1) {
                                              if (features[2] < 1) {
                                                  return 85.833333f;
                                              } else {
                                                  return 83.500000f;
                                              }
                                          } else {
                                              if (features[2] < 1) {
                                                  return 93.250000f;
                                              } else {
                                                  return 87.333333f;
                                              }
                                          }
                                      }
                                  } else {
                                      if (features[1] < -1) {
                                          return 93.000000f;
                                      } else {
                                          if (features[0] < 1) {
                                              return 106.000000f;
                                          } else {
                                              return 102.000000f;
                                          }
                                      }
                                  }
                              }
                          } else {
                              if (features[2] < 1) {
                                  if (features[0] < 1) {
                                      return 84.000000f;
                                  } else {
                                      return 83.000000f;
                                  }
                              } else {
                                  return 93.000000f;
                              }
                          }
                      } else {
                          if (features[0] < 1) {
                              if (features[0] < 1) {
                                  return 106.000000f;
                              } else {
                                  return 105.000000f;
                              }
                          } else {
                              return 93.000000f;
                          }
                      }
                  } else {
                      if (features[0] < 2) {
                          if (features[0] < 1) {
                              if (features[1] < -1) {
                                  if (features[1] < -1) {
                                      return 84.000000f;
                                  } else {
                                      return 87.000000f;
                                  }
                              } else {
                                  return 83.000000f;
                              }
                          } else {
                              if (features[2] < 0) {
                                  return 83.000000f;
                              } else {
                                  if (features[2] < 1) {
                                      return 93.000000f;
                                  } else {
                                      return 105.000000f;
                                  }
                              }
                          }
                      } else {
                          return 106.000000f;
                      }
                  }
              }
          } else {
              if (features[0] < -1) {
                  if (features[2] < 0) {
                      if (features[2] < 0) {
                          return 92.000000f;
                      } else {
                          if (features[1] < 0) {
                              if (features[1] < 0) {
                                  if (features[1] < 0) {
                                      if (features[2] < 0) {
                                          return 93.000000f;
                                      } else {
                                          return 96.000000f;
                                      }
                                  } else {
                                      if (features[0] < -2) {
                                          return 106.000000f;
                                      } else {
                                          return 102.000000f;
                                      }
                                  }
                              } else {
                                  if (features[0] < -1) {
                                      if (features[0] < -2) {
                                          return 93.000000f;
                                      } else {
                                          return 96.000000f;
                                      }
                                  } else {
                                      return 103.000000f;
                                  }
                              }
                          } else {
                              if (features[0] < -2) {
                                  if (features[1] < 0) {
                                      return 102.000000f;
                                  } else {
                                      return 87.000000f;
                                  }
                              } else {
                                  if (features[2] < 0) {
                                      if (features[0] < -1) {
                                          return 102.000000f;
                                      } else {
                                          return 103.000000f;
                                      }
                                  } else {
                                      if (features[0] < -1) {
                                          return 103.000000f;
                                      } else {
                                          return 105.000000f;
                                      }
                                  }
                              }
                          }
                      }
                  } else {
                      if (features[1] < 0) {
                          if (features[2] < 0) {
                              return 84.000000f;
                          } else {
                              return 83.000000f;
                          }
                      } else {
                          return 92.000000f;
                      }
                  }
              } else {
                  if (features[2] < -1) {
                      if (features[0] < 0) {
                          if (features[1] < 2) {
                              if (features[1] < 1) {
                                  if (features[0] < 0) {
                                      if (features[0] < 0) {
                                          if (features[1] < 1) {
                                              if (features[1] < 0) {
                                                  return 98.500000f;
                                              } else {
                                                  return 93.166667f;
                                              }
                                          } else {
                                              if (features[1] < 1) {
                                                  return 102.750000f;
                                              } else {
                                                  return 93.333333f;
                                              }
                                          }
                                      } else {
                                          return 106.000000f;
                                      }
                                  } else {
                                      if (features[1] < 1) {
                                          if (features[1] < 1) {
                                              if (features[1] < 1) {
                                                  return 90.875000f;
                                              } else {
                                                  return 87.000000f;
                                              }
                                          } else {
                                              if (features[1] < 1) {
                                                  return 102.000000f;
                                              } else {
                                                  return 93.000000f;
